
\data\
ngram 1=2750
ngram 2=6229
ngram 3=825

\1-grams:
-1.495573	</s>
-99	<s>	-0.7223696
-3.062871	I	-0.6989701
-3.273725	IНША	-0.9030899
-2.319482	Є	-0.7354001
-3.875784	ЄВРЕЄМ	-0.30103
-3.699693	ЄВРЕЇ	-0.30103
-3.875784	ЄВРЕЙ	-0.30103
-3.875784	ЄВРЕЙКА	-0.30103
-3.875784	ЄВРЕЯМИ	-0.30103
-3.097633	ЄПАРХІЇ	-1.079181
-3.097633	ЄПИСКОП	-1.079181
-1.601627	І	-0.4923055
-3.875784	ІВАНЕНКО	-0.30103
-3.875784	ІГНОРУВАТИ	-0.30103
-3.875784	ІГНОРУЮТЬ	-0.30103
-3.176815	ІДЕЇ	-0.9999999
-3.097633	ІДЕЙ	-1.079181
-3.875784	ІДЕЙНО	-0.30103
-3.875784	ІДУТЬ	-0.30103
-2.523602	ІЗ	-0.4643469
-3.875784	ІМЯ	-0.30103
-3.222572	ІНІЦІАТИВІ	-0.9542425
-3.477844	ІНАКШЕ	-0.30103
-3.875784	ІНДУСТРІЇ	-0.30103
-3.477844	ІНКОЛИ	-0.30103
-3.135422	ІНОДІ	-0.7781514
-3.398663	ІНСТИТУТІ	-0.7781513
-3.331717	ІНСТИТУТІВ	-0.8450981
-3.331717	ІНСТИТУТСЬКИЙ	-0.845098
-3.331717	ІНСТИТУТУ	-0.8450981
-3.875784	ІНТЕЛІГЕНТ	-0.30103
-3.875784	ІНТЕЛІГЕНТА	-0.30103
-3.875784	ІНТЕЛІГЕНТОМ	-0.30103
-3.875784	ІНТЕРЕС	-0.30103
-3.097633	ІНШІ	-0.5740315
-3.875784	ІНШІЙ	-0.30103
-3.875784	ІНША	-0.30103
-3.875784	ІНШЕ	-0.30103
-3.062871	ІНШИЙ	-1.113943
-3.062871	ІНШИМ	-0.6020597
-3.273725	ІНШИХ	-0.6532125
-3.574754	ІНШОГО	-0.39794
-3.875784	ІНШОМУ	-0.30103
-3.222572	ІСНУЄ	-0.9542425
-3.875784	ІСНУВАННЯ	-0.30103
-3.875784	ІСНУЮЧИМ	-0.30103
-3.062871	ІСТОРІЄЮ	-1.113943
-3.875784	ІСТОРІЇ	-0.30103
-3.875784	ІСТОРИКІВ	-0.30103
-3.875784	ІСТОРИЧНОГО	-0.30103
-3.875784	ІСТОРИЧНОМУ	-0.30103
-3.875784	ІСТОТА	-0.30103
-3.875784	ІЩЕ	-0.30103
-3.176815	ЇЇ	-0.3273588
-3.875784	ЇЇАКВАТОРІЮ	-0.30103
-3.875784	ЇДЕ	-0.30103
-3.331717	ЇДУТЬ	-0.3424226
-3.699693	ЇЙ	-0.30103
-3.398663	ЇМ	-0.30103
-3.875784	ЇСТЬ	-0.30103
-2.714417	ЇХ	-0.3933443
-3.875784	ЇХАТИ	-0.30103
-3.875784	ЇХНІ	-0.30103
-3.875784	ЇХНІМИ	-0.30103
-3.699693	ЇХНЯ	-0.30103
-2.436452	А	-0.5118834
-3.477844	АБИ	-0.30103
-3.097633	АБО	-0.3010301
-3.875784	АВТОМАТИЧНО	-0.30103
-3.875784	АВТОМОБІЛІВ	-0.30103
-3.875784	АВТОСТОЯНКИ	-0.30103
-3.875784	АГІТАЦІЙНУ	-0.30103
-3.875784	АГА	-0.30103
-3.875784	АГРЕСИВНА	-0.30103
-3.875784	АДЖЕ	-0.30103
-3.875784	АДМІНІСТРАТИВНОГО	-0.30103
-3.699693	АЖ	-0.30103
-3.875784	АКЦІЯМИ	-0.30103
-2.268329	АЛЕ	-0.4376127
-3.875784	АЛКОГОЛЬНІЙ	-0.30103
-3.875784	АЛКОГОЛЬНОГО	-0.30103
-3.875784	АЛКОГОЛЮ	-0.30103
-3.574754	АЛЛО	-0.30103
-3.875784	АМБРАЗУРИ	-0.30103
-3.875784	АМБРАЗУРУ	-0.30103
-3.222572	АМЕРИКАНСЬКОЇ	-0.9542425
-3.699693	АМЕРИКОСІВ	-0.30103
-3.331717	АНАЛОГІЧНИХ	-0.8450981
-3.875784	АНТИКВАРНУ	-0.30103
-3.875784	АНТИСЕМІТ	-0.30103
-3.875784	АНТИСЕМІТИЗМ	-0.30103
-3.875784	АПАРАТ	-0.30103
-3.875784	АПТЕЧНИХ	-0.30103
-3.477844	АРТИСТIВ	-0.69897
-3.222572	АРХІТЕКТУРНОКУЛЬТУРНОЇ	-0.9542425
-3.222572	АРХІТЕКТУРНОКУЛЬТУРОЛОГІЧНЕ	-0.9542425
-3.875784	АТРАКЦІОНІВ	-0.30103
-3.875784	АТРАКЦІОНИ	-0.30103
-3.222572	Б	-0.3309931
-3.875784	БЄ	-0.30103
-3.574754	БЄЛГОРОДА	-0.30103
-3.574754	БЄТЬСЯ	-0.30103
-3.875784	БІБЛІОТЕЦІ	-0.30103
-3.875784	БІДКАЄТЬСЯ	-0.30103
-3.398663	БІЗНЕС	-0.30103
-3.875784	БІЙКОЮ	-0.30103
-3.875784	БІЙСЯ	-0.30103
-3.699693	БІК	-0.30103
-3.875784	БІЛЕ	-0.30103
-3.273725	БІЛОЛИЦИЙ	-0.9030899
-3.574754	БІЛОМУ	-0.39794
-3.574754	БІЛЬШІСТЬ	-0.30103
-2.921542	БІЛЬШЕ	-0.535113
-3.875784	БІЛЬШМЕНШ	-0.30103
-3.097633	БІЛЬШОЇ	-1.079181
-3.135422	БІЛЯ	-0.6368223
-3.875784	БІНОКЛЕМ	-0.30103
-3.477844	БІНОКЛЬ	-0.30103
-3.875784	БАБКАМИ	-0.30103
-3.574754	БАБКИ	-0.30103
-3.875784	БАБОК	-0.30103
-3.699693	БАБУСІ	-0.30103
-3.875784	БАБУСЮ	-0.30103
-3.176815	БАБУСЯ	-0.30103
-2.972694	БАГАТО	-0.6766938
-3.875784	БАГАТОФУНКЦІОНАЛЬНА	-0.30103
-3.875784	БАГАТТЯ	-0.30103
-3.875784	БАЙКИ	-0.30103
-3.875784	БАЛКОЮ	-0.30103
-3.875784	БАНКНОТИ	-0.30103
-3.875784	БАНКУ	-0.30103
-3.875784	БАРАХОЛЦІ	-0.30103
-3.875784	БАТЬКІВСЬКІЙ	-0.30103
-3.875784	БАТЬКІВЩИНУ	-0.30103
-3.135422	БАТЬКА	-1.041393
-3.875784	БАТЬКАМ	-0.30103
-3.875784	БАТЬКАМИ	-0.30103
-3.574754	БАТЬКИ	-0.30103
-3.875784	БАЧ	-0.30103
-3.574754	БАЧАТЬ	-0.30103
-3.875784	БАЧИВ	-0.30103
-3.875784	БАЧИМО	-0.30103
-3.875784	БАЧИТИ	-0.30103
-3.875784	БАЧИТЬ	-0.30103
-3.699693	БАЧИШ	-0.30103
-3.875784	БАЧУ	-0.30103
-3.875784	БАШКУ	-0.30103
-3.030686	БЕЗ	-0.4191294
-3.875784	БЕЗКІНЕЧНИЙ	-0.30103
-3.875784	БЕЗКОШТОВНІ	-0.30103
-3.875784	БЕЗНАДІЮ	-0.30103
-3.875784	БЕЗПАНТОВО	-0.30103
-3.875784	БЕЗПРОГРАШНИМИ	-0.30103
-3.875784	БЕЗРОБІТНІ	-0.30103
-3.875784	БЕЗРОБІТНОГО	-0.30103
-3.875784	БЕЗТУРБОТНА	-0.30103
-3.875784	БЕЗТУРБОТНО	-0.30103
-3.875784	БЕЗЦІНЬ	-0.30103
-3.699693	БЕРЕ	-0.30103
-3.875784	БЕРЕШ	-0.30103
-3.875784	БЕРИ	-0.30103
-3.699693	БЕРУТЬ	-0.30103
-3.875784	БЕСІДА	-0.30103
-3.875784	БЕТОННІ	-0.30103
-3.398663	БИ	-0.3521825
-3.875784	БИЛИСЬ	-0.3010299
-3.875784	БИТИ	-0.30103
-3.875784	БИТИСЬ	-0.30103
-3.875784	БЛІДИЙ	-0.30103
-3.875784	БЛАГОПОЛУЧЧЯ	-0.30103
-3.875784	БЛИЖНІХ	-0.30103
-3.875784	БЛИЗЬКИХ	-0.30103
-3.699693	БЛИЗЬКО	-0.30103
-3.875784	БЛУКАВ	-0.30103
-3.875784	БЛУКАЮ	-0.30103
-3.699693	БЛЯ	-0.30103
-3.875784	БЛЯДЬ	-0.30103
-2.834392	БО	-0.9030896
-3.875784	БОЇТЬСЯ	-0.30103
-3.875784	БОГОБОЯЗЛИВИЙ	-0.30103
-3.875784	БОДАЙ	-0.30103
-3.875784	БОКИ	-0.30103
-3.875784	БОКОМ	-0.30103
-3.574754	БОКУ	-0.30103
-3.875784	БОЛОТО	-0.30103
-3.222572	БОЛЯЧЕ	-0.6989699
-3.875784	БОРОТЬБА	-0.30103
-3.875784	БРАКУВАЛО	-0.30103
-3.062871	БРАЛАСЯ	-1.113943
-3.331717	БРАТА	-0.845098
-3.875784	БРЕЛИ	-0.30103
-3.574754	БУВ	-0.30103
-3.875784	БУВА	-0.30103
-3.574754	БУВАЄ	-0.30103
-3.097633	БУДІВНИКАМ	-1.079181
-3.331717	БУДЕ	-0.30103
-3.875784	БУДЕМО	-0.30103
-3.875784	БУДИНОЧКА	-0.30103
-3.875784	БУДИНОЧОК	-0.30103
-3.331717	БУДИТЬ	-0.845098
-3.875784	БУДУТЬ	-0.30103
-3.875784	БУДЬ	-0.30103
-3.875784	БУДЬЩО	-0.30103
-3.331717	БУЛА	-0.8450981
-3.062871	БУЛИ	-0.845098
-2.921542	БУЛО	-0.535113
-2.699693	БУТИ	-0.7659168
-3.875784	БЮТЬ	-0.30103
-3.699693	БЮТЬСЯ	-0.30103
-1.98369	В	-0.425969
-2.729656	ВІД	-0.3590219
-3.875784	ВІДІБРАВ	-0.30103
-3.875784	ВІДІРВАЛИ	-0.30103
-3.574754	ВІДІРВЕМО	-0.39794
-3.875784	ВІДБИТИЙ	-0.30103
-3.875784	ВІДБУВАЄТЬСЯ	-0.30103
-3.875784	ВІДБУВСЯ	-0.30103
-3.398663	ВІДБУЛАСЯ	-0.7781513
-3.875784	ВІДВЕЛИ	-0.30103
-3.875784	ВІДВЕРНУВШИСЬ	-0.30103
-3.477844	ВІДВЕРНУТИСЬ	-0.69897
-3.875784	ВІДВЕРТО	-0.30103
-3.875784	ВІДВОДЯТЬ	-0.30103
-3.875784	ВІДВЯЗНІ	-0.30103
-3.875784	ВІДГОРОДИЛОСЬ	-0.30103
-3.574754	ВІДДІЛ	-0.39794
-3.875784	ВІДДІЛІ	-0.30103
-3.875784	ВІДКАЧАЄМО	-0.30103
-3.875784	ВІДКАЧАТИ	-0.30103
-3.273725	ВІДКИДАТИ	-0.9030899
-3.273725	ВІДКЛАДАТИ	-0.90309
-3.875784	ВІДКРИТИ	-0.30103
-3.398663	ВІДКРИТТЯ	-0.7781513
-3.875784	ВІДКРУТИШСЯ	-0.30103
-3.875784	ВІДКУПИТИСЬ	-0.30103
-3.875784	ВІДЛЕТІВ	-0.30103
-3.699693	ВІДЛИТИ	-0.3010301
-3.875784	ВІДМІННИКІВ	-0.30103
-3.699693	ВІДМОВИВСЯ	-0.30103
-3.222572	ВІДНОВЛЕННЯ	-0.9542425
-3.875784	ВІДНОВЛЮЄТЬСЯ	-0.30103
-3.875784	ВІДОБРАЖЕННІ	-0.30103
-3.875784	ВІДОБРАЖЕННЯ	-0.30103
-3.875784	ВІДОМУ	-0.30103
-3.699693	ВІДПОВІДНО	-0.30103
-3.875784	ВІДПОВІСТИ	-0.30103
-3.875784	ВІДПОВЗАЄ	-0.30103
-3.875784	ВІДПОВЗАТИ	-0.30103
-3.875784	ВІДПОЧАТКУ	-0.30103
-3.574754	ВІДРАЗУ	-0.30103
-3.062871	ВІДРЕАГУВАТИ	-1.113943
-3.875784	ВІДСИПАЄТЬСЯ	-0.30103
-3.875784	ВІДТІСНЯТИ	-0.30103
-3.875784	ВІДЧАЙДУШНІ	-0.30103
-3.875784	ВІДЧАЙДУШНО	-0.30103
-3.875784	ВІДЧУВАЮЧИ	-0.30103
-3.875784	ВІДЧУЮТЬ	-0.30103
-3.875784	ВІЗЬМЕШ	-0.30103
-3.875784	ВІКНОМ	-0.30103
-2.301753	ВІН	-0.3373798
-3.875784	ВІРА	-0.30103
-3.875784	ВІРНІШЕ	-0.30103
-3.097633	ВІРНИХ	-1.079181
-3.875784	ВІРЯТЬ	-0.30103
-3.222572	ВІСІМ	-0.69897
-3.875784	ВІСІМНАДЦЯТЬ	-0.30103
-3.875784	ВІТАЛІК	-0.30103
-3.875784	ВІТАЛЬНІ	-0.30103
-3.875784	ВІТАЮТЬ	-0.30103
-3.875784	ВІТРИНИ	-0.30103
-3.875784	ВІТРИНУ	-0.30103
-3.875784	ВІТЧИМ	-0.30103
-3.875784	ВІЦІ	-0.30103
-3.875784	ВІЧНО	-0.30103
-3.699693	ВАГАВСЯ	-0.30103
-3.875784	ВАГОНУ	-0.30103
-3.875784	ВАЖКИЙ	-0.30103
-3.875784	ВАЖКИМ	-0.30103
-3.331717	ВАЖКО	-0.3010302
-3.875784	ВАЖЛИВОЮ	-0.30103
-3.875784	ВАМ	-0.30103
-3.875784	ВАНТАЖІВ	-0.30103
-3.875784	ВАНТАЖИТИ	-0.30103
-3.875784	ВАРІАНТІВ	-0.30103
-3.875784	ВАРТОВИХ	-0.30103
-3.222572	ВАС	-0.6989702
-3.875784	ВАСЮ	-0.30103
-3.097633	ВАСЯ	-0.3756637
-3.030686	ВАХА	-0.3187587
-3.398663	ВАХИ	-0.30103
-3.875784	ВАХТЕРАМ	-0.30103
-3.875784	ВАХУ	-0.30103
-3.875784	ВБІГАЄ	-0.30103
-3.699693	ВБІК	-0.30103
-3.699693	ВБОЛІВАЛЬНИКІВ	-0.30103
-3.699693	ВБОЛІВАЛЬНИКИ	-0.30103
-3.875784	ВБОЛІВАТИ	-0.30103
-3.699693	ВВАЖАЄ	-0.30103
-3.875784	ВВАЖАВСЯ	-0.30103
-3.875784	ВВАЖАЮ	-0.30103
-3.062871	ВВАЖАЮЧИ	-1.113943
-3.574754	ВГОРУ	-0.30103
-3.875784	ВГРИЗАТИСЬ	-0.30103
-3.875784	ВДЕНЬ	-0.30103
-3.699693	ВДОМА	-0.30103
-3.875784	ВЕЛЕТЕНСЬКІ	-0.30103
-3.875784	ВЕЛЕТЕНСЬКИЙ	-0.30103
-3.875784	ВЕЛИКІ	-0.30103
-3.875784	ВЕЛИКА	-0.30103
-3.477844	ВЕЛИКИЙ	-0.69897
-3.699693	ВЕЛИКИМ	-0.4771212
-3.875784	ВЕЛИКИХ	-0.30103
-3.875784	ВЕЛИКОЮ	-0.30103
-3.875784	ВЕРБУВАЛЬНИКІВ	-0.30103
-3.875784	ВЕРТУШКИ	-0.30103
-3.875784	ВЕСЕЛО	-0.30103
-3.273725	ВЕСТИ	-0.9030899
-3.574754	ВЕСЬ	-0.39794
-3.875784	ВЕТЕРАН	-0.30103
-3.875784	ВЕТЕРАНСЬКЕ	-0.30103
-3.699693	ВЕТЕРАНСЬКИМ	-0.4771212
-2.796603	ВЖЕ	-0.3324384
-3.875784	ВЖИВАЄ	-0.30103
-2.946366	ВЗАГАЛІ	-0.4149734
-3.875784	ВЗИМКУ	-0.30103
-3.875784	ВЗЯЛИ	-0.30103
-3.273725	ВИ	-0.335792
-3.875784	ВИЄ	-0.30103
-3.875784	ВИЇЗДІ	-0.30103
-3.875784	ВИБАЧАТИСЬ	-0.30103
-3.875784	ВИБИВ	-0.30103
-3.875784	ВИБИТИМИ	-0.30103
-3.875784	ВИБРАЛИСЯ	-0.30103
-3.875784	ВИВАЛЮЄТЬСЯ	-0.30103
-3.875784	ВИГАДУЄ	-0.30103
-3.875784	ВИГЛЯД	-0.30103
-3.699693	ВИГЛЯДАЄ	-0.30103
-3.875784	ВИГЛЯДАЛО	-0.30103
-3.875784	ВИГРАВАЛИ	-0.30103
-3.273725	ВИДІЛЯЛИСЯ	-0.9030901
-3.222572	ВИДАНИХ	-0.9542425
-3.135422	ВИДАННЯ	-1.041393
-3.176815	ВИДАТИ	-0.9999999
-3.875784	ВИЖИЛИ	-0.30103
-3.875784	ВИЙШЛО	-0.30103
-3.875784	ВИКИДАЮТЬ	-0.30103
-3.875784	ВИКИНУЛИ	-0.30103
-3.875784	ВИКЛЮЧНО	-0.30103
-3.875784	ВИКОНУВАТИ	-0.30103
-3.477844	ВИКРИЛИ	-0.69897
-3.875784	ВИЛІЗАЮ	-0.30103
-3.699693	ВИЛІТАЮТЬ	-0.30103
-3.875784	ВИЛАЗИТЬ	-0.30103
-3.875784	ВИЛОВЛЮВАТИ	-0.30103
-3.875784	ВИМАГАЄТЬСЯ	-0.30103
-3.875784	ВИНОСИТЬ	-0.30103
-3.875784	ВИПАДКАХ	-0.30103
-3.875784	ВИПАДКОВА	-0.30103
-3.875784	ВИПАДКУ	-0.30103
-3.875784	ВИПОВЗАЄ	-0.30103
-3.875784	ВИПРОМІНЮВАЛИ	-0.30103
-3.875784	ВИПХАТИ	-0.30103
-3.875784	ВИПЮТЬ	-0.30103
-3.875784	ВИРИВАЮЧИ	-0.30103
-3.875784	ВИРОСТЕШ	-0.30103
-3.273725	ВИСВИСТУЄ	-0.9030899
-3.875784	ВИСИДЖУЄ	-0.30103
-3.574754	ВИСТАЧАЄ	-0.30103
-3.875784	ВИСТАЧИТЬ	-0.30103
-3.875784	ВИСТРИБУЮТЬ	-0.30103
-3.222572	ВИСТУП	-0.9542425
-3.875784	ВИТРІЩАЛИСЯ	-0.30103
-3.875784	ВИТРИМУЄ	-0.30103
-3.875784	ВИТЯГУЮТЬ	-0.30103
-3.875784	ВИХОДИЛИ	-0.30103
-3.875784	ВИХОДИЛО	-0.30103
-3.875784	ВИХОДИМО	-0.30103
-3.331717	ВИХОДИТЬ	-0.3010299
-3.699693	ВИХОДУ	-0.30103
-3.875784	ВИХОДЯТЬ	-0.30103
-3.875784	ВИШТОВХАЛА	-0.30103
-3.875784	ВИЩИЙ	-0.30103
-3.699693	ВИЯВЛЯЄТЬСЯ	-0.30103
-3.875784	ВКІНЕЦЬ	-0.30103
-3.875784	ВКЛАДАЮЧИ	-0.30103
-3.875784	ВКЛЮЧНО	-0.30103
-3.875784	ВКОЛОЧУЮТЬ	-0.30103
-3.273725	ВКРАДЕШ	-0.90309
-3.875784	ВЛАДИ	-0.30103
-3.875784	ВЛАСНА	-0.30103
-3.477844	ВЛАСНЕ	-0.30103
-3.875784	ВЛАСНИЙ	-0.30103
-3.875784	ВЛАСНОЇ	-0.30103
-3.331717	ВЛАСНОГО	-0.8450981
-3.699693	ВЛАСНОМУ	-0.30103
-3.875784	ВЛАШТОВУВАЛО	-0.30103
-3.699693	ВЛАШТУВАЛИ	-0.30103
-3.875784	ВЛАШТУВАЛИСЯ	-0.30103
-3.875784	ВЛЕТИШ	-0.30103
-3.875784	ВЛИВАЮТЬ	-0.30103
-3.875784	ВМІЄ	-0.30103
-3.875784	ВМІЄШ	-0.30103
-3.875784	ВНИЗ	-0.30103
-3.574754	ВНОЧІ	-0.30103
-3.699693	ВНЮХАЮТЬ	-0.30103
-3.030686	ВОВА	-0.5563023
-3.699693	ВОВИ	-0.30103
-3.875784	ВОВКУ	-0.30103
-3.875784	ВОВОЮ	-0.30103
-3.699693	ВОВУ	-0.30103
-3.875784	ВОДІЇВ	-0.30103
-3.875784	ВОДІЙСЬКЕ	-0.30103
-3.331717	ВОДА	-0.8450981
-3.875784	ВОДИТИСЬ	-0.30103
-3.030686	ВОДНОЧАС	-0.8750612
-3.875784	ВОДЦІ	-0.30103
-3.222572	ВОДЯРИ	-0.30103
-3.574754	ВОДЯРОЮ	-0.30103
-3.574754	ВОДЯРУ	-0.30103
-3.875784	ВОДЯТЬСЯ	-0.30103
-3.875784	ВОЗИТИ	-0.30103
-3.574754	ВОКЗАЛ	-0.30103
-3.574754	ВОКЗАЛІ	-0.30103
-3.875784	ВОЛІ	-0.30103
-3.875784	ВОЛОГІЙ	-0.30103
-3.699693	ВОЛОДІ	-0.30103
-3.574754	ВОЛОДЕЮ	-0.30103
-3.699693	ВОЛОДЮ	-0.30103
-3.097633	ВОЛОДЯ	-0.30103
-3.097633	ВОЛОНТЕРАМ	-1.079181
-3.875784	ВОЛЮ	-0.30103
-2.699693	ВОНА	-0.5606672
-2.325556	ВОНИ	-0.3802116
-3.699693	ВОНО	-0.30103
-3.875784	ВОРОГИ	-0.30103
-3.331717	ВОРОГУВАТИ	-0.8450981
-3.875784	ВОРОТАРЕМ	-0.30103
-3.875784	ВОСТАННЄ	-0.30103
-3.875784	ВОСЬМОГО	-0.30103
-3.875784	ВПІЗНАЄ	-0.3010301
-3.699693	ВПАДЕШ	-0.30103
-3.875784	ВПАСТИ	-0.30103
-3.875784	ВПЕРТО	-0.30103
-3.875784	ВПИРАЄ	-0.30103
-3.875784	ВПИРАЄТЬСЯ	-0.30103
-3.875784	ВПУСТИЛА	-0.30103
-3.875784	ВРАХОВУЮЧИ	-0.30103
-3.574754	ВРЕШТІ	-0.30103
-2.921542	ВСІ	-0.3143938
-3.699693	ВСІЛЯКІ	-0.30103
-3.875784	ВСІМ	-0.30103
-3.477844	ВСІХ	-0.30103
-2.344306	ВСЕ	-0.5788305
-3.875784	ВСЕРЕДИНІ	-0.30103
-3.477844	ВСЕТАКИ	-0.69897
-3.273725	ВСТАВАЛО	-0.90309
-3.273725	ВСТАНЕ	-0.90309
-3.875784	ВСТЕЛЕНИХ	-0.30103
-3.875784	ВСТУПАТИ	-0.30103
-3.875784	ВСТУПИТИ	-0.30103
-3.875784	ВСУПЕРЕЧ	-0.30103
-3.699693	ВСЬОМУ	-0.4771213
-3.176815	ВСЮ	-0.7403626
-3.699693	ВСЮДИ	-0.30103
-3.875784	ВСЯКЕ	-0.30103
-3.875784	ВСЯКОМУ	-0.30103
-3.875784	ВТИКАЙ	-0.30103
-3.875784	ВТОМЛЕНИЙ	-0.30103
-3.331717	ВТРАЧАЄ	-0.8450981
-3.875784	ВТРАЧАТИ	-0.30103
-3.875784	ВТРИМУЄТЬСЯ	-0.30103
-3.477844	ВУЛИЦІ	-0.30103
-3.875784	ВУЛИЦЮ	-0.30103
-3.176815	ВУХА	-0.7403628
-3.875784	ВУХО	-0.30103
-3.875784	ВУХОМ	-0.30103
-3.875784	ВЦІЛІВ	-0.30103
-3.875784	ВЧАСНО	-0.30103
-3.875784	ВЧЕРГОВЕ	-0.30103
-3.875784	ВЧИЛИСЬ	-0.30103
-3.875784	ВЧОРА	-0.30103
-3.875784	ГІВНА	-0.30103
-3.699693	ГІВНО	-0.30103
-3.875784	ГІВНОМ	-0.30103
-3.222572	ГІПОТЕЗ	-0.9542425
-3.875784	ГАДІСТЮ	-0.30103
-3.875784	ГАЗЕТ	-0.30103
-3.875784	ГАЗЕТА	-0.30103
-3.699693	ГАЗЕТИ	-0.30103
-3.699693	ГАЗЕТУ	-0.30103
-3.875784	ГАЗОВІЙ	-0.30103
-3.135422	ГАЙДИ	-1.041393
-3.875784	ГАЛАСЛИВІ	-0.30103
-2.898061	ГАЛЕРЕЇ	-1.278754
-3.097633	ГАЛИЧАНАМИ	-1.079181
-3.875784	ГАЛЬМОНУТИЙ	-0.30103
-3.875784	ГАНЯЮТЬ	-0.30103
-3.875784	ГАРАЗД	-0.30103
-3.875784	ГАРНА	-0.30103
-3.875784	ГАРНОГО	-0.30103
-3.875784	ГАСТРОЛЕР	-0.30103
-3.875784	ГАСТРОЛЕРІВ	-0.30103
-3.875784	ГАСТРОЛЕРА	-0.30103
-3.699693	ГАСТРОНОМ	-0.30103
-3.875784	ГАСТРОНОМІВ	-0.30103
-3.875784	ГАСТРОНОМУ	-0.30103
-3.331717	ГЕОДЕЗІЇ	-0.845098
-3.875784	ГЕРОЇ	-0.30103
-3.875784	ГЕРОЇН	-0.30103
-3.699693	ГЕРОЙ	-0.30103
-3.875784	ГЛИБИНІ	-0.30103
-3.699693	ГЛИБШЕ	-0.30103
-3.875784	ГНАЛИ	-0.30103
-3.875784	ГОВОРИВ	-0.30103
-3.574754	ГОВОРИЛИ	-0.60206
-3.699693	ГОВОРИМО	-0.30103
-2.875784	ГОВОРИТИ	-0.5282741
-2.921542	ГОВОРИТЬ	-0.3832166
-3.176815	ГОВОРЯТЬ	-0.3979401
-3.477844	ГОДИНА	-0.30103
-3.875784	ГОДИНУ	-0.30103
-3.875784	ГОЛІННЯ	-0.30103
-3.875784	ГОЛИТИСЬ	-0.30103
-3.875784	ГОЛИХ	-0.30103
-3.875784	ГОЛОВІ	-0.30103
-3.477844	ГОЛОВИ	-0.30103
-3.135422	ГОЛОВНЕ	-0.4771214
-3.699693	ГОЛОВОЮ	-0.30103
-3.875784	ГОЛОВУ	-0.30103
-3.875784	ГОЛОДНА	-0.30103
-3.875784	ГОЛОДУ	-0.30103
-3.875784	ГОЛОСИ	-0.30103
-3.875784	ГОЛОСНУ	-0.3010301
-3.875784	ГОЛУБІВ	-0.30103
-3.875784	ГОЛУБАМИ	-0.30103
-3.875784	ГОЛУБИ	-0.30103
-3.331717	ГОМОНІВ	-0.845098
-3.875784	ГОМОСЕКСУАЛІЗМОМ	-0.30103
-3.875784	ГОРІВ	-0.30103
-3.574754	ГОРІЛА	-0.30103
-3.875784	ГОРІЛИ	-0.30103
-3.699693	ГОРІЛЧАНОЇ	-0.30103
-3.875784	ГОРЛО	-0.30103
-3.875784	ГОРЛОМ	-0.30103
-3.875784	ГОРЛЯНКИ	-0.30103
-3.699693	ГОРОДА	-0.30103
-3.875784	ГОТУЄ	-0.30103
-3.875784	ГРІЗНІ	-0.30103
-3.875784	ГРА	-0.30103
-3.875784	ГРАЄ	-0.30103
-3.875784	ГРАНТ	-0.30103
-3.875784	ГРАЮТЬ	-0.30103
-3.875784	ГРИБИ	-0.30103
-3.875784	ГРИБНИКІВ	-0.30103
-3.699693	ГРОШІ	-0.30103
-3.875784	ГРОШЕЙ	-0.30103
-3.875784	ГРОШОВОЮ	-0.30103
-3.875784	ГРУ	-0.30103
-3.875784	ГРУБИЙ	-0.30103
-3.875784	ГРУДЬМИ	-0.30103
-3.699693	ГРУЗИН	-0.30103
-3.699693	ГРУЗИНИ	-0.4771213
-2.898061	ГРУПИ	-0.9999998
-3.875784	ГУБАХ	-0.30103
-3.875784	ГУБЛЯТЬ	-0.30103
-3.875784	ГУЩАВИНИ	-0.30103
-3.273725	ДІЄТИ	-0.9030899
-3.875784	ДІБ	-0.30103
-3.398663	ДІВЧИНІ	-0.7781513
-3.875784	ДІЙСНІСТЮ	-0.30103
-3.222572	ДІЙСТВО	-0.9542425
-3.574754	ДІСТАЄ	-0.39794
-3.875784	ДІСТАЛИ	-0.30103
-3.331717	ДІТЕЙ	-0.8450981
-3.875784	ДАВАЙ	-0.30103
-3.273725	ДАВАТИ	-0.90309
-3.875784	ДАВЛЯЧИ	-0.30103
-3.222572	ДАВНЬОРУСЬКА	-0.9542425
-3.273725	ДАВНЬОРУСЬКОЇ	-0.9030899
-3.273725	ДАЛІ	-0.335792
-3.875784	ДАРЕМНО	-0.30103
-3.875784	ДАУНІВ	-0.30103
-3.699693	ДАХ	-0.30103
-3.875784	ДАХОМ	-0.30103
-3.875784	ДАЮТЬ	-0.30103
-3.097633	ДВІ	-0.50515
-3.176815	ДВІЧІ	-0.6020601
-3.331717	ДВА	-0.39794
-3.875784	ДВАДЦЯТКУ	-0.30103
-3.875784	ДВАДЦЯТЬ	-0.30103
-3.875784	ДВЕРІ	-0.30103
-3.875784	ДВОЄ	-0.30103
-3.699693	ДВОХ	-0.30103
-3.273725	ДЕ	-0.3010302
-3.875784	ДЕВЯТИПОВЕРХІВКУ	-0.30103
-3.574754	ДЕВЯТНАДЦЯТЬ	-0.30103
-3.875784	ДЕВЯТОГО	-0.30103
-3.222572	ДЕКІЛЬКА	-0.9542425
-3.875784	ДЕМБЕЛЬ	-0.30103
-3.875784	ДЕМОКРАТИЧНОГО	-0.30103
-3.875784	ДЕМПІНГОВОГО	-0.30103
-3.875784	ДЕНЕБУДЬ	-0.3010299
-3.477844	ДЕНЬ	-0.30103
-3.699693	ДЕРЕВА	-0.30103
-3.699693	ДЕРЕВАМИ	-0.30103
-3.477844	ДЕРЖАВНА	-0.69897
-3.062871	ДЕСЬ	-0.3679769
-3.477844	ДЕСЯТА	-0.3679768
-3.875784	ДЕСЯТКІВ	-0.30103
-3.875784	ДЕСЯТКА	-0.30103
-3.574754	ДЕСЯТЬ	-0.30103
-3.574754	ДЕЩО	-0.30103
-3.875784	ДЗВОНИК	-0.30103
-3.875784	ДИВИЛАСЬ	-0.30103
-3.699693	ДИВИСЬ	-0.30103
-3.135422	ДИВИТЬСЯ	-0.4771214
-3.875784	ДИВЛЮСЬ	-0.30103
-3.699693	ДИВЛЯТЬСЯ	-0.30103
-3.875784	ДИВНА	-0.30103
-3.875784	ДИВНИЙ	-0.30103
-3.331717	ДИВНО	-0.845098
-3.331717	ДИСКУСІЮ	-0.845098
-3.331717	ДЛЯ	-0.3424227
-3.699693	ДНІ	-0.30103
-3.000723	ДНІВ	-0.4393326
-3.875784	ДНЯ	-0.30103
-2.279187	ДО	-0.4698218
-3.273725	ДОБИ	-0.90309
-3.875784	ДОБИРАЮТЬСЯ	-0.30103
-3.176815	ДОБРЕ	-0.3010299
-3.875784	ДОБРОГО	-0.30103
-3.875784	ДОБРУ	-0.30103
-3.875784	ДОВІДАЛИСЬ	-0.30103
-3.273725	ДОВІРЯТИ	-0.9030899
-3.875784	ДОВГО	-0.30103
-3.222572	ДОВКОЛА	-0.9542425
-3.875784	ДОВОДИЛОСЬ	-0.30103
-3.273725	ДОДАВАТИ	-0.90309
-3.477844	ДОДОМУ	-0.30103
-3.875784	ДОДУМАЄШ	-0.3010299
-3.875784	ДОКИ	-0.30103
-3.574754	ДОЛІ	-0.30103
-3.875784	ДОЛІВКУ	-0.30103
-3.875784	ДОЛАРИ	-0.30103
-3.875784	ДОЛЮ	-0.30103
-3.875784	ДОМАШНІЙ	-0.30103
-3.875784	ДОНБАС	-0.30103
-3.875784	ДОНБАСЬКИЙ	-0.30103
-3.875784	ДОНБАСЬКИМ	-0.30103
-3.875784	ДОНБАСЬКОГО	-0.30103
-3.875784	ДОПЛАЧУЄ	-0.30103
-3.097633	ДОПОМОГОЮ	-1.079181
-3.398663	ДОРОГУ	-0.7781513
-3.875784	ДОРОЗІ	-0.30103
-3.062871	ДОСІ	-1.113943
-3.699693	ДОСИТЬ	-0.30103
-2.745451	ДОСЛІДЖЕННЯ	-0.9852768
-3.875784	ДОСТАТНЬО	-0.30103
-3.273725	ДОТРИМУВАТИСЯ	-0.9030899
-3.875784	ДОЧЕКАТИСЬ	-0.30103
-3.875784	ДОЩІ	-0.30103
-3.875784	ДОЩІВ	-0.30103
-3.699693	ДОЩЕМ	-0.30103
-3.699693	ДОЩОВЕ	-0.4771212
-3.875784	ДРІМУЧОГО	-0.30103
-3.875784	ДРАЙВ	-0.30103
-3.699693	ДРУГ	-0.30103
-3.875784	ДРУГИЙ	-0.30103
-3.875784	ДРУГОГО	-0.30103
-3.875784	ДРУЖИТЬ	-0.30103
-3.875784	ДРУЖНІЙ	-0.30103
-3.875784	ДРУЖНЬО	-0.30103
-3.875784	ДРУЖНЯ	-0.30103
-3.176815	ДРУЗІ	-0.3273589
-3.398663	ДРУЗІВ	-0.30103
-3.699693	ДРУЗІРЕКЛАМНИКИ	-0.30103
-3.699693	ДРУЗЯМИ	-0.30103
-3.875784	ДРУКУВАТИ	-0.30103
-3.875784	ДУВ	-0.30103
-2.972694	ДУЖЕ	-0.5440678
-3.477844	ДУМА	-0.69897
-3.062871	ДУМАЄ	-0.39794
-3.875784	ДУМАВ	-0.30103
-3.875784	ДУМАТИ	-0.30103
-3.699693	ДУМАЮ	-0.30103
-3.875784	ДУМАЮТЬ	-0.30103
-3.875784	ДУМКУ	-0.30103
-3.062871	ДУМОК	-1.113943
-3.875784	ДУРАКІВ	-0.30103
-2.921542	ДУХОВНИЙ	-0.9777235
-3.875784	ДУШ	-0.30103
-3.135422	ДУШІ	-0.6368221
-3.699693	ДУША	-0.30103
-3.875784	ДУШУ	-0.30103
-3.875784	ЕГЕ	-0.30103
-3.875784	ЕЙ	-0.30103
-3.875784	ЕКОНОМЛЯТЬ	-0.30103
-3.875784	ЕКСКУРСІЇ	-0.30103
-3.331717	ЕКСПОЗИЦІЯ	-0.8450981
-3.875784	ЕЛЕКТРИЧКАМИ	-0.30103
-3.875784	ЕЛЕКТРИЧКОЮ	-0.30103
-3.875784	ЕЛЕКТРИЧКУ	-0.30103
-3.331717	ЕМОЦІЙНИЙ	-0.8450981
-3.273725	ЕТНІЧНОМОВНІ	-0.9030899
-2.597031	Ж	-0.5399122
-3.574754	ЖІНКА	-0.30103
-3.875784	ЖІНКИ	-0.3010301
-3.699693	ЖІНКО	-0.30103
-3.875784	ЖІНКУ	-0.30103
-3.875784	ЖІНЦІ	-0.30103
-3.875784	ЖАРТ	-0.30103
-3.398663	ЖАРТУЄ	-0.7781512
-2.946366	ЖАХ	-0.9542423
-3.875784	ЖАХЛИВА	-0.30103
-3.331717	ЖИВЕ	-0.3424226
-3.875784	ЖИВЕМО	-0.30103
-3.875784	ЖИВИЙ	-0.30103
-3.875784	ЖИВИМИ	-0.30103
-3.875784	ЖИВОЮ	-0.30103
-3.176815	ЖИВУТЬ	-0.6020601
-3.875784	ЖИДАМИ	-0.30103
-3.699693	ЖИДИ	-0.30103
-3.176815	ЖИТИ	-0.6020602
-3.875784	ЖИТТЄВІ	-0.30103
-3.875784	ЖИТТІ	-0.30103
-3.062871	ЖИТТЯ	-0.4771212
-3.875784	ЖОВТНІ	-0.30103
-3.875784	ЖОДНИХ	-0.30103
-3.875784	ЖОДНОЇ	-0.30103
-2.097633	З	-0.423701
-3.331717	ЗІ	-0.3010298
-3.875784	ЗІЛЛЄ	-0.30103
-3.875784	ЗІРВАЛА	-0.30103
-3.222572	ЗІРКИ	-0.9542425
-3.875784	ЗЇХАТИСЬ	-0.30103
-2.263001	ЗА	-0.5292188
-3.875784	ЗАЇЗДИЛИ	-0.30103
-3.875784	ЗАБІГАЄ	-0.30103
-3.875784	ЗАБУВАЄ	-0.30103
-3.135422	ЗАБУВАЙ	-1.041393
-3.875784	ЗАБУВАЮТЬ	-0.30103
-3.135422	ЗАБУДЬ	-1.041393
-3.875784	ЗАБУЛИ	-0.30103
-3.477844	ЗАВАДИТИ	-0.69897
-3.699693	ЗАВАЖАЛИ	-0.30103
-3.875784	ЗАВАЖАЮТЬ	-0.30103
-3.875784	ЗАВАЖАЮЧИ	-0.30103
-3.875784	ЗАВАЛЮЄ	-0.30103
-3.699693	ЗАВАЛЮЄТЬСЯ	-0.30103
-3.222572	ЗАВВИШКИ	-0.9542425
-3.222572	ЗАВДЯКИ	-0.9542425
-3.331717	ЗАВЕРШИТИ	-0.8450981
-2.645336	ЗАВЖДИ	-0.8808135
-3.875784	ЗАВИСАЄ	-0.30103
-3.875784	ЗАВМИРАЮТЬ	-0.30103
-3.000723	ЗАВТРА	-0.9030901
-3.875784	ЗАВЯЗ	-0.30103
-3.331717	ЗАГАЛОМ	-0.3010299
-3.875784	ЗАГОВОРИТЬ	-0.30103
-3.875784	ЗАДНИЦІ	-0.30103
-3.875784	ЗАДОВОЛЕНО	-0.30103
-3.331717	ЗАЗДРИТИ	-0.845098
-3.062871	ЗАЙ­МАЛАСЯ	-1.113943
-3.699693	ЗАЙВОГО	-0.30103
-3.875784	ЗАЙМАЄМОСЬ	-0.30103
-3.875784	ЗАЙМАЄТЬ	-0.30103
-3.875784	ЗАЙМАЄШСЯ	-0.30103
-3.331717	ЗАЙМАТИМУТЬСЯ	-0.8450981
-3.875784	ЗАЙМАТИСЬ	-0.30103
-3.477844	ЗАЙМАТИСЯ	-0.69897
-3.875784	ЗАЙМАЮТЬСЯ	-0.30103
-3.875784	ЗАЙМЕ	-0.30103
-3.875784	ЗАЙМИСЬ	-0.30103
-3.875784	ЗАКІНЧИВ	-0.30103
-3.875784	ЗАКІНЧУЄТЬСЯ	-0.30103
-3.097633	ЗАКАРПАТЦЯМИ	-1.079181
-3.331717	ЗАКИДІВ	-0.8450981
-3.875784	ЗАКОВТУЄ	-0.30103
-3.875784	ЗАКОНАМИ	-0.30103
-3.875784	ЗАКОННОГО	-0.30103
-3.875784	ЗАКРИТТЯ	-0.30103
-3.875784	ЗАКРИЧАТИ	-0.30103
-3.477844	ЗАЛ	-0.69897
-3.875784	ЗАЛІЗАЄ	-0.30103
-3.875784	ЗАЛІЗНІЙ	-0.30103
-3.875784	ЗАЛІЗНИЙ	-0.30103
-3.875784	ЗАЛІЗНОГО	-0.30103
-3.875784	ЗАЛІПЛЕНОМУ	-0.30103
-3.875784	ЗАЛАМАВСЯ	-0.30103
-3.875784	ЗАЛИШИЛИСЬ	-0.30103
-3.222572	ЗАЛИШИТИСЯ	-0.9542426
-3.477844	ЗАЛУЧАЮТЬ	-0.69897
-3.875784	ЗАМАНИТИ	-0.30103
-3.875784	ЗАМОВКЛИ	-0.30103
-3.875784	ЗАМОРДУВАВ	-0.30103
-3.875784	ЗАМОРОЧУВАТИСЬ	-0.30103
-3.875784	ЗАНИКАНИЙ	-0.30103
-3.331717	ЗАПІЗНАТИ	-0.8450981
-3.699693	ЗАПАДЛО	-0.30103
-3.875784	ЗАПАЛИ	-0.30103
-3.875784	ЗАПАШНОГО	-0.30103
-3.875784	ЗАПИВАЄ	-0.30103
-3.875784	ЗАПИТАВ	-0.30103
-3.875784	ЗАПИТАВСЯ	-0.30103
-3.875784	ЗАПЛИВАЄШ	-0.30103
-3.875784	ЗАПОВІТНІ	-0.30103
-3.875784	ЗАПОВЗАЄШ	-0.30103
-3.875784	ЗАПОВНЕНІ	-0.30103
-3.875784	ЗАПОЮ	-0.30103
-3.331717	ЗАПРОПОНУВАВ	-0.8450981
-3.097633	ЗАПРОШЕННЯ	-1.079181
-3.875784	ЗАПУСТИЛИ	-0.30103
-3.222572	ЗАРАЗ	-0.3679768
-3.875784	ЗАРОБЛЯТИ	-0.30103
-3.875784	ЗАРОСЛОМУ	-0.30103
-3.875784	ЗАСОХЛЕ	-0.30103
-3.875784	ЗАСПОКОЇЛА	-0.30103
-3.875784	ЗАСПОКОЇТИСЬ	-0.30103
-3.875784	ЗАСРАНІ	-0.30103
-3.875784	ЗАСТАЄ	-0.30103
-3.331717	ЗАСТОСУВАННЯ	-0.8450981
-3.875784	ЗАТАМОВУЮТЬ	-0.30103
-3.875784	ЗАТИХЛІ	-0.30103
-3.875784	ЗАТИШНОГО	-0.3010301
-3.875784	ЗАТУМАНЕНИМ	-0.30103
-3.699693	ЗАТЯГНУЛИ	-0.30103
-3.875784	ЗАТЯТІ	-0.3010301
-3.875784	ЗАХОДЯТЬ	-0.30103
-3.875784	ЗАХОДЯЧИ	-0.30103
-3.875784	ЗАЧАРОВАНО	-0.30103
-3.875784	ЗАЧИНЯЄТЬСЯ	-0.30103
-3.331717	ЗБЕРІГАЄТЬСЯ	-0.8450981
-3.222572	ЗБЕРЕЖЕННЯ	-0.9542425
-3.875784	ЗБИВАЮЧИСЬ	-0.30103
-3.875784	ЗБИРАЄ	-0.30103
-3.875784	ЗБИРАЄШСЯ	-0.30103
-3.875784	ЗБИРАЮТЬСЯ	-0.30103
-3.699693	ЗБОКУ	-0.30103
-3.875784	ЗБРОЯ	-0.30103
-3.875784	ЗБУДЖЕНІ	-0.3010301
-3.875784	ЗБУДЖЕННЯ	-0.30103
-3.875784	ЗБУДЛИВІШЕ	-0.30103
-3.875784	ЗВІДКИ	-0.30103
-3.477844	ЗВІДКИСЬ	-0.3679768
-3.875784	ЗВІДТИ	-0.30103
-3.875784	ЗВІРІ	-0.30103
-3.699693	ЗВІРЯТКО	-0.30103
-3.699693	ЗВІСНО	-0.3010301
-3.273725	ЗВАЖАЮТЬ	-0.90309
-3.875784	ЗВАЖАЮЧИ	-0.30103
-3.875784	ЗВАЖИВСЯ	-0.30103
-3.699693	ЗВАТИ	-0.30103
-3.875784	ЗВЕРТАТИСЬ	-0.30103
-3.875784	ЗВЕЧОРА	-0.30103
-3.875784	ЗВИКЛИ	-0.30103
-3.222572	ЗВИЧАЙНО	-0.3010299
-3.875784	ЗВОДИТЬСЯ	-0.30103
-3.875784	ЗВОДЯТЬСЯ	-0.30103
-3.875784	ЗВОЛОЖУЮТЬСЯ	-0.30103
-3.875784	ЗВУЧАТЬ	-0.30103
-3.331717	ЗГАДАНОМУ	-0.8450981
-3.699693	ЗГАДАТИ	-0.30103
-3.699693	ЗГАДУЄ	-0.30103
-3.875784	ЗГАДУЮТЬ	-0.30103
-3.875784	ЗГОДЕН	-0.30103
-3.097633	ЗГОДОМ	-1.079181
-3.875784	ЗГОРИ	-0.30103
-3.875784	ЗГРАЇ	-0.30103
-2.834392	ЗДАЄТЬСЯ	-0.7160035
-3.875784	ЗДАВАЛИСЯ	-0.30103
-3.875784	ЗДАТНІСТЬ	-0.30103
-3.875784	ЗДИРАЮЧИ	-0.30103
-3.875784	ЗДОГАДАТИСЬ	-0.30103
-3.875784	ЗДОГАДАЮТЬСЯ	-0.30103
-3.097633	ЗДОГАДУЄМОСЯ	-1.079181
-3.875784	ЗДОРОВЕ	-0.30103
-3.273725	ЗДОРОВЯ	-0.9030901
-3.875784	ЗДОХНУТИ	-0.30103
-3.875784	ЗЕКИ	-0.30103
-3.875784	ЗЕЛЕНКУВАТІ	-0.30103
-3.875784	ЗЕЛЕНУ	-0.30103
-3.875784	ЗЕЛЕНЬ	-0.30103
-3.273725	ЗЕМЛІ	-0.9030899
-3.875784	ЗЕМЛЕЮ	-0.30103
-3.875784	ЗИМИ	-0.30103
-3.875784	ЗЛИЙ	-0.30103
-3.331717	ЗЛИТИСЯ	-0.8450981
-3.176815	ЗЛО	-0.9999999
-3.875784	ЗЛЯКАЛАСЯ	-0.30103
-3.222572	ЗМІНЕТЬСЯ	-0.9542425
-3.875784	ЗМІСТ	-0.30103
-3.875784	ЗМАХУЮЧИ	-0.30103
-3.875784	ЗМИРИВСЯ	-0.30103
-3.875784	ЗМУЧЕНИЙ	-0.30103
-3.875784	ЗМУЧЕНИМИ	-0.30103
-3.875784	ЗНІМАЄ	-0.30103
-3.875784	ЗНІЧЕНО	-0.30103
-3.477844	ЗНАЄ	-0.30103
-3.574754	ЗНАЄТЕ	-0.39794
-3.875784	ЗНАВ	-0.30103
-3.875784	ЗНАЙДЕТЬСЯ	-0.30103
-3.273725	ЗНАЙДЕШ	-0.9030901
-3.273725	ЗНАЙДУТЬСЯ	-0.90309
-3.699693	ЗНАЙОМІ	-0.30103
-3.398663	ЗНАЙОМІЙ	-0.7781513
-3.398663	ЗНАЙОМИХ	-0.30103
-3.875784	ЗНАЙШЛИ	-0.30103
-3.176815	ЗНАЛИ	-0.7403627
-3.875784	ЗНАМЕНА	-0.30103
-3.062871	ЗНАННЯ	-0.845098
-3.875784	ЗНАХОДЯТЬ	-0.30103
-3.135422	ЗНАЧИТЬ	-0.6368222
-3.875784	ЗНАЧКИ	-0.30103
-2.921542	ЗНАЮ	-0.5351131
-3.699693	ЗНЕВАЖАЄТЕ	-0.30103
-3.875784	ЗНЕВАЖАТИ	-0.3010299
-3.875784	ЗНЕМОЖЕНО	-0.30103
-3.875784	ЗНИЖОК	-0.30103
-3.699693	ЗНИЗУ	-0.30103
-3.699693	ЗНИК	-0.30103
-3.875784	ЗНИКАЄ	-0.30103
-3.875784	ЗНИКАЮТЬ	-0.30103
-3.875784	ЗНИКЛИ	-0.3010301
-3.875784	ЗНИКНУВШИ	-0.30103
-3.574754	ЗНОВУ	-0.3979401
-3.875784	ЗНОСИТЬ	-0.30103
-3.875784	ЗНЯВ	-0.30103
-3.331717	ЗНЯЛИ	-0.845098
-3.875784	ЗОВНІ	-0.30103
-3.875784	ЗОВНІШНОСТІ	-0.30103
-3.135422	ЗОВСІМ	-0.3010302
-3.875784	ЗОКРЕМА	-0.30103
-3.699693	ЗОЛОТІ	-0.30103
-3.875784	ЗОЛОТОЗУБИЙ	-0.30103
-3.273725	ЗОРІ	-0.9030899
-3.875784	ЗПОЗА	-0.30103
-3.875784	ЗРАЗОК	-0.30103
-3.875784	ЗРАНКУ	-0.30103
-3.875784	ЗРЕШТОЮ	-0.30103
-3.699693	ЗРИВАЮТЬСЯ	-0.30103
-3.699693	ЗРОБИЛИ	-0.3010299
-3.875784	ЗРОБИТИ	-0.30103
-3.062871	ЗРОБИТЬ	-1.113943
-3.273725	ЗРОБЛЯТЬ	-0.90309
-3.574754	ЗРОЗУМІВ	-0.30103
-3.875784	ЗРОЗУМІЛО	-0.30103
-3.477844	ЗРОЗУМІТИ	-0.30103
-3.097633	ЗРОСЛА	-1.079181
-3.875784	ЗСЕРЕДИНИ	-0.30103
-3.875784	ЗУБАМИ	-0.30103
-3.875784	ЗУБИ	-0.30103
-3.574754	ЗУПИНЯЄТЬСЯ	-0.30103
-3.222572	ЗУСИЛЛЯМ	-0.9542425
-3.875784	ЗУСТРІЧАЄ	-0.30103
-3.875784	ЗУСТРІЧАЄТЬСЯ	-0.30103
-3.477844	ЗЯВЛЯЮТЬСЯ	-0.3679768
-3.097633	ЗЯСУВАЛОСЯ	-1.079181
-2.42094	Й	-0.3866589
-3.574754	ЙДЕ	-0.30103
-3.875784	ЙДУТЬ	-0.30103
-3.699693	ЙОБНУТИЙ	-0.3010299
-2.337965	ЙОГО	-0.4246425
-3.097633	ЙОМУ	-0.30103
-3.875784	ЙШЛИ	-0.30103
-3.875784	КІЛЬКІСТЮ	-0.30103
-3.030686	КІЛЬКА	-0.3617278
-3.699693	КІЛЬКОХ	-0.30103
-3.875784	КІЛЬЦЕВІЙ	-0.30103
-3.699693	КІЛЬЦЕВОЇ	-0.30103
-3.875784	КІМНАТ	-0.3010301
-3.875784	КІМНАТІ	-0.30103
-3.875784	КІМНАТАХ	-0.30103
-3.574754	КІМНАТИ	-0.30103
-3.875784	КІНЕЦЬ	-0.3010299
-3.699693	КІНЦЕВО	-0.30103
-3.875784	КІНЦЕВУ	-0.30103
-3.875784	КІНЦЯ	-0.30103
-3.699693	КІОСК	-0.30103
-3.477844	КІОСКІВ	-0.30103
-3.875784	КІОСКАХ	-0.30103
-3.875784	КІОСКИ	-0.30103
-3.699693	КІОСКУ	-0.30103
-3.875784	КАГЕБІСТИ	-0.30103
-3.097633	КАДЕНЦІЇ	-1.079181
-2.921542	КАЖЕ	-0.4607309
-3.699693	КАЖУ	-0.30103
-3.273725	КАЖУТЬ	-0.9030899
-3.699693	КАЖУЧИ	-0.30103
-3.875784	КАЗАВ	-0.30103
-3.875784	КАЗАЛИ	-0.30103
-3.875784	КАЙЗЕРІВ	-0.30103
-3.699693	КАЙЗЕРИ	-0.30103
-3.222572	КАКАО	-0.30103
-3.875784	КАЛЮЖАХ	-0.30103
-3.875784	КАМАНДІР	-0.30103
-3.875784	КАНАБІСІ	-0.30103
-3.875784	КАНАБІСОМ	-0.30103
-3.875784	КАПІТАЛУ	-0.30103
-3.875784	КАПРОНОВИХ	-0.30103
-3.875784	КАРБЮРАТОР	-0.30103
-3.574754	КАРБЮРАТОРА	-0.30103
-3.875784	КАРМУ	-0.30103
-3.875784	КАТАФАЛК	-0.30103
-3.331717	КАФЕДР	-0.845098
-3.875784	КВІТИ	-0.30103
-3.875784	КВІТОКЛІХТАРИКІВ	-0.3010301
-3.273725	КВИТКІВ	-0.6532125
-3.875784	КВИТКАМИ	-0.30103
-3.875784	КВИТКАХ	-0.30103
-3.875784	КВИТКИ	-0.30103
-3.477844	КГБ	-0.30103
-3.135422	КЕРІВНИК	-1.041393
-3.699693	КИДАЄ	-0.30103
-3.331717	КИДАТИ	-0.8450981
-3.875784	КИМ	-0.30103
-3.875784	КИМОСЬ	-0.30103
-3.875784	КИНЕШ	-0.30103
-3.875784	КИНУВ	-0.30103
-3.875784	КИШЕНІ	-0.30103
-3.875784	КИШЕЧНИКУ	-0.30103
-3.331717	КЛІМАТ	-0.8450981
-3.222572	КЛАДОВИЩА	-0.9542425
-3.875784	КЛАДУТЬ	-0.30103
-3.875784	КЛЕРКІВ	-0.30103
-3.875784	КЛОУНИ	-0.30103
-3.699693	КЛЬОВО	-0.30103
-3.875784	КЛЯНЧИМО	-0.30103
-3.222572	КНИГ	-0.9542425
-3.222572	КНИГОЮ	-0.9542425
-3.176815	КНИГУ	-1
-3.398663	КОГО	-0.30103
-3.574754	КОГОСЬ	-0.30103
-3.331717	КОЖЕН	-0.4771212
-3.875784	КОЖНОГО	-0.30103
-3.875784	КОЛЕКТИВ	-0.30103
-2.854595	КОЛИ	-0.3521826
-3.875784	КОЛОНАМИ	-0.30103
-3.699693	КОЛУ	-0.30103
-3.875784	КОМІКСІВ	-0.30103
-3.398663	КОМАНДИ	-0.4259687
-3.699693	КОМПАНІЇ	-0.30103
-3.574754	КОМПАНІЯ	-0.30103
-3.875784	КОМПАНІЯХ	-0.30103
-3.875784	КОМПРОМІСІВ	-0.30103
-3.875784	КОМСОМОЛЬСЬКОМУ	-0.30103
-3.574754	КОМУНІСТ	-0.30103
-3.062871	КОМУСЬ	-0.6989697
-3.875784	КОНСТРУКЦІЇ	-0.30103
-3.331717	КОНТАКТ	-0.845098
-3.875784	КОНТАКТНИЙ	-0.30103
-3.875784	КОНТОРІ	-0.30103
-3.875784	КОНТОРА	-0.30103
-3.875784	КОНТОРУ	-0.30103
-3.875784	КОНТРАБАНДУ	-0.30103
-3.477844	КОНЦЕРТНИЙ	-0.69897
-3.574754	КОРДОН	-0.3010299
-3.875784	КОРДОНУ	-0.30103
-3.699693	КОРЕСПОНДЕНЦІЄЮ	-0.30103
-3.875784	КОРИДОР	-0.30103
-3.875784	КОРИДОРАМИ	-0.30103
-3.875784	КОРИДОРУ	-0.30103
-3.875784	КОРИСНИМ	-0.30103
-3.875784	КОРИСТІ	-0.30103
-3.875784	КОРОТШЕ	-0.30103
-3.875784	КОСМЕТИКА	-0.30103
-3.875784	КОСМЕТИКИ	-0.30103
-3.875784	КОСМЕТИКУ	-0.30103
-3.699693	КОСТЮМ	-0.30103
-3.699693	КОСТЮМІ	-0.30103
-3.574754	КОТРІ	-0.30103
-3.574754	КОТРА	-0.30103
-3.699693	КОТРИЙ	-0.30103
-3.097633	КОТРИМ	-1.079181
-3.875784	КОТРИМИ	-0.30103
-3.875784	КОТРУ	-0.30103
-3.875784	КОШИКОМ	-0.30103
-3.222572	КОШТУВАТИМЕ	-0.9542425
-3.477844	КРІЗЬ	-0.30103
-3.699693	КРІМ	-0.30103
-3.699693	КРІПЛЕННЯ	-0.30103
-3.875784	КРАЇНІ	-0.30103
-3.875784	КРАЇНА	-0.30103
-3.875784	КРАЇНУ	-0.30103
-3.875784	КРАСНІЙ	-0.30103
-3.062871	КРАЩЕ	-0.4771212
-3.875784	КРАЩОГО	-0.30103
-3.875784	КРИКНУ	-0.30103
-3.477844	КРИКНУТИ	-0.30103
-3.875784	КРИХІТНЕ	-0.30103
-3.477844	КРИЧАТИ	-0.30103
-3.699693	КРИЧАТЬ	-0.3010301
-3.875784	КРИЧИТЬ	-0.30103
-3.875784	КРИЧИШ	-0.30103
-3.477844	КРИЧУ	-0.30103
-3.699693	КРОВ	-0.30103
-3.875784	КРОК	-0.30103
-3.875784	КРУТИ	-0.30103
-3.875784	КРУТИТЬСЯ	-0.30103
-3.574754	КУДИСЬ	-0.30103
-3.875784	КУЛАК	-0.30103
-3.875784	КУЛЬЧИКИ	-0.30103
-3.699693	КУПИВ	-0.30103
-3.699693	КУПИТИ	-0.30103
-3.477844	КУПУЮТЬ	-0.30103
-3.699693	КУРЄРОМ	-0.30103
-3.875784	КУРИТЬ	-0.30103
-3.699693	КУРСІ	-0.30103
-3.875784	КУРСАНТІВ	-0.30103
-3.875784	КУРСИ	-0.30103
-3.875784	КУХНЕЮ	-0.30103
-3.875784	КУХНЮ	-0.30103
-3.875784	ЛІВОРУЧ	-0.30103
-3.097633	ЛІДЕР	-1.079181
-3.875784	ЛІЖКО	-0.30103
-3.699693	ЛІЗТИ	-0.30103
-3.875784	ЛІКЕРИ	-0.30103
-3.875784	ЛІКЕРО	-0.30103
-3.030686	ЛІКУВАННЯ	-0.8750612
-3.875784	ЛІПШЕ	-0.30103
-3.875784	ЛІС	-0.30103
-3.875784	ЛІТАКА	-0.30103
-3.875784	ЛІТАКОМ	-0.30103
-3.331717	ЛІТЕРАТУРНИЙ	-0.8450981
-3.875784	ЛІТНЬОГО	-0.30103
-3.574754	ЛІТО	-0.30103
-3.699693	ЛІТРОВИХ	-0.30103
-3.398663	ЛАБОРАТОРІЇ	-0.7781513
-3.331717	ЛАБОРАТОРІЯ	-0.8450981
-3.875784	ЛАВІ	-0.30103
-3.875784	ЛАВАМИ	-0.30103
-3.875784	ЛАВАХ	-0.30103
-3.875784	ЛАВУ	-0.30103
-3.875784	ЛАДИЛИ	-0.30103
-3.875784	ЛАДНО	-0.30103
-3.875784	ЛАЖОВІ	-0.30103
-3.875784	ЛАЙНО	-0.30103
-3.875784	ЛАМАЛО	-0.30103
-3.222572	ЛЕВ	-0.9542425
-3.222572	ЛЕВИ	-0.9542425
-3.331717	ЛЕГКА	-0.8450981
-3.875784	ЛЕДВЕ	-0.30103
-3.574754	ЛЕДЬ	-0.39794
-3.699693	ЛЕЖАТЬ	-0.30103
-3.875784	ЛЕТІВ	-0.30103
-3.875784	ЛЕТИТЬ	-0.30103
-3.875784	ЛИШАЄТЬСЯ	-0.30103
-2.854595	ЛИШЕ	-0.5440679
-3.875784	ЛОТЕРЕЙНІ	-0.30103
-3.875784	ЛОТЕРЕЙНИМИ	-0.30103
-3.875784	ЛОТЕРЕЮ	-0.30103
-3.875784	ЛОТЕРЕЯ	-0.30103
-3.699693	ЛОХ	-0.30103
-3.875784	ЛУНАЄ	-0.30103
-3.875784	ЛУШПАЙКУ	-0.30103
-3.222572	ЛЬВІВСЬКИЙ	-0.9542425
-3.398663	ЛЬВІВСЬКОЇ	-0.7781512
-3.331717	ЛЬВОВІ	-0.8450981
-3.222572	ЛЬВОВА	-0.9542425
-3.331717	ЛЬВОВОМ	-0.8450981
-3.875784	ЛЮБИВ	-0.30103
-3.875784	ЛЮБИМО	-0.30103
-3.273725	ЛЮБИТИ	-0.9030899
-2.875784	ЛЮБИТЬ	-0.8653015
-3.477844	ЛЮБЛЮ	-0.30103
-2.778874	ЛЮБЛЯТЬ	-0.9542428
-3.875784	ЛЮБОВ	-0.30103
-3.875784	ЛЮБОВІ	-0.30103
-2.921542	ЛЮДИ	-0.8239085
-3.875784	ЛЮДИНОЮ	-0.30103
-3.331717	ЛЮДИНУ	-0.845098
-2.796603	ЛЮДЯМ	-0.9378524
-3.875784	ЛЯКАЄТЬСЯ	-0.30103
-3.875784	ЛЯПАЄТЬСЯ	-0.30103
-3.875784	ЛЯЧНО	-0.30103
-3.699693	МІГ	-0.30103
-3.000723	МІЖ	-0.6532127
-3.273725	МІЙ	-0.6532126
-3.875784	МІЛІЦІЄЮ	-0.30103
-3.574754	МІЛІЦІЯ	-0.30103
-3.875784	МІНТУРІ	-0.30103
-3.875784	МІРИ	-0.30103
-3.574754	МІСТІ	-0.30103
-3.135422	МІСТА	-0.6368223
-3.699693	МІСЦІ	-0.30103
-3.875784	МІСЦЕ	-0.30103
-3.398663	МІСЦЕМ	-0.7781513
-3.574754	МІСЦЯ	-0.30103
-3.875784	МІСЯТЬ	-0.30103
-3.875784	МІЦНО	-0.30103
-3.398663	МАЄ	-0.30103
-3.331717	МАЄМО	-0.845098
-3.477844	МАЄШ	-0.30103
-3.699693	МАБУТЬ	-0.30103
-2.796603	МАВ	-0.9378522
-3.097633	МАЙДАНЧИКА	-1.079181
-2.875784	МАЙЖЕ	-0.6197888
-3.331717	МАЛА	-0.8450981
-3.574754	МАЛЕНЬКІ	-0.30103
-3.875784	МАЛЕНЬКЕ	-0.30103
-3.222572	МАЛЕНЬКОГО	-0.9542425
-3.699693	МАЛО	-0.30103
-3.875784	МАЛОРУХОМЕ	-0.30103
-3.398663	МАМА	-0.30103
-3.875784	МАМОЮ	-0.30103
-3.699693	МАМУ	-0.30103
-3.875784	МАРШІ	-0.3010301
-3.875784	МАСОЮ	-0.30103
-3.875784	МАТ	-0.30103
-3.875784	МАТИ	-0.30103
-3.875784	МАТЧ	-0.30103
-3.875784	МАТЧАМИ	-0.30103
-3.875784	МАХАЮТЬ	-0.30103
-3.398663	МАЮ	-0.4259688
-2.898061	МАЮТЬ	-0.7403628
-3.875784	МЕБЛІ	-0.30103
-3.875784	МЕЖАХ	-0.30103
-2.946366	МЕНІ	-0.4436974
-3.000723	МЕНЕ	-0.3357922
-3.331717	МЕРТВЕ	-0.8450981
-3.875784	МЕТАЛІСТ	-0.30103
-3.875784	МЕТАЛЕВІ	-0.30103
-3.875784	МЕТАЛЕВЕ	-0.30103
-3.875784	МЕТРІВ	-0.30103
-3.222572	МЕТРИ	-0.9542425
-3.875784	МЕТРО	-0.30103
-3.875784	МЕТРОПОЛІТЕНІ	-0.30103
-2.533362	МИ	-0.4839606
-3.699693	МИЄТЬСЯ	-0.4771212
-3.875784	МИГОТЛИВИМИ	-0.30103
-3.273725	МИНАЄ	-0.9030899
-3.875784	МИТНИКІВ	-0.30103
-3.097633	МИТРОПОЛІЇ	-1.079181
-3.875784	МНОЮ	-0.30103
-3.875784	МОЄ	-0.30103
-3.875784	МОЇ	-0.30103
-3.875784	МОЇХ	-0.30103
-3.176815	МОВ	-0.7403629
-3.222572	МОВА	-0.9542425
-2.972694	МОВИ	-0.9294189
-3.875784	МОВЛЯВ	-0.30103
-3.875784	МОВЧИШ	-0.30103
-3.699693	МОГЛИ	-0.30103
-3.875784	МОГО	-0.30103
-2.714417	МОЖЕ	-0.4771213
-3.699693	МОЖЕТЕ	-0.30103
-3.875784	МОЖЕШ	-0.30103
-3.176815	МОЖЛИВІСТЬ	-1
-2.745451	МОЖНА	-0.4771212
-3.699693	МОЖУ	-0.30103
-3.875784	МОЖУТЬ	-0.30103
-3.574754	МОКРІ	-0.30103
-3.574754	МОКРЕ	-0.3010299
-3.574754	МОКРИХ	-0.30103
-3.875784	МОЛОДІ	-0.30103
-3.875784	МОЛОДІСТЬ	-0.30103
-3.331717	МОЛОДШОГО	-0.8450981
-3.875784	МОЛОЧНІ	-0.30103
-3.875784	МОМЕНТ	-0.30103
-3.875784	МОНЕТИ	-0.30103
-3.875784	МОРОЗИВА	-0.30103
-3.875784	МОРОЗИВО	-0.30103
-3.875784	МОРСЬКОМУ	-0.30103
-3.331717	МОРЯК	-0.3010297
-3.875784	МОРЯКА	-0.30103
-3.875784	МОРЯКУ	-0.30103
-3.875784	МОЧАРІВ	-0.30103
-3.875784	МОЧИТИ	-0.30103
-3.699693	МОЯ	-0.30103
-3.875784	МУДАК	-0.30103
-3.875784	МУДАКА	-0.30103
-3.875784	МУДАКИ	-0.30103
-3.875784	МУЗИКАНТИ	-0.30103
-3.875784	МУМІТРОЛІ	-0.30103
-3.875784	МУМІТРОЛЕВІ	-0.30103
-3.699693	МУМІТРОЛЬ	-0.30103
-3.699693	МУМІТРОЛЯ	-0.30103
-3.875784	МУНІЦИПАЛІТЕТУ	-0.30103
-3.875784	МУР	-0.30103
-3.875784	МУРУЮТЬ	-0.30103
-3.875784	МУСИЛИ	-0.30103
-3.875784	МЯТОМУ	-0.30103
-3.875784	МЯЧ	-0.30103
-3.875784	НЄ	-0.30103
-3.398663	НІ	-0.30103
-3.331717	НІБИ	-0.3010298
-2.946366	НІБИТО	-0.9542423
-3.331717	НІГДЕ	-0.845098
-3.875784	НІГТЯМИ	-0.30103
-3.699693	НІЖ	-0.30103
-3.875784	НІЗАЩО	-0.30103
-3.875784	НІКОГО	-0.30103
-3.097633	НІКОЛИ	-1.079181
-3.574754	НІКОМУ	-0.60206
-3.875784	НІКУДИ	-0.30103
-3.097633	НІХТО	-0.5740312
-3.574754	НІЧ	-0.30103
-3.273725	НІЧИМ	-0.90309
-2.854595	НІЧОГО	-0.544068
-3.875784	НІЩО	-0.30103
-3.875784	НІЯК	-0.30103
-1.873618	НА	-0.4577547
-3.875784	НАБИВАЄТЬСЯ	-0.30103
-3.875784	НАБИРАЄ	-0.30103
-3.875784	НАБУХЛИМИ	-0.30103
-3.477844	НАВIЩО	-0.69897
-2.671664	НАВІТЬ	-0.4507922
-3.222572	НАВКОЛО	-0.30103
-3.875784	НАВОЛОЧНОЇ	-0.30103
-3.875784	НАВРЯД	-0.30103
-3.875784	НАВРЯДЧИ	-0.30103
-3.875784	НАВЧАННЯ	-0.30103
-3.331717	НАВЧИТИСЯ	-0.8450981
-3.875784	НАГОРІ	-0.30103
-3.477844	НАД	-0.30103
-3.273725	НАДІЇ	-0.6532127
-3.273725	НАДІЯ	-0.90309
-3.135422	НАДАВ	-1.041393
-3.135422	НАДАЛИ	-1.041393
-3.875784	НАДОВГО	-0.30103
-3.875784	НАДТО	-0.30103
-3.477844	НАЗАД	-0.3679768
-3.699693	НАЗВАТИ	-0.30103
-3.875784	НАЗИВАЄ	-0.30103
-3.699693	НАЗИВАЄТЬСЯ	-0.30103
-3.875784	НАЗИВАВ	-0.30103
-3.097633	НАЗИВАЛИ	-1.079181
-3.875784	НАЗИВАЮЧИ	-0.30103
-3.875784	НАЗОВІМО	-0.30103
-3.875784	НАЗОВНІ	-0.3010301
-3.875784	НАЙБІЛЬШ	-0.30103
-3.222572	НАЙБІЛЬШИЙ	-0.9542425
-3.273725	НАЙГІРШОГО	-0.90309
-3.699693	НАЙГОЛОВНІШЕ	-0.30103
-3.875784	НАЙГУСТІШОЇ	-0.30103
-3.222572	НАЙМИЛОЗВУЧНІШИХ	-0.9542425
-3.875784	НАЙОБКАМИ	-0.30103
-3.699693	НАЙЦІКАВІШЕ	-0.30103
-3.875784	НАКАЧАНИЙ	-0.30103
-3.875784	НАКАЧУЄТЬСЯ	-0.30103
-3.875784	НАКУПОВУЄ	-0.30103
-3.875784	НАЛЕЖИТЬСЯ	-0.30103
-3.699693	НАЛОЖНИКІВ	-0.30103
-3.699693	НАЛОЖНИКАМИ	-0.30103
-3.875784	НАЛОЖНИКИ	-0.30103
-3.875784	НАЛОМ	-0.30103
-3.222572	НАМ	-0.30103
-3.699693	НАМАГАЄТЬСЯ	-0.30103
-3.699693	НАМАГАЮТЬСЯ	-0.30103
-3.875784	НАМАХУЮТЬ	-0.30103
-3.875784	НАМИ	-0.30103
-3.875784	НАМОКЛИЙ	-0.30103
-3.875784	НАПІВВІДЧИНЕНІ	-0.30103
-3.875784	НАПІВПРИТОМНОГО	-0.30103
-3.875784	НАПІВРОЗВАЛЕНИЙ	-0.30103
-3.875784	НАПІВФАБРИКАТИ	-0.30103
-3.875784	НАПЕВНО	-0.30103
-3.699693	НАПИВАЛИСЬ	-0.30103
-3.875784	НАПИС	-0.30103
-3.875784	НАПОВНЮЮЧИСЬ	-0.30103
-3.875784	НАПОЛЕГЛИВО	-0.30103
-3.875784	НАПОЛОХАНЕ	-0.30103
-3.135422	НАПРАВДУ	-1.041393
-3.273725	НАПРАЦЮВАТИ	-0.90309
-3.699693	НАПРИКЛАД	-0.30103
-3.875784	НАПРУЖЕНО	-0.30103
-3.273725	НАРІЧЧЯ	-0.9030899
-3.273725	НАРЕШТІ	-0.6532126
-3.699693	НАРОД	-0.30103
-3.875784	НАРОДЖЕННЯ	-0.30103
-3.875784	НАРОЩУВАННЯ	-0.30103
-2.42094	НАС	-0.5358995
-3.273725	НАСЕЛЕННЯ	-0.9030899
-3.574754	НАСПРАВДІ	-0.30103
-3.875784	НАСТАННЯ	-0.30103
-3.273725	НАСТАТИ	-0.9030899
-3.875784	НАСТОРОЖИЛО	-0.30103
-3.875784	НАТОМІСТЬ	-0.30103
-3.398663	НАУКОВЦІВ	-0.7781513
-3.875784	НАУМІВНА	-0.30103
-3.875784	НАЦІОНАЛЬНА	-0.30103
-3.875784	НАШ	-0.30103
-3.176815	НАШІ	-0.3590215
-3.875784	НАШІЙ	-0.30103
-3.875784	НАШІПТУЮТЬ	-0.30103
-3.273725	НАШЕ	-0.90309
-3.875784	НАШИХ	-0.30103
-3.875784	НАШОЇ	-0.30103
-3.574754	НАШОМУ	-0.30103
-3.699693	НАШУ	-0.30103
-1.625365	НЕ	-0.5484775
-3.273725	НЕІСНУЮЧИХ	-0.90309
-3.273725	НЕЇ	-0.3010301
-3.875784	НЕБЕСАМИ	-0.30103
-3.574754	НЕБО	-0.39794
-3.331717	НЕБУДЬ	-0.3010298
-3.875784	НЕВІДОМО	-0.30103
-3.875784	НЕВІДОМОГО	-0.30103
-3.875784	НЕВІРНИЙ	-0.30103
-3.875784	НЕВАЖКО	-0.30103
-3.875784	НЕВЖИВАНИЙ	-0.30103
-3.875784	НЕГАРНО	-0.30103
-3.331717	НЕГОТОВНІСТЬ	-0.8450981
-3.875784	НЕДОВІРЛИВО	-0.30103
-3.875784	НЕДОЛЮБЛЮВАЛИ	-0.30103
-3.875784	НЕДОЛЮБЛЮЮТЬ	-0.30103
-3.875784	НЕДОПАЛКИ	-0.30103
-3.875784	НЕДОРОБЛЕНУ	-0.30103
-3.273725	НЕДУГ	-0.9030901
-3.875784	НЕЗАДОВОЛЕНІ	-0.30103
-3.875784	НЕЗАЛЕЖНИХ	-0.30103
-3.875784	НЕЗАЛЕЖНУ	-0.30103
-3.875784	НЕЗЛОБИВО	-0.30103
-3.875784	НЕЗРОЗУМІЛО	-0.30103
-3.875784	НЕЗРУЧНО	-0.30103
-3.331717	НЕМАЄ	-0.3979401
-3.273725	НЕМОВБИ	-0.9030899
-3.875784	НЕНАВИДИШ	-0.30103
-3.875784	НЕНАВИСТЮ	-0.30103
-3.331717	НЕНАВЯЗЛИВА	-0.8450981
-3.273725	НЕОБХІДНО	-0.9030899
-3.875784	НЕОПОХМІЛЕНИЙ	-0.30103
-3.875784	НЕОХОЧЕ	-0.30103
-3.875784	НЕПАЛЕНУ	-0.30103
-3.875784	НЕПЕРЕДБАЧУВАНО	-0.30103
-3.699693	НЕПОВАГА	-0.30103
-3.875784	НЕПОГАНО	-0.30103
-3.875784	НЕПОГАНУ	-0.30103
-3.875784	НЕПОМІТНО	-0.30103
-3.875784	НЕПОТРІБ	-0.30103
-3.699693	НЕРІШУЧЕ	-0.30103
-3.875784	НЕРВУЙТЕ	-0.30103
-3.699693	НЕРВУЮТЬ	-0.30103
-3.875784	НЕСЛУХНЯНІ	-0.30103
-3.875784	НЕСПРАВЕДЛИВИМ	-0.30103
-3.875784	НЕСУ	-0.30103
-3.875784	НЕСУТЬ	-0.30103
-3.875784	НЕТРІ	-0.30103
-3.875784	НЕТРЯХ	-0.30103
-3.875784	НЕЩОДАВНО	-0.30103
-3.222572	НЕЮ	-0.4771213
-3.699693	НИМ	-0.30103
-3.062871	НИМИ	-0.30103
-3.331717	НИНІ	-0.845098
-3.875784	НИРКАХ	-0.30103
-2.815087	НИХ	-0.3921106
-3.875784	НОВІЙ	-0.30103
-3.699693	НОГИ	-0.30103
-3.875784	НОРМАЛЬНІ	-0.30103
-3.875784	НОРМАЛЬНИЙ	-0.30103
-3.477844	НОРМАЛЬНО	-0.30103
-3.875784	НОТУ	-0.30103
-3.875784	НОЧЕЙ	-0.30103
-3.699693	НОЧУЄ	-0.30103
-2.761841	НУ	-0.3521825
-3.875784	НУНЕВПЕВНЕНО	-0.30103
-2.972694	НЬОГО	-0.3332147
-3.574754	НЬОМУ	-0.30103
-3.875784	НЮХАЄ	-0.30103
-3.699693	О	-0.30103
-3.699693	ОБ	-0.30103
-3.875784	ОБІРВАЛИ	-0.30103
-3.875784	ОБІЦЯВСЯ	-0.30103
-3.699693	ОБВИСАЄ	-0.30103
-3.331717	ОБГОВОРЕННІ	-0.845098
-3.273725	ОБЕРЕЖНІШИМ	-0.9030899
-3.875784	ОБЕРЕЖНО	-0.30103
-3.875784	ОБЕРНУВШИСЬ	-0.30103
-3.699693	ОБКЛАДИНЦІ	-0.30103
-3.574754	ОБЛИЧЧІ	-0.30103
-3.875784	ОБЛИЧЧЯ	-0.30103
-3.000723	ОБОВЯЗКОВО	-0.4393331
-3.875784	ОБОЛОНЦІ	-0.30103
-3.875784	ОБОХ	-0.30103
-3.331717	ОБРАЗИ	-0.845098
-3.875784	ОБРУЧКИ	-0.30103
-2.898061	ОДИН	-0.5118834
-3.875784	ОДНІЄЇ	-0.30103
-3.222572	ОДНІЄЮ	-0.9542425
-3.699693	ОДНІЙ	-0.30103
-3.875784	ОДНА	-0.30103
-3.875784	ОДНАК	-0.30103
-3.097633	ОДНЕ	-0.6690068
-3.477844	ОДНИМ	-0.3679768
-3.875784	ОДНИМИ	-0.30103
-3.398663	ОДНО	-0.30103
-3.331717	ОДНОГО	-0.3424228
-3.477844	ОДНОМУ	-0.3679768
-3.875784	ОДНООКИХ	-0.30103
-3.699693	ОДНУ	-0.30103
-3.875784	ОДЯЗІ	-0.30103
-3.875784	ОЗБРОЄНИМ	-0.30103
-3.875784	ОЗИРАЄТЬСЯ	-0.30103
-3.875784	ОЗНАЧАТИ	-0.30103
-3.875784	ОКА	-0.30103
-3.699693	ОКОМ	-0.30103
-3.222572	ОКРІМ	-0.69897
-3.875784	ОКРЕМИЙ	-0.30103
-3.875784	ОН	-0.30103
-3.875784	ОНУКА	-0.30103
-3.875784	ОНУКОМ	-0.30103
-3.875784	ОПИНЯЄШСЯ	-0.30103
-3.875784	ОПИСАМИ	-0.30103
-3.875784	ОПТ	-0.30103
-3.331717	ОПТИКУ	-0.3424226
-3.875784	ОПТИЧНИЙ	-0.30103
-3.875784	ОПТОМ	-0.30103
-3.699693	ОРІЄНТУЮТЬСЯ	-0.30103
-3.222572	ОРГАНІЗАТОРАМ	-0.9542425
-3.875784	ОСІ	-0.30103
-3.875784	ОСІБ	-0.30103
-3.875784	ОСЕЛИТИСЯ	-0.30103
-3.477844	ОСОБЛИВО	-0.30103
-3.875784	ОСТАННІ	-0.30103
-3.875784	ОСТАННІЙ	-0.30103
-3.875784	ОСТАННІМ	-0.30103
-3.875784	ОСТАННІМИ	-0.30103
-3.875784	ОСТАННІХ	-0.30103
-3.875784	ОСТАННЬОГО	-0.30103
-3.875784	ОСУНУВСЯ	-0.30103
-2.815087	ОСЬ	-0.3756635
-3.222572	ОТ	-0.5642712
-3.875784	ОТОЖ	-0.30103
-3.875784	ОТРИМАВШИ	-0.30103
-3.331717	ОТРИМАЛА	-0.8450981
-3.875784	ОТРИМАНІ	-0.30103
-3.875784	ОФІСІ	-0.3010301
-3.135422	ОФІЦІЙНОЇ	-1.041393
-3.875784	ОХРІНІЛИ	-0.30103
-3.273725	ОЦІНКУ	-0.9030899
-3.699693	ОЧІ	-0.30103
-3.331717	ОЧЕВИДНО	-0.3424227
-3.699693	ПЄ	-0.3010301
-3.875784	ПЄШ	-0.30103
-3.875784	ПІВ	-0.30103
-3.273725	ПІВДЕННОЗАХІДНУ	-0.9030899
-3.875784	ПІВДЕННОМУ	-0.30103
-3.222572	ПІВДЕННОРУСЬКА	-0.9542425
-3.875784	ПІВМІСТА	-0.30103
-3.331717	ПІВНІ	-0.845098
-3.273725	ПІВНІЧНОСХІДНУ	-0.90309
-3.875784	ПІВТОРА	-0.30103
-2.714417	ПІД	-0.4988405
-3.875784	ПІДІЙМАЄ	-0.30103
-3.875784	ПІДІЙНЯТИ	-0.30103
-3.875784	ПІДЇХАТИ	-0.30103
-3.398663	ПІДАР	-0.3521825
-3.875784	ПІДАРАС	-0.30103
-3.875784	ПІДБИРАЄ	-0.30103
-3.699693	ПІДБИРАЮТЬ	-0.30103
-3.875784	ПІДВОДЯТЬ	-0.30103
-3.875784	ПІДЗЕМКИ	-0.30103
-3.875784	ПІДЗЕМКУ	-0.30103
-3.875784	ПІДМОВЛЯЄ	-0.30103
-3.875784	ПІДНЕСЕНОМУ	-0.30103
-3.875784	ПІДНЯВСЯ	-0.30103
-3.875784	ПІДПИРАЄ	-0.30103
-3.875784	ПІДПОРЯДКУВАННЯ	-0.30103
-3.875784	ПІДРИВАЄ	-0.30103
-3.699693	ПІДРУЧНИКИ	-0.30103
-3.875784	ПІДТЯГУЄТЬСЯ	-0.30103
-3.875784	ПІДХОДИТЬ	-0.30103
-3.875784	ПІЖОНИ	-0.30103
-3.875784	ПІЖОНСЬКОМУ	-0.30103
-3.875784	ПІЗНЄ	-0.30103
-3.222572	ПІЗНАВАЛЬНИМИ	-0.9542426
-3.875784	ПІЗНАВАТИ	-0.30103
-3.875784	ПІОНЕР	-0.30103
-3.875784	ПІОНЕРСЬКУ	-0.30103
-3.875784	ПІРНАЄ	-0.30103
-3.875784	ПІРЯМ	-0.30103
-3.398663	ПІСЛЯ	-0.4259687
-3.875784	ПІСОЧНИЙ	-0.30103
-3.875784	ПІТЬМІ	-0.30103
-3.875784	ПІШОВ	-0.30103
-3.176815	ПАВЛОВ	-0.3273589
-3.331717	ПАВЛОВА	-0.3010299
-3.699693	ПАДЛА	-0.4771212
-3.875784	ПАКЕТА	-0.30103
-3.699693	ПАЛЬЦЯМИ	-0.30103
-3.875784	ПАЛЮЧИМ	-0.30103
-3.875784	ПАЛЯТЬ	-0.30103
-3.331717	ПАМФЛЕТ	-0.8450981
-2.921542	ПАМЯТІ	-0.9777238
-3.875784	ПАМЯТАЮЧИ	-0.30103
-3.875784	ПАНУВАЛА	-0.30103
-3.875784	ПАПІРОСИ	-0.30103
-3.875784	ПАРУ	-0.30103
-3.875784	ПАРФУМИ	-0.30103
-3.875784	ПАТРУЛІВ	-0.30103
-3.875784	ПАТРУЛЯМИ	-0.30103
-3.222572	ПАХНЕ	-0.4771212
-3.699693	ПАЦАНИ	-0.3010299
-3.875784	ПАЦАНСЬКУ	-0.30103
-3.875784	ПАЯЛЬНИК	-0.30103
-3.875784	ПЕВНОЇ	-0.30103
-3.875784	ПЕРВИННЕ	-0.30103
-3.875784	ПЕРЕБОЇВ	-0.30103
-3.875784	ПЕРЕБОЯМИ	-0.30103
-3.875784	ПЕРЕВАЖНУ	-0.30103
-3.875784	ПЕРЕВЕЗЕННЯ	-0.30103
-3.875784	ПЕРЕВОДИТЬ	-0.30103
-3.875784	ПЕРЕВОЗИТИ	-0.30103
-3.875784	ПЕРЕВОРОТ	-0.30103
-3.875784	ПЕРЕГАНЯЙ	-0.30103
-3.574754	ПЕРЕД	-0.30103
-3.875784	ПЕРЕДІ	-0.30103
-3.875784	ПЕРЕДАЙТЕ	-0.30103
-3.875784	ПЕРЕДАТИ	-0.30103
-3.875784	ПЕРЕДМІСТІ	-0.30103
-3.875784	ПЕРЕЖИВАЄМО	-0.30103
-3.875784	ПЕРЕЙМАВСЯ	-0.30103
-3.875784	ПЕРЕЙМАЮТЬСЯ	-0.30103
-3.875784	ПЕРЕКОНАВШИСЬ	-0.30103
-3.273725	ПЕРЕКОНАНА	-0.9030899
-3.875784	ПЕРЕКОНАТИ	-0.30103
-3.875784	ПЕРЕЛЯКАНО	-0.30103
-3.875784	ПЕРЕНОСИТЬ	-0.30103
-3.875784	ПЕРЕОДЯГНУТИСЬ	-0.30103
-3.699693	ПЕРЕПИТУЄ	-0.30103
-3.875784	ПЕРЕПРОШУЮ	-0.30103
-3.875784	ПЕРЕРАХОВУЄ	-0.30103
-3.875784	ПЕРЕРАХУВАННЯМИ	-0.30103
-3.875784	ПЕРЕРВИ	-0.30103
-3.875784	ПЕРЕСТАЄШ	-0.30103
-3.875784	ПЕРЕСТАВЛЯЮЧИ	-0.30103
-3.875784	ПЕРЕСТРІНЕ	-0.30103
-3.875784	ПЕРЕСТРАХУЙСЯ	-0.30103
-3.875784	ПЕРЕХОВУЄТЬСЯ	-0.30103
-3.875784	ПЕРЕХРЕСТІ	-0.30103
-3.477844	ПЕРШI	-0.69897
-3.000723	ПЕРШЕ	-0.9030899
-3.699693	ПЕРШИЙ	-0.30103
-3.875784	ПЕРШИМ	-0.30103
-3.699693	ПЕРШИХ	-0.30103
-3.875784	ПЕРШОМУ	-0.30103
-3.875784	ПЕРШУ	-0.30103
-3.875784	ПЕЧІНЦІ	-0.30103
-3.875784	ПЕЧАЛЬНО	-0.30103
-3.875784	ПИВ	-0.30103
-3.875784	ПИСОК	-0.30103
-3.699693	ПИТАЄТЬСЯ	-0.30103
-3.875784	ПИТАЮСЬ	-0.3010301
-3.875784	ПИТАЮТЬ	-0.30103
-3.699693	ПИТАЮТЬСЯ	-0.30103
-3.875784	ПИТИ	-0.30103
-3.875784	ПИШАЄТЬСЯ	-0.30103
-3.875784	ПИШАТИСЬ	-0.30103
-3.699693	ПЛАВАЄ	-0.30103
-3.875784	ПЛАВАЮТЬ	-0.30103
-3.875784	ПЛАКСИВО	-0.30103
-3.875784	ПЛАН	-0.30103
-3.875784	ПЛАТИТЬ	-0.30103
-3.875784	ПЛАТФОРМІ	-0.30103
-3.875784	ПЛАТФОРМУ	-0.30103
-3.331717	ПЛЕКАТИ	-0.8450981
-3.875784	ПЛЕХАНІВСЬКІЙ	-0.30103
-3.875784	ПЛЕЧАХ	-0.30103
-3.273725	ПЛИЛИ	-0.9030899
-3.875784	ПЛИТИ	-0.30103
-3.875784	ПЛОЩІ	-0.30103
-3.875784	ПЛЯШКИ	-0.30103
-2.921542	ПО	-0.3290585
-3.574754	ПОЇСТИ	-0.30103
-3.875784	ПОЇХАЛИ	-0.30103
-3.875784	ПОЇХАТИ	-0.30103
-3.875784	ПОБАЖАНЬ	-0.30103
-3.875784	ПОБАЧИЛИ	-0.30103
-3.222572	ПОБАЧИЛО	-0.9542425
-3.875784	ПОБАЧИТИ	-0.30103
-3.875784	ПОБОЇЩА	-0.30103
-3.875784	ПОБУДУВАТИ	-0.30103
-3.875784	ПОВІНЬ	-0.30103
-3.875784	ПОВІТРІ	-0.30103
-3.875784	ПОВІТРЯ	-0.30103
-3.875784	ПОВАГИ	-0.30103
-3.875784	ПОВЕРНЕННЯМ	-0.30103
-3.875784	ПОВЕРНУВСЯ	-0.30103
-3.699693	ПОВЕРНУВШИСЬ	-0.30103
-3.574754	ПОВЕРСІ	-0.30103
-3.699693	ПОВЕРТАЄТЬСЯ	-0.4771213
-3.875784	ПОВЕРТАТИСЬ	-0.30103
-3.875784	ПОВЕРТАЮТЬ	-0.30103
-3.699693	ПОВЕРТАЮТЬСЯ	-0.4771213
-3.875784	ПОВЕРХ	-0.30103
-3.875784	ПОВЕРХНЮ	-0.30103
-3.875784	ПОВИГАНЯЛИ	-0.30103
-3.398663	ПОВИНЕН	-0.544068
-3.875784	ПОВНІСТЮ	-0.30103
-3.875784	ПОВНІШИЙ	-0.30103
-3.875784	ПОВНОГО	-0.30103
-3.875784	ПОВСЯКДЕННИМИ	-0.30103
-3.000723	ПОВТОРИТЬСЯ	-0.9030899
-3.875784	ПОГАНА	-0.30103
-3.062871	ПОГАНО	-0.4771213
-3.699693	ПОГЛЯД	-0.30103
-3.875784	ПОГЛЯДОМ	-0.30103
-3.875784	ПОГЛЯНЬ	-0.30103
-3.875784	ПОГНУТУ	-0.30103
-3.875784	ПОГОВОРИТИ	-0.30103
-3.875784	ПОГОДА	-0.30103
-3.875784	ПОГОДЖУЄТЬСЯ	-0.30103
-3.875784	ПОГОДЖУВАВСЯ	-0.3010301
-3.875784	ПОГОДЖУЮТЬСЯ	-0.30103
-3.875784	ПОГОДИ	-0.30103
-3.875784	ПОГОДИВСЯ	-0.3010301
-3.875784	ПОГОДОЮ	-0.30103
-3.699693	ПОГОДЬТЕСЬ	-0.30103
-3.875784	ПОГРОЖУВАЛИ	-0.30103
-3.875784	ПОДІБНИХ	-0.30103
-3.875784	ПОДІБНОГО	-0.30103
-3.273725	ПОДІЙ	-0.90309
-3.574754	ПОДАЛІ	-0.6020601
-3.273725	ПОДАРУЄШ	-0.9030901
-3.875784	ПОДВІЙНУ	-0.30103
-3.875784	ПОДИВИСЬ	-0.30103
-3.574754	ПОДИВИТИСЬ	-0.39794
-3.699693	ПОДИХ	-0.3010299
-3.875784	ПОДОБАЄТЬСЯ	-0.3010301
-3.097633	ПОДОБАВСЯ	-1.079181
-3.875784	ПОДОБАЛИСЬ	-0.30103
-3.875784	ПОДРУГЕ	-0.30103
-3.574754	ПОДУЖАЄМО	-0.30103
-3.875784	ПОДУМАЙ	-0.30103
-3.875784	ПОДУМАТИ	-0.30103
-3.875784	ПОДУМАЮТЬ	-0.30103
-3.875784	ПОЖАЛКУЄШ	-0.30103
-3.875784	ПОЖВАВЛЮЮТЬСЯ	-0.30103
-3.699693	ПОЖЕЖНИКІВ	-0.30103
-3.875784	ПОЖЕЖНИКИ	-0.30103
-3.875784	ПОЖИВІТЬ	-0.30103
-2.946366	ПОЗАКЛАДАЛО	-0.9542425
-3.875784	ПОЗБАВИВ	-0.30103
-3.699693	ПОЗИТИВНИЙ	-0.30103
-3.062871	ПОЗИТИВНО	-1.113943
-3.875784	ПОКАЗУЄ	-0.30103
-3.699693	ПОКАЗУЮТЬ	-0.30103
-3.875784	ПОКВАПИТИСЯ	-0.30103
-3.331717	ПОКЛОНЯЄТЬСЯ	-0.8450981
-3.477844	ПОЛIТИКИ	-0.69897
-3.273725	ПОЛIТИКОЮ	-0.9030899
-3.699693	ПОЛІ	-0.30103
-3.097633	ПОЛІТЕХНІКИ	-1.079181
-3.875784	ПОЛІТИКА	-0.30103
-3.875784	ПОЛЕ	-0.30103
-3.875784	ПОЛЕГЛИХ	-0.30103
-3.875784	ПОЛИВАЛИ	-0.30103
-3.699693	ПОЛЯ	-0.30103
-3.699693	ПОМІЖ	-0.30103
-3.875784	ПОМІНЯТИ	-0.30103
-3.875784	ПОМІТИЛИ	-0.30103
-3.875784	ПОМІТИТЬ	-0.30103
-3.398663	ПОМІТЯТЬ	-0.3521825
-3.875784	ПОМІЧАЄ	-0.30103
-3.875784	ПОМІЧАВ	-0.30103
-3.875784	ПОМІЧАЮЧИ	-0.30103
-3.273725	ПОМИРАЄ	-0.9030899
-3.875784	ПОМОЄМУ	-0.30103
-3.574754	ПОНАД	-0.39794
-3.875784	ПООБІДДЯ	-0.30103
-3.875784	ПООБКЛАДАЛИ	-0.30103
-3.699693	ПОПІД	-0.4771212
-3.875784	ПОПАДЕШ	-0.30103
-3.875784	ПОПАЛО	-0.3010301
-3.875784	ПОПЕРЕДУ	-0.30103
-3.875784	ПОПЕРШЕ	-0.30103
-3.273725	ПОПЛИВУТЬ	-0.90309
-3.875784	ПОПРАВИТЬСЯ	-0.30103
-3.875784	ПОПРИ	-0.30103
-3.222572	ПОПУЛЯРИЗАЦІЇ	-0.9542425
-3.097633	ПОПУЛЯРНИМИ	-1.079181
-3.875784	ПОРІЗАНЕ	-0.30103
-3.875784	ПОРІЗНОМУ	-0.30103
-3.875784	ПОРАЗОК	-0.30103
-3.875784	ПОРАХУВАВ	-0.30103
-3.875784	ПОРАХУВАЛИ	-0.30103
-3.875784	ПОРАХУВАТИ	-0.30103
-3.875784	ПОРВАНИМ	-0.30103
-3.699693	ПОРИГАТИ	-0.3010299
-3.699693	ПОРОЖНІЙ	-0.30103
-3.875784	ПОРОЖНЬО	-0.30103
-3.875784	ПОРОЖНЬОМУ	-0.30103
-3.875784	ПОРОЖНЮ	-0.30103
-3.699693	ПОРТВЕЙНАМИ	-0.4771212
-3.875784	ПОРУ	-0.30103
-3.574754	ПОРУЧ	-0.30103
-3.875784	ПОРЦЕЛЯНУ	-0.30103
-3.699693	ПОРЯДОК	-0.30103
-3.477844	ПОСВІДЧЕННЯ	-0.3679768
-3.699693	ПОСВІДЧЕННЯМ	-0.3010299
-3.875784	ПОСВІДЧЕННЯМОЯ	-0.30103
-3.875784	ПОСВІТИЛА	-0.30103
-3.875784	ПОСЕРЕДНИКІВ	-0.30103
-3.135422	ПОСЛУГИ	-1.041393
-3.398663	ПОСЛУХАЙТЕ	-0.30103
-3.875784	ПОСМІХАЄТЬСЯ	-0.30103
-3.875784	ПОСМІХАЮТЬСЯ	-0.30103
-3.875784	ПОСМАЖИЛИСЬ	-0.30103
-3.875784	ПОСПРАВЖНЬОМУ	-0.30103
-3.875784	ПОСТІЙНИМИ	-0.30103
-3.699693	ПОСТІЙНО	-0.30103
-3.875784	ПОСТАЄ	-0.30103
-3.875784	ПОСТТОТАЛІТАРНОГО	-0.30103
-3.398663	ПОСТУПАЄТЬСЯ	-0.7781513
-2.972694	ПОТІМ	-0.4259688
-3.875784	ПОТЕРПАЛО	-0.30103
-3.875784	ПОТРІБНІ	-0.30103
-3.699693	ПОТРІБНИМИ	-0.4771212
-3.273725	ПОТРІБНО	-0.3010297
-3.875784	ПОТРАХАТИСЬ	-0.3010301
-3.875784	ПОТРЕБИ	-0.30103
-3.875784	ПОТРЕБУЄ	-0.30103
-3.875784	ПОТРЕТЄ	-0.30103
-3.875784	ПОФАРБОВАНІ	-0.30103
-3.699693	ПОХМЕЛИТИСЬ	-0.30103
-3.176815	ПОХОДЖЕННЯ	-0.7403626
-3.875784	ПОХУЇСТ	-0.30103
-3.875784	ПОЧАВ	-0.30103
-3.875784	ПОЧАЛИ	-0.30103
-3.097633	ПОЧАТКУ	-1.079181
-3.875784	ПОЧЕКАЙНО	-0.30103
-3.875784	ПОЧЕКАЙТЕ	-0.30103
-3.030686	ПОЧИНАЄ	-0.4559316
-3.875784	ПОЧИНАЄШ	-0.30103
-3.875784	ПОЧИНАЛИ	-0.30103
-3.699693	ПОЧИНАЛОСЬ	-0.30103
-3.875784	ПОЧИНАЮ	-0.30103
-3.699693	ПОЧИНАЮТЬ	-0.30103
-3.875784	ПОЧИНАЮТЬСЯ	-0.30103
-3.875784	ПОЧНУТЬ	-0.30103
-3.875784	ПОЧУЄ	-0.30103
-3.875784	ПОЧУЛИ	-0.30103
-3.875784	ПОШЕПКИ	-0.30103
-3.331717	ПОШИРЮВАЛИСЯ	-0.8450981
-3.875784	ПОШУКИ	-0.30103
-3.331717	ПОШУКУ	-0.8450981
-3.699693	ПОЯСНИТИ	-0.30103
-3.875784	ПОЯТЬ	-0.30103
-3.699693	ПРАВДА	-0.30103
-3.875784	ПРАВИЙ	-0.30103
-3.875784	ПРАВИЛО	-0.30103
-3.699693	ПРАВИЛЬНО	-0.30103
-3.875784	ПРАВИМ	-0.30103
-3.875784	ПРАВИТИ	-0.30103
-3.875784	ПРАЛІСУ	-0.30103
-3.875784	ПРАПОРАМИ	-0.30103
-3.875784	ПРАПОРИ	-0.30103
-3.222572	ПРАСЛОВЯНСЬКА	-0.9542425
-3.097633	ПРАЦЕЮ	-1.079181
-3.574754	ПРАЦЮЄ	-0.30103
-3.875784	ПРАЦЮЄШ	-0.30103
-3.875784	ПРАЦЮВАЛА	-0.30103
-3.699693	ПРАЦЮВАЛИ	-0.30103
-3.477844	ПРАЦЮВАТИ	-0.30103
-3.135422	ПРЕЗЕНТАЦІЇ	-1.041393
-3.030686	ПРИ	-0.8750613
-3.875784	ПРИЇЗДИЛИ	-0.30103
-3.699693	ПРИЇХАВ	-0.30103
-3.875784	ПРИЇХАЛИ	-0.30103
-3.875784	ПРИБЛИЗНО	-0.30103
-3.875784	ПРИБУВАЄ	-0.30103
-3.875784	ПРИВІТ	-0.30103
-3.875784	ПРИВІТНЕ	-0.30103
-3.875784	ПРИВОДЯТЬ	-0.30103
-3.699693	ПРИВОЗЯТЬ	-0.4771212
-3.875784	ПРИГЛЯДАТИСЯ	-0.30103
-3.875784	ПРИГОД	-0.30103
-3.875784	ПРИГОТОВАНЕ	-0.30103
-3.875784	ПРИДАВИТИ	-0.30103
-3.875784	ПРИДИХОМ	-0.30103
-3.875784	ПРИДУМАВ	-0.30103
-3.875784	ПРИДУРКІВ	-0.30103
-3.699693	ПРИЙДЕШ	-0.4771213
-3.875784	ПРИЙНЯТО	-0.30103
-3.875784	ПРИЙТИ	-0.30103
-3.875784	ПРИЙШЛИ	-0.30103
-3.875784	ПРИКОЛЬНІ	-0.30103
-3.875784	ПРИКОЛЬНА	-0.30103
-3.875784	ПРИЛАД	-0.30103
-3.875784	ПРИМАРНИМИ	-0.30103
-3.875784	ПРИМХ	-0.30103
-3.875784	ПРИНАДИ	-0.30103
-3.875784	ПРИНЕСІТЬ	-0.30103
-3.875784	ПРИНЕСТИ	-0.30103
-3.875784	ПРИНИШКЛІ	-0.30103
-3.875784	ПРИНИШКЛО	-0.30103
-3.875784	ПРИНОСИВ	-0.30103
-3.398663	ПРИНЦИПІ	-0.30103
-3.875784	ПРИНЦИПОВІ	-0.30103
-3.699693	ПРИПОВЗАЄ	-0.4771213
-3.331717	ПРИРОДОЮ	-0.845098
-3.875784	ПРИСВІЧУ	-0.30103
-3.135422	ПРИСВЯТИВШИ	-1.041393
-3.875784	ПРИСЛУХАЄТЬСЯ	-0.30103
-3.875784	ПРИСОРОМЛЕНИХ	-0.30103
-3.875784	ПРИСТАЮТЬ	-0.30103
-3.875784	ПРИСТРАСНО	-0.30103
-3.699693	ПРИСУТНІ	-0.30103
-3.875784	ПРИСУТНОСТІ	-0.30103
-3.875784	ПРИТИСКАЮЧИСЬ	-0.30103
-3.875784	ПРИТИХЛИХ	-0.30103
-3.135422	ПРИТЯГАЛЬНЕ	-1.041393
-3.875784	ПРИТЯГУЄ	-0.30103
-3.097633	ПРИХИЛЬНИКІВ	-1.079181
-3.875784	ПРИХОДИВ	-0.30103
-3.574754	ПРИХОДИТЬ	-0.30103
-3.699693	ПРИХОДЯТЬ	-0.30103
-3.875784	ПРИЧИНА	-0.30103
-3.699693	ПРИЧОМУ	-0.30103
-3.875784	ПРИЯТЕЛЯ	-0.30103
-2.436452	ПРО	-0.6863809
-3.875784	ПРОЇБАЛИ	-0.30103
-3.875784	ПРОЇЗД	-0.30103
-3.875784	ПРОБУХУЄМО	-0.30103
-3.875784	ПРОВЕРНУТИ	-0.3010301
-3.875784	ПРОВОДИТЬ	-0.30103
-3.875784	ПРОГРАМИ	-0.30103
-3.699693	ПРОДАЄ	-0.30103
-3.062871	ПРОДАВАТИ	-0.6989701
-3.875784	ПРОДАВШИ	-0.30103
-3.875784	ПРОДАВЩИЦЬ	-0.30103
-3.875784	ПРОДАВЩИЦЯ	-0.30103
-3.331717	ПРОДАЖУ	-0.8450981
-3.477844	ПРОДАТИ	-0.30103
-3.273725	ПРОДОВЖУВАТИ	-0.9030899
-3.875784	ПРОДОВОЛЬЧИМ	-0.30103
-3.875784	ПРОДУКТИ	-0.30103
-3.875784	ПРОДУКЦІЇ	-0.30103
-3.222572	ПРОЕКТУ	-0.9542425
-3.875784	ПРОКИНУВШИСЬ	-0.30103
-3.875784	ПРОКУСИВ	-0.30103
-3.875784	ПРОЛІТАЄ	-0.30103
-3.331717	ПРОЛУНАЛО	-0.8450981
-3.875784	ПРОМОВИ	-0.30103
-3.875784	ПРОМОВИЛА	-0.30103
-3.875784	ПРОНИЗЛИВО	-0.30103
-3.875784	ПРОНИРА	-0.30103
-3.875784	ПРОПАВ	-0.30103
-3.875784	ПРОПАДАТИ	-0.30103
-3.875784	ПРОПИВ	-0.30103
-3.875784	ПРОПИСКИ	-0.30103
-3.875784	ПРОПОНУВАЛИ	-0.30103
-3.875784	ПРОПРАЦЮВАВ	-0.3010299
-3.875784	ПРОПУСТІТЬГОВОРИТЬ	-0.30103
-3.875784	ПРОПУСТИВ	-0.30103
-3.875784	ПРОПУСТИЛА	-0.30103
-3.875784	ПРОРВАТИСЬ	-0.30103
-3.875784	ПРОРИВАЮТЬ	-0.30103
-3.875784	ПРОСИРАВ	-0.30103
-3.222572	ПРОСИТЬ	-0.9542425
-3.875784	ПРОСЛІДКУВАТИ	-0.30103
-3.875784	ПРОСТІШЕ	-0.30103
-3.176815	ПРОСТЕЛИВСЯ	-1
-3.574754	ПРОСТИТУТКИ	-0.30103
-3.699693	ПРОСТИТУТОК	-0.30103
-3.875784	ПРОСТИХ	-0.30103
-2.685453	ПРОСТО	-0.4771214
-3.875784	ПРОСТРАЦІЇ	-0.30103
-3.875784	ПРОСТЯГНУТИ	-0.30103
-3.875784	ПРОТЕКЦІЄЮ	-0.30103
-3.875784	ПРОТИ	-0.30103
-3.331717	ПРОТУХНЕ	-0.845098
-3.273725	ПРОТЯГ	-0.9030899
-3.273725	ПРОТЯГОМ	-0.6532126
-3.875784	ПРОТЯЖНО	-0.30103
-3.699693	ПРОХОДУ	-0.30103
-3.875784	ПРОХОЛОДНОЇ	-0.30103
-3.875784	ПРОХОЛОДНОГО	-0.30103
-3.875784	ПРОХОЛОДНОМУ	-0.30103
-3.875784	ПРОЧАН	-0.30103
-3.875784	ПРОЧАНИ	-0.30103
-3.331717	ПРОЩАТИ	-0.8450981
-3.875784	ПРОЩУ	-0.30103
-3.699693	ПРЯМО	-0.30103
-3.875784	ПТАХАМИ	-0.30103
-3.875784	ПТАШИНЕ	-0.30103
-3.875784	ПУБЛІКА	-0.30103
-3.875784	ПЯНІ	-0.30103
-3.574754	ПЯНИЙ	-0.30103
-3.875784	ПЯНИХ	-0.30103
-3.875784	ПЯТНАДЦЯТІЙ	-0.30103
-3.875784	ПЯТОЇ	-0.30103
-3.875784	ПЯТЬ	-0.30103
-3.875784	РІДКІСНОЇ	-0.30103
-3.875784	РІДНИХ	-0.30103
-3.477844	РІЗНІ	-0.30103
-3.875784	РІЗНА	-0.30103
-3.875784	РІЗНОЇ	-0.30103
-3.875784	РІЗНУ	-0.30103
-3.477844	РІЧ	-0.3679767
-2.834392	РІШЕННЯ	-1.060698
-2.898061	РАВЛИК	-0.9999999
-3.222572	РАВЛИКА	-0.9542425
-3.875784	РАДОСТІ	-0.30103
-3.875784	РАДЯНСЬКУ	-0.30103
-3.097633	РАЗ	-0.5051502
-3.574754	РАЗІ	-0.30103
-3.875784	РАЗІВ	-0.30103
-3.398663	РАЗОМ	-0.544068
-3.699693	РАЗУ	-0.30103
-3.273725	РАКОВИХ	-0.9030899
-3.574754	РАНІШЕ	-0.39794
-3.875784	РАНКОВОЮ	-0.30103
-3.875784	РАНКОВУ	-0.30103
-3.398663	РАНКУ	-0.30103
-3.097633	РАНОК	-0.8129133
-3.097633	РАПТОМ	-0.322219
-3.875784	РАХУВАЛИСЬ	-0.30103
-3.699693	РАХУНКОМ	-0.30103
-3.875784	РАЦІЄЮ	-0.30103
-3.097633	РАЦІЮ	-1.079181
-3.875784	РВАНІ	-0.30103
-3.699693	РВАТИ	-0.30103
-3.875784	РЕАЛЬНІСТЮ	-0.30103
-3.875784	РЕВЕ	-0.30103
-3.875784	РЕВНИВО	-0.30103
-3.875784	РЕВУТЬ	-0.30103
-3.875784	РЕГБІ	-0.30103
-3.875784	РЕДАКТОР	-0.30103
-3.875784	РЕДАКЦІЇ	-0.30103
-3.699693	РЕЗУЛЬТАТОМ	-0.30103
-3.699693	РЕКЛАМИ	-0.30103
-3.574754	РЕКЛАМНИЙ	-0.39794
-3.331717	РЕКЛАМНИКИ	-0.3424227
-3.875784	РЕКЛАМНОЇ	-0.30103
-3.875784	РЕКЛАМНОМУ	-0.30103
-3.875784	РЕКЛАМОЮ	-0.30103
-3.875784	РЕСПУБЛІЦІ	-0.30103
-3.273725	РЕЧІ	-0.30103
-3.699693	РЕЧАМИ	-0.30103
-3.477844	РЕЧЕЙ	-0.30103
-3.875784	РЕШТ	-0.30103
-3.875784	РЕШТА	-0.30103
-3.875784	РЕШТКАМИ	-0.30103
-3.875784	РЕШТУ	-0.3010301
-3.875784	РИЗИКОВАНО	-0.30103
-3.875784	РИЛО	-0.30103
-3.875784	РИНКУ	-0.30103
-3.875784	РИПУЧОМУ	-0.30103
-3.875784	РОЇЛИСЯ	-0.30103
-3.574754	РОБИТИ	-0.30103
-3.875784	РОБИТЬ	-0.30103
-3.875784	РОБЛЮ	-0.30103
-3.176815	РОБЛЯТЬ	-0.9999999
-3.574754	РОБОТА	-0.30103
-3.875784	РОБОТОДАВЦІВ	-0.30103
-3.574754	РОБОТУ	-0.30103
-3.875784	РОБОЧОМУ	-0.30103
-3.875784	РОГАХ	-0.30103
-3.062871	РОДИННОЮ	-1.113943
-3.875784	РОЗІБРАТИСЬ	-0.30103
-3.875784	РОЗІРВАНІ	-0.30103
-3.875784	РОЗВАЛЕНА	-0.30103
-3.875784	РОЗВАЛЕНИЙ	-0.30103
-3.875784	РОЗВАЛИЛИ	-0.30103
-3.097633	РОЗВИНУВ	-1.079181
-3.875784	РОЗВИТКУ	-0.30103
-3.875784	РОЗВОДИЛИ	-0.30103
-3.699693	РОЗГЛЯДАЄ	-0.30103
-3.331717	РОЗГЛЯДАТИ	-0.8450981
-3.097633	РОЗДАЛИ	-1.079181
-3.875784	РОЗЙОБАНИЙ	-0.30103
-3.875784	РОЗЛОГІ	-0.30103
-3.222572	РОЗМІЩЕНИЙ	-0.9542425
-3.875784	РОЗМОВЛЯТИ	-0.30103
-3.875784	РОЗМОВЛЯЮТЬ	-0.30103
-3.875784	РОЗМОК	-0.30103
-3.875784	РОЗМОКЛИМИ	-0.30103
-3.875784	РОЗПІЗДЯЙСТВОМ	-0.30103
-3.875784	РОЗПІЗНАЄ	-0.30103
-3.875784	РОЗПАЧЛИВО	-0.30103
-3.875784	РОЗПОВІДАЄМО	-0.30103
-3.097633	РОЗПОДІЛ	-1.079181
-3.875784	РОЗРІЗНЯЮТЬ	-0.30103
-3.875784	РОЗРИВАЮТЬСЯ	-0.30103
-3.875784	РОЗСЛАБЛЕНИЙ	-0.30103
-3.273725	РОЗСУД	-0.9030899
-3.875784	РОЗТОПТАНІ	-0.3010301
-3.875784	РОЗТРІПАНИЙ	-0.30103
-3.477844	РОЗУМIЮ	-0.69897
-3.875784	РОЗУМІЄ	-0.30103
-3.477844	РОЗУМІЄТЕ	-0.30103
-3.875784	РОЗУМІЄШ	-0.30103
-3.875784	РОЗУМІЛА	-0.30103
-3.574754	РОЗУМІЮ	-0.30103
-3.875784	РОЗУМІЮТЬ	-0.30103
-3.875784	РОЗФАСОВАНУ	-0.30103
-3.875784	РОЗХУЯЧИТЬ	-0.30103
-3.331717	РОКІВ	-0.845098
-3.574754	РОКИ	-0.30103
-3.699693	РОКУ	-0.30103
-3.331717	РОМАН	-0.845098
-3.135422	РОМАНА	-1.041393
-3.699693	РОСІЇ	-0.30103
-3.574754	РОСІЮ	-0.39794
-3.875784	РОСЛИ	-0.30103
-3.273725	РОТА	-0.3357921
-3.875784	РУК	-0.30103
-3.398663	РУКИ	-0.30103
-3.574754	РУКУ	-0.30103
-3.097633	РУСИНИ	-1.079181
-3.222572	РУСЛАНА	-0.9542425
-3.875784	РУСЬКОЇ	-0.30103
-3.875784	РУХ	-0.30103
-3.875784	РУХАЄ	-0.30103
-3.875784	РЯДАМИ	-0.30103
-3.875784	РЯДУ	-0.30103
-3.875784	СІДАЛ	-0.30103
-3.699693	СІМНАДЦЯТА	-0.30103
-3.875784	СІМНАДЦЯТОГО	-0.30103
-3.875784	СІСТИ	-0.30103
-2.854595	САМ	-0.4771214
-3.875784	САМІ	-0.30103
-3.222572	САМЕ	-0.5642717
-3.875784	САМИМ	-0.30103
-3.097633	САМО	-0.5740311
-3.135422	САМОБУТНЄ	-1.041393
-3.875784	САМОМУ	-0.30103
-3.273725	САМОТНОСТІ	-0.9030899
-3.574754	САША	-0.30103
-3.875784	САШУ	-0.30103
-3.875784	СВІЖИМИ	-0.30103
-3.135422	СВІЙ	-0.6368221
-3.097633	СВІТ	-0.5740313
-3.875784	СВІТИЛЬНИКАМИ	-0.30103
-3.875784	СВІТЛА	-0.30103
-3.875784	СВІТЛО	-0.30103
-3.875784	СВІТЛЯЧКІВ	-0.30103
-3.875784	СВІТЛЯЧКИ	-0.30103
-3.176815	СВІТУ	-0.7403628
-3.875784	СВІТЯТЬ	-0.30103
-3.875784	СВЕТРАХ	-0.30103
-3.875784	СВИСТІТИ	-0.30103
-3.699693	СВИСТИТЬ	-0.30103
-3.699693	СВОЄ	-0.30103
-3.699693	СВОЄЇ	-0.30103
-3.875784	СВОЄМУ	-0.30103
-3.398663	СВОЄЮ	-0.5440681
-3.398663	СВОЇ	-0.30103
-3.331717	СВОЇЙ	-0.8450981
-3.699693	СВОЇМИ	-0.30103
-2.946366	СВОЇХ	-0.5642712
-3.062871	СВОГО	-0.6989698
-3.000723	СВОЮ	-0.4393331
-3.875784	СВЯЩЕННИМ	-0.30103
-2.898061	СЕБЕ	-0.6627577
-3.574754	СЕБТО	-0.30103
-3.875784	СЕЗОНУ	-0.30103
-3.477844	СЕКТОР	-0.3679768
-3.222572	СЕКТОРІВ	-0.5642716
-3.875784	СЕКТОРАХ	-0.30103
-3.875784	СЕКТОРИ	-0.30103
-3.875784	СЕРВАНТІВ	-0.30103
-3.699693	СЕРЕД	-0.30103
-3.097633	СЕРЕДИ	-0.8129135
-3.875784	СЕРЕДИНІ	-0.30103
-3.875784	СЕРЕДНЬОЇ	-0.30103
-3.875784	СЕРЖАНТ	-0.30103
-3.875784	СЕРЖАНТІВ	-0.30103
-3.699693	СЕРЙОЗНО	-0.30103
-3.875784	СИДІТИ	-0.30103
-3.875784	СИДЖУ	-0.30103
-3.875784	СИДИ	-0.30103
-3.875784	СИДИТЬ	-0.30103
-3.699693	СИДЯТЬ	-0.30103
-3.875784	СИЛ	-0.30103
-3.875784	СИЛИ	-0.30103
-3.331717	СИЛУ	-0.845098
-3.699693	СИЛЬНО	-0.30103
-3.875784	СИМУЛЯНТІВ	-0.30103
-3.875784	СИНІМИ	-0.30103
-3.875784	СИНА	-0.30103
-3.875784	СИНОЧКА	-0.30103
-3.699693	СИР	-0.30103
-3.875784	СИРОВИНОЮ	-0.30103
-3.273725	СИТУАЦIЯ	-0.90309
-3.222572	СИХІВСЬКОГО	-0.9542425
-3.097633	СКІЛЬКИ	-0.5740315
-3.030686	СКАЖІМО	-0.5006022
-3.699693	СКАЖЕШ	-0.30103
-3.875784	СКАЖУ	-0.30103
-3.398663	СКАЖУТЬ	-0.3521825
-3.699693	СКАЗАВ	-0.30103
-3.875784	СКАЗАЛА	-0.30103
-3.135422	СКАЗАТИ	-0.3245109
-3.875784	СКАНДАЛЯТЬ	-0.30103
-3.699693	СКАУТІВ	-0.30103
-3.875784	СКАУТСЬКІ	-0.30103
-3.699693	СКИДАЮТЬСЯ	-0.30103
-3.875784	СКЛАДАЄТЬСЯ	-0.30103
-3.875784	СКЛАДНО	-0.30103
-3.875784	СКЛАЛОСЬ	-0.30103
-3.875784	СКОВТУЄ	-0.30103
-3.875784	СКОНЦЕНТРОВУЄТЬСЯ	-0.30103
-3.699693	СКОРІШЕ	-0.30103
-3.875784	СКРИКНУВ	-0.30103
-3.875784	СКРОМНІ	-0.30103
-3.222572	СКРОМНІШЕ	-0.9542425
-3.875784	СКУПИТИ	-0.30103
-3.875784	СЛІД	-0.30103
-3.875784	СЛІДИ	-0.30103
-3.875784	СЛІЗЬМИ	-0.30103
-3.875784	СЛАБО	-0.30103
-3.875784	СЛАВИ	-0.30103
-3.875784	СЛИНУ	-0.30103
-3.331717	СЛОВА	-0.845098
-3.699693	СЛОВО	-0.30103
-3.699693	СЛОВОМ	-0.30103
-3.699693	СЛУХАЄ	-0.30103
-3.030686	СЛУХАВКУ	-0.3388186
-3.875784	СЛУХАВЦІ	-0.30103
-3.875784	СЛУХАЛИ	-0.30103
-3.875784	СЛУХАЮЧИ	-0.30103
-3.331717	СМІЙ	-0.8450981
-3.273725	СМАК	-0.90309
-3.875784	СМАЧНО	-0.30103
-3.875784	СНІГОМ	-0.30103
-3.875784	СНІДАНОК	-0.30103
-3.875784	СНАРЯДИ	-0.30103
-3.875784	СНУ	-0.30103
-3.062871	СОБІ	-0.30103
-2.504717	СОБАКА	-0.3444955
-3.574754	СОБАКИ	-0.30103
-3.699693	СОБАКОЮ	-0.30103
-3.030686	СОБАКУ	-0.3617278
-3.477844	СОБАЦІ	-0.30103
-3.574754	СОБОЮ	-0.30103
-3.875784	СОВОК	-0.30103
-3.875784	СОЛІДНИЙ	-0.30103
-3.875784	СОН	-0.30103
-3.273725	СОНЕЧКО	-0.9030899
-3.875784	СОННІ	-0.30103
-3.875784	СОННИХ	-0.30103
-3.875784	СОННО	-0.30103
-3.875784	СОНЦЕМ	-0.30103
-3.331717	СОНЦЮ	-0.845098
-3.331717	СОНЯЧНА	-0.845098
-3.875784	СОНЯШНИКОВУ	-0.30103
-3.875784	СОПЛЯМИ	-0.30103
-3.875784	СОРОК	-0.30103
-3.875784	СОРОКА	-0.30103
-3.875784	СОТЕНЬ	-0.30103
-3.875784	СОТНІ	-0.3010301
-3.875784	СОЦІАЛІЗМОМ	-0.30103
-3.273725	СОЦІАЛЬНИЙ	-0.6532125
-3.875784	СОЦІАЛЬНОГО	-0.30103
-3.875784	СОЦІУМ	-0.30103
-3.875784	СОЮЗІ	-0.30103
-3.331717	СПІВАЛИ	-0.845098
-3.875784	СПІВПРАЦЮВАЛИ	-0.30103
-3.875784	СПІЛКУВАННЯ	-0.30103
-3.875784	СПІЛКУВАТИМЕШСЯ	-0.30103
-3.699693	СПІЛКУВАТИСЬ	-0.30103
-3.222572	СПАДЩИНИ	-0.9542425
-3.875784	СПАЛИЛИ	-0.30103
-3.875784	СПАТИ	-0.30103
-3.699693	СПЕРШУ	-0.30103
-3.875784	СПИМО	-0.30103
-3.875784	СПИНАМИ	-0.30103
-3.875784	СПИНОЮ	-0.30103
-3.699693	СПИТАТИСЬ	-0.30103
-3.699693	СПЛАВЛЯЮТЬ	-0.30103
-3.875784	СПОВЗАЄ	-0.30103
-3.875784	СПОДІВАЮСЯ	-0.3010301
-3.875784	СПОКІЙНА	-0.30103
-3.875784	СПОКІЙНО	-0.30103
-3.097633	СПОРТИВНОГО	-1.079181
-3.699693	СПОСІБ	-0.30103
-3.875784	СПОСТЕРІГАЄ	-0.30103
-3.875784	СПОСТЕРІГАЮТЬ	-0.30103
-3.477844	СПОЧАТКУ	-0.30103
-3.398663	СПРАВДІ	-0.3010301
-3.875784	СПРАВЖНЄ	-0.30103
-3.875784	СПРАВЖНІ	-0.30103
-3.875784	СПРАВЖНІЙ	-0.30103
-3.875784	СПРАВЖНЬОМУ	-0.30103
-3.477844	СПРАВОЮ	-0.69897
-3.875784	СПРАВУ	-0.30103
-3.331717	СПРИЯЄ	-0.8450981
-3.875784	СПРОБУВАВ	-0.30103
-3.875784	СПРОБУВАТИ	-0.30103
-3.875784	СПРОБУЙТЕ	-0.30103
-3.875784	СПУСТИТИСЬ	-0.30103
-3.875784	СРІБНІ	-0.30103
-3.875784	СТІЛЬКИ	-0.30103
-3.875784	СТАЄ	-0.30103
-3.875784	СТАБІЛЬНО	-0.30103
-3.699693	СТАВИВСЯ	-0.30103
-3.875784	СТАВИТИСЬ	-0.30103
-3.875784	СТАВИТЬСЯ	-0.30103
-3.699693	СТАВЛЯТЬСЯ	-0.30103
-3.699693	СТАДІОН	-0.30103
-3.699693	СТАДІОНІ	-0.30103
-3.875784	СТАДІОНОМ	-0.30103
-3.699693	СТАДІОНУ	-0.30103
-3.875784	СТАЛО	-0.30103
-3.699693	СТАЛОСЬ	-0.30103
-3.000723	СТАЛОСЯ	-0.9030896
-3.699693	СТАН	-0.4771212
-3.477844	СТАНІ	-0.3679768
-3.875784	СТАНЕ	-0.30103
-3.875784	СТАНЕШ	-0.30103
-3.875784	СТАНКОМ	-0.30103
-3.222572	СТАНОВЛЕННЯ	-0.9542425
-3.875784	СТАНОМ	-0.30103
-3.875784	СТАРІСТЬ	-0.30103
-3.331717	СТАРАЄТЬСЯ	-0.8450981
-3.875784	СТАРЕНЬКА	-0.30103
-3.875784	СТАРЕНЬКУ	-0.30103
-3.875784	СТАРИЙ	-0.30103
-3.875784	СТАРОГО	-0.30103
-3.699693	СТАРУ	-0.30103
-3.273725	СТАТУС	-0.6532125
-3.875784	СТЕРНОВІ	-0.30103
-3.331717	СТОЇТЬ	-0.3010299
-3.875784	СТОВБУРА	-0.30103
-3.875784	СТОРЧ	-0.30103
-3.875784	СТОСУНКИ	-0.30103
-3.574754	СТОЯТЬ	-0.30103
-3.331717	СТОЯЧА	-0.8450981
-3.875784	СТРАХИ	-0.30103
-3.875784	СТРАХУ	-0.30103
-3.875784	СТРАШНІШИЙ	-0.30103
-3.875784	СТРАШНЕ	-0.30103
-3.097633	СТРУКТУРУ	-1.079181
-3.875784	СТРЬОМАЄТЬСЯ	-0.30103
-3.875784	СТРЬОМНА	-0.30103
-3.097633	СТУДЕНТАМ	-1.079181
-3.331717	СТУДЕНТИ	-0.845098
-3.875784	СТУДЕНТСЬКИХ	-0.30103
-3.273725	СУВОРОЇ	-0.9030899
-3.574754	СУДДЮ	-0.30103
-3.875784	СУДДЯ	-0.30103
-3.875784	СУКИ	-0.30103
-3.875784	СУМНІВАВСЯ	-0.30103
-3.875784	СУМУ	-0.30103
-3.875784	СУПРОТИВНИКА	-0.30103
-3.875784	СУРМУ	-0.30103
-3.875784	СУСІДНІХ	-0.30103
-3.875784	СУСІДНЬОЇ	-0.30103
-3.699693	СУСПІЛЬНОЇ	-0.30103
-3.875784	СУСПІЛЬСТВА	-0.30103
-3.875784	СУТІНКИ	-0.30103
-3.273725	СУЧАСНОЇ	-0.9030899
-3.875784	СХЕМАМИ	-0.3010301
-3.875784	СХОЖІ	-0.30103
-3.875784	СХОЖЕ	-0.30103
-3.699693	СХОЖИЙ	-0.30103
-3.331717	СЬОГОДНІ	-0.6020599
-3.875784	СЮДИ	-0.30103
-3.875784	СЯЙВО	-0.30103
-3.477844	ТIЛЬКИ	-0.69897
-2.796603	ТІ	-0.8293036
-3.699693	ТІЄЮ	-0.4771213
-3.273725	ТІЙ	-0.9030899
-3.875784	ТІЛА	-0.30103
-3.875784	ТІЛОМ	-0.30103
-2.564031	ТІЛЬКИ	-0.6989703
-3.875784	ТІНЕЙДЖЕРСЬКИЙ	-0.30103
-3.875784	ТІНЯМИ	-0.30103
-3.875784	ТІСНУ	-0.30103
-3.875784	ТІТКА	-0.30103
-2.268329	ТА	-0.8016327
-3.222572	ТАЄМНИЦІ	-0.9542425
-3.875784	ТАБЛЕТОК	-0.30103
-3.699693	ТАЙМ	-0.30103
-3.875784	ТАЙМУ	-0.30103
-2.307583	ТАК	-0.4979049
-3.398663	ТАКІ	-0.3521825
-3.331717	ТАКА	-0.3424225
-3.574754	ТАКЕ	-0.30103
-2.921542	ТАКИ	-0.49485
-3.030686	ТАКИЙ	-0.4191293
-3.574754	ТАКИХ	-0.30103
-3.699693	ТАКОГО	-0.30103
-2.714417	ТАКОЖ	-0.90309
-3.699693	ТАКОМУ	-0.4771213
-3.875784	ТАКОЮ	-0.30103
-3.135422	ТАКУ	-0.778151
-2.796603	ТАМ	-0.3212335
-3.875784	ТАНКІВ	-0.30103
-3.875784	ТАНКИ	-0.30103
-3.875784	ТАНКОВОМУ	-0.30103
-3.574754	ТАНКУ	-0.39794
-3.331717	ТАТО	-0.8450981
-3.875784	ТВІЙ	-0.30103
-3.331717	ТВІР	-0.8450981
-3.875784	ТВЕРЕЗІ	-0.30103
-3.875784	ТВОЇ	-0.30103
-3.331717	ТВОРЧОСТІ	-0.8450981
-2.444421	ТЕ	-1.153814
-3.477844	ТЕАТР	-0.69897
-2.875784	ТЕБЕ	-0.3258535
-2.620512	ТЕЖ	-0.4393327
-3.062871	ТЕКСТІ	-1.113943
-3.875784	ТЕЛЕВІЗОР	-0.30103
-3.875784	ТЕЛЕВІЗОРУ	-0.30103
-3.875784	ТЕЛЕПЕРЕДАЧ	-0.30103
-3.699693	ТЕЛЕФОН	-0.30103
-3.875784	ТЕЛЕФОННИЙ	-0.30103
-3.699693	ТЕЛЕФОНУВАЛИ	-0.30103
-3.222572	ТЕМАТИЧНІ	-0.9542425
-3.875784	ТЕМИ	-0.30103
-3.875784	ТЕМНИЙ	-0.30103
-3.699693	ТЕМРЯВІ	-0.4771213
-3.875784	ТЕМРЯВА	-0.30103
-3.875784	ТЕМРЯВИ	-0.30103
-3.875784	ТЕМРЯВУ	-0.30103
-3.062871	ТЕМУ	-1.113943
-3.699693	ТЕПЕР	-0.30103
-3.875784	ТЕПЛИХ	-0.30103
-3.875784	ТЕПЛОГО	-0.30103
-3.875784	ТЕПЛОЛЮБНІ	-0.30103
-3.273725	ТЕРИТОРІЇ	-0.9030899
-3.097633	ТЕРМІН	-1.079181
-3.875784	ТЕРМОЯДЕРНІ	-0.30103
-3.875784	ТЕРПІЛИ	-0.30103
-3.699693	ТЕРПІТИ	-0.4771214
-3.875784	ТЕРТІ	-0.30103
-3.875784	ТЕХНІКИ	-0.30103
-2.504717	ТИ	-0.4533186
-3.699693	ТИЖДЕНЬ	-0.30103
-3.331717	ТИЖНЯ	-0.8450981
-3.699693	ТИЛОВА	-0.30103
-3.699693	ТИМ	-0.4771213
-3.097633	ТИМЧАСОВИМ	-1.079181
-3.875784	ТИП	-0.30103
-3.875784	ТИПУ	-0.30103
-3.699693	ТИСК	-0.30103
-3.875784	ТИСЯЧ	-0.30103
-3.875784	ТИСЯЧІ	-0.30103
-3.699693	ТИХ	-0.4771214
-3.875784	ТИХІ	-0.30103
-3.699693	ТИШІ	-0.30103
-3.875784	ТИША	-0.30103
-2.815087	ТО	-0.4771211
-2.685453	ТОБІ	-0.4771213
-3.574754	ТОБОЮ	-0.30103
-3.875784	ТОВАР	-0.30103
-3.875784	ТОВАРИША	-0.30103
-3.875784	ТОВАРИШУВАЛИ	-0.30103
-3.699693	ТОВСТИЙ	-0.30103
-3.273725	ТОГО	-0.3357922
-2.898061	ТОДІ	-0.4471581
-3.097633	ТОЖ	-0.4522976
-3.135422	ТОЙ	-0.5440679
-2.564031	ТОМУ	-0.8270001
-3.875784	ТОНЕ	-0.30103
-3.875784	ТОРГУВАТИСЬ	-0.30103
-3.875784	ТОЧИТЬСЯ	-0.30103
-3.331717	ТОЧНО	-0.3010302
-3.477844	ТРІШКИ	-0.30103
-3.875784	ТРІЩИТЬ	-0.30103
-3.875784	ТРАВА	-0.30103
-3.875784	ТРАВОЮ	-0.30103
-3.875784	ТРАДИЦІЙНО	-0.30103
-3.875784	ТРАМВАЙ	-0.30103
-3.875784	ТРАПЛЯЮТЬСЯ	-0.30103
-3.097633	ТРЕБА	-0.5051498
-3.875784	ТРЕПЕТОМ	-0.30103
-3.331717	ТРЕТІ	-0.8450981
-3.699693	ТРЕТІЙ	-0.4771213
-3.875784	ТРЕТЬОГО	-0.30103
-3.176815	ТРИ	-0.6020599
-3.875784	ТРИБУН	-0.30103
-3.875784	ТРИБУНАХ	-0.30103
-3.574754	ТРИБУНИ	-0.30103
-3.875784	ТРИБУНУ	-0.30103
-3.875784	ТРИВОЖНИЙ	-0.30103
-3.875784	ТРИДЕННОГО	-0.30103
-3.875784	ТРИДЦЯТЬ	-0.30103
-3.699693	ТРИМАЄ	-0.30103
-3.875784	ТРИМАВСЯ	-0.30103
-3.875784	ТРИМАЛИ	-0.30103
-3.176815	ТРИМАЮТЬ	-0.7403627
-3.875784	ТРИЧІ	-0.30103
-3.875784	ТРОЛІ	-0.30103
-3.176815	ТРОХИ	-0.6020598
-3.875784	ТРУБИ	-0.30103
-3.875784	ТУНЕЛЬ	-0.30103
-3.875784	ТУРИСТІВ	-0.30103
-3.875784	ТУРКОЧУТЬ	-0.30103
-3.875784	ТУСУЄМОСЬ	-0.30103
-3.875784	ТУСУЄТЬСЯ	-0.30103
-2.645336	ТУТ	-0.3864605
-3.875784	ТЬМАРИТЬСЯ	-0.30103
-3.875784	ТЬОТКИ	-0.30103
-3.875784	ТЬОТОК	-0.30103
-3.875784	ТЯГАЄТЬСЯ	-0.30103
-3.699693	ТЯГНЕ	-0.30103
-3.699693	ТЯГНЕТЬСЯ	-0.30103
-3.699693	ТЯГНУТЬ	-0.30103
-3.875784	ТЯГНУТЬСЯ	-0.30103
-3.875784	ТЯГУЧЕ	-0.30103
-3.097633	ТЯЖКОЮ	-1.079181
-3.699693	ТЯМИ	-0.30103
-2.172493	У	-0.4890203
-3.875784	УБІК	-0.30103
-3.875784	УБЛЮДКІВ	-0.30103
-3.875784	УВІЙШОВ	-0.30103
-3.875784	УВАЖНО	-0.30103
-3.875784	УВАЗІ	-0.30103
-3.574754	УЖЕ	-0.30103
-3.273725	УКРАЇНI	-0.9030899
-3.273725	УКРАЇНИ	-0.9030899
-3.222572	УКРАЇНСЬКА	-0.9542425
-2.632746	УКРАЇНСЬКОЇ	-1.091081
-3.097633	УКРАЇНЦЯМИ	-1.079181
-3.875784	УЛЬТРАСІВ	-0.30103
-3.875784	УЛЬТРАСИ	-0.30103
-3.875784	УМОВАХ	-0.30103
-3.222572	УМОВНІ	-0.9542425
-3.875784	УМОВНО	-0.30103
-3.875784	УНІВЕРСАМ	-0.30103
-3.574754	УНІФОРМІ	-0.30103
-3.875784	УНИЗ	-0.30103
-3.875784	УРИЄМО	-0.30103
-3.398663	УРОЧИСТА	-0.7781513
-3.875784	УСІ	-0.30103
-3.875784	УСІЄЇ	-0.30103
-3.699693	УСІМ	-0.30103
-3.875784	УСІХ	-0.30103
-3.875784	УСПІХ	-0.30103
-3.875784	УСПІШНО	-0.3010301
-3.273725	УТВОРЮВАЛО	-0.9030899
-3.135422	УХВАЛЕНО	-1.041393
-3.875784	УХОПИВ	-0.30103
-3.030686	УЧАСТЮ	-0.8750613
-3.097633	УЧНЯМ	-1.079181
-3.875784	УЯВИВ	-0.30103
-3.875784	УЯВЛЯЄШ	-0.30103
-3.699693	УЯВЛЯЮ	-0.30103
-3.875784	ФІЗИКИ	-0.30103
-3.875784	ФІЗКУЛЬТУРНИЙ	-0.30103
-3.273725	ФІКСУВАТИ	-0.90309
-3.875784	ФІНАНСОВОГО	-0.30103
-3.875784	ФІШКАМИ	-0.30103
-3.875784	ФАКС	-0.30103
-3.875784	ФАКСУ	-0.30103
-3.875784	ФАКТИЧНО	-0.30103
-3.875784	ФАЛЬШИВУ	-0.30103
-3.875784	ФАНАТИ	-0.30103
-3.875784	ФАНТАСТИЧНІ	-0.30103
-3.699693	ФАНТАСТИЧНЕ	-0.30103
-3.875784	ФАРБУ	-0.30103
-3.875784	ФАШИСТСЬКІ	-0.30103
-3.875784	ФЕД	-0.30103
-3.875784	ФЕЙСАХ	-0.30103
-3.875784	ФОКУСУЄ	-0.30103
-3.875784	ФОНДУ	-0.30103
-3.875784	ФОРВАРД	-0.30103
-3.574754	ФОРЕЛІ	-0.30103
-3.875784	ФОТО	-0.30103
-3.699693	ФОТОАПАРАТ	-0.30103
-3.875784	ФОТОГРАФУВАТИ	-0.30103
-3.875784	ФОТОГРАФУТИ	-0.30103
-3.875784	ФУТБОЛ	-0.30103
-3.875784	ФУТБОЛКАХ	-0.30103
-3.875784	ФУТБОЛУ	-0.30103
-3.875784	ФУТБОЛЬНИЙ	-0.30103
-3.875784	ФУТЛЯРІ	-0.30103
-3.574754	ХІБА	-0.6020598
-3.875784	ХАВКУ	-0.30103
-3.574754	ХАЙ	-0.30103
-3.699693	ХАЛАТІ	-0.4771212
-3.875784	ХАНА	-0.30103
-3.875784	ХАПАЛИСЬ	-0.30103
-3.875784	ХАРКІВСЬКИХ	-0.30103
-3.875784	ХАРКІВСЬКОМУ	-0.30103
-3.875784	ХАРКОВА	-0.30103
-3.875784	ХАРЧУЮТЬСЯ	-0.30103
-3.875784	ХАЩАХ	-0.30103
-3.875784	ХВІСТ	-0.30103
-3.875784	ХВИЛЕЮ	-0.30103
-3.875784	ХВИЛИН	-0.30103
-3.875784	ХВИЛИНІ	-0.30103
-3.875784	ХВИЛЬКУ	-0.3010301
-3.875784	ХВИЛЮЄ	-0.30103
-3.875784	ХВИЛЯ	-0.30103
-3.875784	ХВОСТАМИ	-0.30103
-3.875784	ХИМЕРНИЙ	-0.30103
-3.875784	ХИТАЮТЬСЯ	-0.30103
-3.875784	ХЛІБ	-0.30103
-3.273725	ХЛОПЕЦЬ	-0.5228788
-3.875784	ХМАРАМИ	-0.30103
-3.875784	ХОДИВ	-0.30103
-3.875784	ХОДИМО	-0.30103
-3.875784	ХОДИТИ	-0.30103
-3.574754	ХОДИТЬ	-0.3010301
-3.875784	ХОЛОДНІ	-0.30103
-3.875784	ХОЛОДНЕ	-0.3010301
-3.273725	ХОЛОДНИЙ	-0.9030899
-3.875784	ХОРОБРІСТЬ	-0.30103
-3.097633	ХОРОШІ	-1.079181
-3.699693	ХОРОШИЙ	-0.30103
-3.097633	ХОРОШИМИ	-1.079181
-3.477844	ХОЧ	-0.4771213
-3.097633	ХОЧА	-0.3222193
-3.699693	ХОЧЕ	-0.3010299
-3.062871	ХОЧЕТЬСЯ	-1.113943
-3.699693	ХОЧЕШ	-0.30103
-3.699693	ХОЧУ	-0.30103
-3.477844	ХОЧУТЬ	-0.30103
-2.714417	ХТО	-0.5496719
-2.685453	ХТОСЬ	-0.6368219
-3.331717	ХУДОЖНЬОГО	-0.8450981
-3.699693	ХУЙ	-0.3010301
-3.875784	ХУЙНЯ	-0.30103
-3.875784	ХУЙОВА	-0.30103
-3.875784	ХУЛІ	-0.30103
-3.875784	ХУЯ	-0.30103
-3.875784	ХУЯЧИТЬ	-0.30103
-3.030686	ЦІ	-0.7269985
-3.875784	ЦІЄЇ	-0.30103
-3.875784	ЦІКАВІШЕ	-0.30103
-3.222572	ЦІКАВИМИ	-0.9542425
-3.875784	ЦІКАВИТЬСЯ	-0.30103
-3.176815	ЦІКАВО	-0.7403628
-3.699693	ЦІЛИЙ	-0.4771213
-3.875784	ЦІЛИХ	-0.30103
-3.875784	ЦІЛУ	-0.30103
-3.875784	ЦІНУ	-0.30103
-2.237295	ЦЕ	-0.5300571
-3.097633	ЦЕЙ	-0.4522977
-3.875784	ЦЕМЕНТНУ	-0.30103
-3.398663	ЦЕРЕМОНІЯ	-0.7781513
-3.097633	ЦЕРКВИ	-1.079181
-3.222572	ЦИКЛИ	-0.9542425
-3.875784	ЦИКЛОПІВ	-0.30103
-3.875784	ЦИМ	-0.30103
-3.222572	ЦЬОГО	-0.30103
-3.222572	ЦЬОГОРІЧ	-0.9542425
-3.062871	ЦЬОМУ	-0.4336555
-3.062871	ЦЮ	-1.113943
-3.699693	ЦЯ	-0.30103
-3.875784	ЦЯТОЧКИ	-0.30103
-3.875784	ЧІПАЄ	-0.30103
-3.875784	ЧІПЛЯЄТЬСЯ	-0.30103
-3.875784	ЧІТКО	-0.30103
-3.875784	ЧАЄМ	-0.30103
-2.714417	ЧАС	-0.613959
-3.699693	ЧАСОМ	-0.30103
-3.222572	ЧАСТИНОЮ	-0.9542425
-3.331717	ЧАСТИНУ	-0.845098
-3.222572	ЧАСУ	-0.3309932
-3.875784	ЧЕКАЄ	-0.30103
-3.875784	ЧЕКАЄМО	-0.30103
-3.273725	ЧЕКАННЯ	-0.9030899
-3.875784	ЧЕМПІОНАТ	-0.30103
-3.875784	ЧЕРВНЕВИМ	-0.30103
-3.875784	ЧЕРВНЕВОГО	-0.30103
-3.875784	ЧЕРВНЯ	-0.30103
-3.273725	ЧЕРВОНІ	-0.90309
-3.875784	ЧЕРВОНІЄ	-0.30103
-2.898061	ЧЕРЕЗ	-0.7403628
-3.875784	ЧЕСНІ	-0.30103
-3.875784	ЧЕСНО	-0.30103
-3.875784	ЧЕТВЕР	-0.30103
-2.921542	ЧИ	-0.4607309
-3.875784	ЧИЄСЬ	-0.30103
-3.699693	ЧИМ	-0.30103
-3.000723	ЧИМАЛО	-0.9030898
-3.875784	ЧИМНЕБУДЬ	-0.30103
-3.875784	ЧИСЛІ	-0.3010301
-3.875784	ЧИСТО	-0.30103
-3.875784	ЧИТАЄ	-0.30103
-3.135422	ЧОГО	-0.3245109
-3.176815	ЧОМУ	-0.3590218
-3.699693	ЧОМУСЬ	-0.30103
-3.875784	ЧОРНИМ	-0.30103
-3.176815	ЧОТИРИ	-0.7403625
-3.875784	ЧОТИРЬОХ	-0.30103
-3.875784	ЧП	-0.30103
-3.398663	ЧУЄШ	-0.3521826
-3.477844	ЧУВАК	-0.30103
-3.699693	ЧУВАКА	-0.30103
-3.875784	ЧУВАКОМ	-0.30103
-3.875784	ЧУДЕСНОМУ	-0.30103
-3.875784	ЧУЛИ	-0.30103
-3.875784	ЧУЛКАХ	-0.30103
-3.875784	ЧУПАЧУПСИ	-0.30103
-3.331717	ЧУТКИ	-0.845098
-3.273725	ШАНС	-0.6532126
-3.875784	ШАХТІ	-0.30103
-3.030686	ШВИДКО	-0.7269986
-3.875784	ШВОРОК	-0.30103
-3.222572	ШИРОКОМАСШТАБНОГО	-0.9542425
-3.875784	ШКІРЯНОМУ	-0.30103
-3.574754	ШКОДА	-0.30103
-3.331717	ШКОЛИ	-0.845098
-3.176815	ШЛЯХ	-0.9999999
-3.875784	ШМОНАЄТЬСЯ	-0.30103
-3.875784	ШОКОЛАДКИ	-0.30103
-3.875784	ШОЛОМІ	-0.30103
-3.875784	ШОСТУ	-0.30103
-3.875784	ШТАНДАРТИ	-0.30103
-3.875784	ШТАТІ	-0.30103
-3.398663	ШТУКА	-0.30103
-3.875784	ШУКАЧІ	-0.30103
-3.875784	ШУКАЮТЬ	-0.30103
-3.875784	ШУМ	-0.30103
-3.875784	ШУМЛЯТЬ	-0.30103
-3.875784	ЩАСЛИВІ	-0.30103
-2.761841	ЩЕ	-0.4086637
-3.875784	ЩЕДРО	-0.30103
-1.73277	ЩО	-0.6104236
-3.477844	ЩОБ	-0.30103
-3.398663	ЩОБИ	-0.30103
-3.273725	ЩОДЕННИК	-0.9030899
-3.273725	ЩОДЕННО	-0.90309
-2.972694	ЩОДО	-0.9294189
-3.875784	ЩОНАЙПІЗНІШЕ	-0.30103
-3.875784	ЩОНЕБУДЬ	-0.30103
-3.097633	ЩОРАЗУ	-1.079181
-2.486618	ЩОСЬ	-0.5824644
-3.875784	ЮНИЙ	-0.30103
-2.331717	Я	-0.442359
-3.875784	ЯДЕРНА	-0.30103
-3.398663	ЯЙЦЯ	-0.3521825
-2.325556	ЯК	-0.5129596
-2.428627	ЯКІ	-0.8129134
-3.875784	ЯКІЙСЬ	-0.30103
-3.574754	ЯКІСЬ	-0.30103
-2.898061	ЯКА	-0.8450981
-3.875784	ЯКАНЕБУДЬ	-0.30103
-3.477844	ЯКАСЬ	-0.30103
-3.574754	ЯКБИ	-0.30103
-3.000723	ЯКЕ	-0.9030898
-3.875784	ЯКЕСЬ	-0.30103
-3.135422	ЯКИЙ	-0.4771212
-3.398663	ЯКИЙСЬ	-0.3521825
-3.875784	ЯКИМ	-0.30103
-3.699693	ЯКИМИСЬ	-0.30103
-3.875784	ЯКИМНЕБУДЬ	-0.30103
-3.699693	ЯКИХ	-0.30103
-3.574754	ЯКИХОСЬ	-0.30103
-3.699693	ЯКОГО	-0.30103
-3.875784	ЯКОГОСЬ	-0.30103
-3.398663	ЯКОМУ	-0.30103
-3.574754	ЯКОСЬ	-0.30103
-3.875784	ЯКОЮ	-0.30103
-3.875784	ЯКОЮСЬ	-0.30103
-3.398663	ЯКРАЗ	-0.3521825
-3.398663	ЯКУ	-0.30103
-3.875784	ЯКУСЬ	-0.3010299
-2.834392	ЯКЩО	-0.3357921
-3.875784	ЯНГОЛ	-0.30103
-3.875784	ЯСНА	-0.30103
-3.699693	ЯЩИКІВ	-0.30103
-3.477844	ЯЩИКИ	-0.4771213

\2-grams:
-1.433075	<s> І	-0.5309962
-1.813406	<s> ІНОДІ	-0.9999999
-2.73438	<s> ІНШІ
-2.765161	<s> ІНША
-2.686592	<s> ЇХ
-1.506534	<s> А	-0.6196232
-2.355981	<s> АЛЕ
-2.752585	<s> БІЗНЕС
-1.989676	<s> БУДИТЬ	-0.845098
-2.716907	<s> БУЛО
-2.436559	<s> В
-2.363506	<s> ВІН
-2.73438	<s> ВАСЯ
-2.728477	<s> ВАХА
-1.918698	<s> ВЗАГАЛІ	-0.90309
-2.765161	<s> ВИХОДИЛО
-2.758827	<s> ВНОЧІ
-2.448467	<s> ВОВА
-1.688646	<s> ВОДНОЧАС	-1.113943
-1.618577	<s> ВОНА	-0.5789379
-2.368596	<s> ВОНИ
-2.758827	<s> ВРЕШТІ
-2.716907	<s> ВСІ
-2.765161	<s> ВЧЕРГОВЕ
-2.765161	<s> ГАРНА
-1.921432	<s> ГОЛОВНЕ	-0.3896934
-2.746432	<s> ДАЛІ
-2.746432	<s> ДЕ
-1.688913	<s> ДОСІ	-1.113943
-2.758827	<s> ЖІНКА
-1.861672	<s> ЖАХ	-0.9542426
-2.310013	<s> З
-1.510243	<s> ЗАВЖДИ	-0.9999995
-1.726677	<s> ЗАПРОШЕННЯ	-1.079181
-2.761982	<s> ЗБОКУ
-1.922805	<s> ЗДОРОВЯ	-0.90309
-1.986478	<s> ЗНАННЯ	-0.8450979
-1.922805	<s> КАЖУТЬ	-0.90309
-2.755695	<s> КГБ
-2.761982	<s> КЛЬОВО
-1.864871	<s> КНИГОЮ	-0.9542426
-2.708427	<s> КОЛИ
-1.989676	<s> ЛАБОРАТОРІЯ	-0.845098
-1.860082	<s> ЛИШЕ	-0.4770729
-1.858892	<s> ЛЮДЯМ	-0.9542426
-2.765161	<s> МІНТУРІ
-1.917337	<s> МАЙЖЕ	-0.9030901
-2.758827	<s> МАЛЕНЬКІ
-2.752585	<s> МАМА
-2.765161	<s> МОЇ
-2.765161	<s> МУМІТРОЛІ
-2.765161	<s> МУМІТРОЛЕВІ
-2.73438	<s> НІКОЛИ
-1.400551	<s> НА	-0.7875102
-2.765161	<s> НАВРЯДЧИ
-1.60564	<s> НЕ	-0.4735169
-2.761982	<s> НЕРІШУЧЕ
-1.989676	<s> НИНІ	-0.8450981
-2.267278	<s> НУ
-2.060487	<s> ОДИН	-0.7781513
-2.765161	<s> ОДНАК
-2.765161	<s> ОТОЖ
-2.686592	<s> ПІД
-1.864871	<s> ПІЗНАВАЛЬНИМИ	-0.9542425
-2.765161	<s> ПОВІТРЯ
-2.761982	<s> ПОВЕРНУВШИСЬ
-2.765161	<s> ПОГЛЯНЬ
-2.761982	<s> ПОГОДЬТЕСЬ
-2.765161	<s> ПОДРУГЕ
-2.761982	<s> ПОМІЖ
-2.722653	<s> ПОТІМ
-1.985947	<s> ПРИ	-0.845098
-1.768041	<s> ПРИСВЯТИВШИ	-1.041393
-2.765161	<s> ПРОДАВШИ
-2.746432	<s> ПРОТЯГОМ
-2.758827	<s> РАНІШЕ
-2.73438	<s> РАПТОМ
-2.765161	<s> РОЗВАЛЕНА
-1.726677	<s> РОЗПОДІЛ	-1.079181
-2.761982	<s> СІМНАДЦЯТА
-2.765161	<s> СІМНАДЦЯТОГО
-2.765161	<s> СВІТЛЯЧКИ
-1.863668	<s> СКІЛЬКИ	-0.9542425
-1.862869	<s> СКАЖІМО	-0.9542425
-1.864871	<s> СКРОМНІШЕ	-0.9542425
-2.133063	<s> СОБАКА
-2.728477	<s> СОБАКУ
-2.765161	<s> СОТНІ
-2.765161	<s> СПРОБУЙТЕ
-2.068109	<s> СЬОГОДНІ	-0.7781514
-2.580804	<s> ТАК
-2.752585	<s> ТАКІ
-2.702865	<s> ТО
-2.714062	<s> ТОДІ
-1.920975	<s> ТОЖ	-0.4020989
-2.655769	<s> ТОМУ
-1.921889	<s> ТРИ	-0.90309
-2.740364	<s> ТРИМАЮТЬ
-2.673482	<s> ТУТ
-1.726677	<s> ТЯЖКОЮ	-1.079181
-2.197223	<s> У
-1.864871	<s> УКРАЇНСЬКА	-0.9542426
-2.758827	<s> ХІБА
-1.922805	<s> ХОЛОДНИЙ	-0.90309
-1.86447	<s> ЦІКАВО	-0.9542425
-2.686592	<s> ЧАС
-1.985417	<s> ЧИМАЛО	-0.8450981
-2.454665	<s> ЧОМУ
-1.914629	<s> ЩЕ	-0.4529533
-1.72735	<s> ЩО	-0.3733304
-1.919152	<s> ЩОДО	-0.9030901
-1.640553	<s> Я	-0.4243687
-0.5739229	I ВИКРИЛИ	-0.69897
-0.5738795	I КОЖЕН	-0.69897
-0.5663815	I НЕ	-0.69897
-0.05795892	IНША СИТУАЦIЯ	-0.90309
-1.903587	Є АЛЕ
-1.035909	Є АРХІТЕКТУРНОКУЛЬТУРОЛОГІЧНЕ	-0.9542425
-1.937213	Є БІНОКЛЬ
-1.934919	Є БАБУСЯ
-0.8597218	Є БАГАТО	-1.113943
-1.938134	Є НЕПОВАГА
-1.035909	Є ОДНІЄЮ	-0.9542425
-1.936753	Є ПІСЛЯ
-1.938595	Є ПІСОЧНИЙ
-1.937673	Є ПОНАД
-1.938134	Є ПОРЯДОК
-1.157149	Є ПРО	-0.8450981
-0.8971187	Є ТІ	-1.079181
-1.034065	Є ТІЛЬКИ	-0.9542426
-1.035909	Є УМОВНІ	-0.9542426
-1.632518	Є ЩЕ
-0.2873727	ЄВРЕЄМ </s>
-0.5974025	ЄВРЕЇ АЛЕ
-0.6018866	ЄВРЕЇ ЖИДИ
-0.3009722	ЄВРЕЙ АНТИСЕМІТ
-0.3003946	ЄВРЕЙКА БО
-0.3009722	ЄВРЕЯМИ ТУСУЄТЬСЯ
-0.03774915	ЄПАРХІЇ МІЖ	-1.079181
-0.0377255	ЄПИСКОП МАВ	-1.079181
-2.732555	І ЇДЕ
-2.712903	І ЇМ
-2.732555	І БЄ
-2.722618	І БІЛЬШІСТЬ
-2.431525	І БАЧАТЬ
-2.732555	І БАЧИТЬ
-2.727558	І БЕРУТЬ
-2.732555	І БИЛИСЬ
-2.732555	І БЛИЗЬКИХ
-2.698726	І БОЛЯЧЕ
-1.695756	І БУДІВНИКАМ	-1.079181
-2.288167	І В
-2.220057	І ВІД
-2.722618	І ВІДРАЗУ
-2.732555	І ВІДЧАЙДУШНО
-2.053548	І ВІН
-1.695756	І ВІРНИХ	-1.079181
-2.732555	І ВІТЧИМ
-2.727558	І ВАГАВСЯ
-2.67608	І ВАХА
-2.732555	І ВЕЛИКА
-2.383967	І ВЖЕ
-2.727558	І ВИЛІТАЮТЬ
-2.732555	І ВИТЯГУЮТЬ
-2.732555	І ВИХОДЯТЬ
-2.717733	І ВЛАСНЕ
-2.732555	І ВОЗИТИ
-2.727558	І ВОЛОДІ
-2.722618	І ВОЛОДЕЮ
-2.727558	І ВОЛОДЮ
-1.781676	І ВОЛОДЯ
-2.158266	І ВОНИ
-2.732555	І ВПІЗНАЄ
-2.397696	І ВСІ
-2.486106	І ВСЕ
-2.033585	І ВСЮ	-0.7781513
-2.732555	І ВСЯКЕ
-1.826959	І ГОВОРИТИ	-0.2936042
-2.397696	І ГОВОРИТЬ
-2.689525	І ГОЛОВНЕ
-2.732555	І ДАВАЙ
-2.7034	І ДАЛІ
-2.680516	І ДЕСЬ
-2.722618	І ДЕЩО
-2.247137	І ДИВИТЬСЯ	-0.1861514
-2.732555	І ДИВЛЮСЬ
-2.708125	І ДЛЯ
-2.455841	І ДО
-1.890339	І ЖИВУТЬ	-0.9030901
-2.097143	І З
-2.708125	І ЗІ
-2.143776	І ЗА
-2.732555	І ЗАВАЛЮЄ
-2.727558	І ЗАВАЛЮЄТЬСЯ
-2.732555	І ЗАКОВТУЄ
-2.732555	І ЗАКРИЧАТИ
-2.732555	І ЗАЛІПЛЕНОМУ
-1.958612	І ЗАПРОПОНУВАВ	-0.845098
-2.732555	І ЗАСОХЛЕ
-2.732555	І ЗАСТАЄ
-2.732555	І ЗДАВАЛИСЯ
-2.732555	І ЗМУЧЕНИЙ
-2.732555	І ЗНАХОДЯТЬ
-2.732555	І ЗНИКАЄ
-1.891786	І ЗОРІ	-0.90309
-2.698726	І КАКАО
-2.732555	І КАПРОНОВИХ
-1.958612	І КАФЕДР	-0.845098
-2.727558	І КИДАЄ
-2.732555	І КЛАДУТЬ
-2.646237	І КОЛИ
-2.712903	І КОМАНДИ
-2.727558	І КРОВ
-2.717733	І КУПУЮТЬ
-2.732555	І ЛАДИЛИ
-2.722618	І ЛЕДЬ
-2.732555	І ЛЕТИТЬ
-2.732555	І ЛИШАЄТЬСЯ
-2.732555	І ЛОТЕРЕЙНІ
-2.732555	І ЛОТЕРЕЙНИМИ
-2.712903	І МАЄ
-2.650377	І МАЙЖЕ
-2.087465	І МИ
-2.431525	І МОКРІ
-2.712903	І НІ
-2.732555	І НІКОГО
-2.684997	І НІХТО
-1.88246	І НІЧОГО	-0.9030899
-2.101129	І НА
-2.732555	І НАБУХЛИМИ
-2.603129	І НАВІТЬ
-1.891786	І НАДІЯ	-0.9030899
-2.717733	І НАЗАД
-2.732555	І НАЛЕЖИТЬСЯ
-2.698726	І НАМ
-2.732555	І НАМОКЛИЙ
-2.732555	І НАПОЛЕГЛИВО
-2.518639	І НАС
-2.694101	І НАШІ
-1.107065	І НЕ	-0.3949595
-2.727558	І НЕРІШУЧЕ
-2.727558	І НОЧУЄ
-2.727558	І ОБВИСАЄ
-2.732555	І ОСУНУВСЯ
-2.386225	І ОСЬ
-1.956924	І ОТ	-0.845098
-2.732555	І ОТРИМАВШИ
-1.891786	І ПІВДЕННОЗАХІДНУ	-0.9030899
-2.732555	І ПІДБИРАЄ
-2.732555	І ПІШОВ
-2.722618	І ПЕРЕД
-2.732555	І ПЕРЕДАЙТЕ
-2.732555	І ПЕЧІНЦІ
-2.732555	І ПОБАЖАНЬ
-2.680516	І ПОГАНО
-2.732555	І ПОГОДОЮ
-2.732555	І ПОЖЕЖНИКИ
-2.727558	І ПОКАЗУЮТЬ
-2.732555	І ПОМІНЯТИ
-2.727558	І ПОРОЖНІЙ
-1.886023	І ПОТІМ	-0.90309
-2.407095	І ПОЧИНАЄ
-2.732555	І ПОЧИНАЛИ
-2.434045	І ПОЧИНАЮТЬ
-2.732555	І ПРИГОД
-2.727558	І ПРИПОВЗАЄ
-2.732555	І ПРИСЛУХАЄТЬСЯ
-2.732555	І ПРИСОРОМЛЕНИХ
-2.524825	І ПРО
-2.727558	І ПРОДАЄ
-2.732555	І ПРОТЯЖНО
-2.727558	І ПРЯМО
-2.732555	І ПЯНІ
-2.732555	І ПЯНИХ
-2.031579	І РАПТОМ
-2.732555	І РВАНІ
-2.732555	І РЕШТА
-2.732555	І РОБОТОДАВЦІВ
-1.891786	І РОЗСУД	-0.90309
-2.732555	І СЛІЗЬМИ
-2.407095	І СЛУХАВКУ
-2.732555	І СМАЧНО
-2.550491	І СОБАКА
-2.732555	І СОННО
-2.727558	І СПИТАТИСЬ
-2.727558	І СПЛАВЛЯЮТЬ
-2.732555	І СПОСТЕРІГАЄ
-2.732555	І СПРОБУВАВ
-2.732555	І СТАНЕШ
-2.434045	І СУСПІЛЬНОЇ
-1.765655	І ТІЛЬКИ	-1
-2.727558	І ТАЙМ
-1.973594	І ТАК
-1.859647	І ТЕ	-0.90309
-2.588457	І ТЕЖ
-2.727558	І ТЕМРЯВІ
-2.732555	І ТЕМРЯВА
-1.810413	І ТИ	-0.5072947
-2.395377	І ТОДІ
-2.689525	І ТОЙ
-1.936355	І ТУТ
-2.722618	І ХАЙ
-2.732555	І ХИТАЮТЬСЯ
-2.732555	І ХОДИВ
-2.727558	І ХОЧЕ
-2.732555	І ЦІКАВІШЕ
-2.727558	І ЦЯ
-2.732555	І ЧИТАЄ
-2.717733	І ЧУВАК
-2.732555	І ЧУПАЧУПСИ
-2.722618	І ШКОДА
-2.732555	І ШУКАЮТЬ
-2.732555	І ЩЕДРО
-2.018987	І ЩО
-2.717733	І ЩОБ
-2.543931	І ЩОСЬ
-2.732555	І ЯДЕРНА
-2.47764	І ЯК
-0.3009722	ІВАНЕНКО ХИМЕРНИЙ
-0.3009722	ІГНОРУВАТИ ЗДОРОВЕ
-0.300106	ІГНОРУЮТЬ НАВІТЬ
-0.04572538	ІДЕЇ ВИДАТИ	-1
-0.03680167	ІДЕЙ І	-1.079181
-0.2908599	ІДЕЙНО НЕ
-0.3009722	ІДУТЬ РАНКОВОЮ
-1.824747	ІЗ ІСНУЮЧИМ
-1.819477	ІЗ ЇЇ
-1.824085	ІЗ АМЕРИКОСІВ
-1.823424	ІЗ ВОЛОДЕЮ
-1.824747	ІЗ ВОРОТАРЕМ
-1.824747	ІЗ ДОНБАСЬКИМ
-1.824747	ІЗ ЖИВИМИ
-1.782467	ІЗ ЙОГО
-1.824747	ІЗ КІМНАТ
-1.823424	ІЗ КАРБЮРАТОРА
-1.524049	ІЗ КОМПАНІЇ
-1.824747	ІЗ КОРДОНУ
-1.824747	ІЗ МОЧАРІВ
-1.524049	ІЗ НАЛОЖНИКАМИ
-1.824747	ІЗ НЕНАВИСТЮ
-1.520745	ІЗ НИМИ
-0.9210777	ІЗ НИХ	-0.4903053
-0.9792706	ІЗ ПАМЯТІ	-0.9030901
-1.824747	ІЗ ПОРВАНИМ
-1.047149	ІЗ ПРИРОДОЮ	-0.8450981
-1.824747	ІЗ РЕШТКАМИ
-1.823424	ІЗ СОБОЮ
-1.824747	ІЗ ЯКОЮСЬ
-0.3003657	ІМЯ ОСЬ
-0.05085996	ІНІЦІАТИВІ ТА	-0.9542426
-0.8949577	ІНАКШЕ ВОНИ
-0.9028588	ІНАКШЕ ДЕНЕБУДЬ
-0.9022814	ІНАКШЕ ДЛЯ
-0.863765	ІНАКШЕ НЕ
-0.3009722	ІНДУСТРІЇ ПРОСТІШЕ
-0.8997499	ІНКОЛИ ЇХ
-0.8949577	ІНКОЛИ ВОНИ
-0.9028588	ІНКОЛИ ЗАВИСАЄ
-0.8950711	ІНКОЛИ Я
-1.07895	ІНОДІ ЗУПИНЯЄТЬСЯ
-0.1248231	ІНОДІ ЛЮДИ	-1
-0.07914656	ІНСТИТУТІ ВІДБУЛАСЯ	-0.7781513
-0.06513919	ІНСТИТУТІВ І	-0.845098
-0.06690826	ІНСТИТУТСЬКИЙ СТАТУС	-0.8450981
-0.06691307	ІНСТИТУТУ ГЕОДЕЗІЇ	-0.8450981
-0.3009144	ІНТЕЛІГЕНТ СЕБТО
-0.3009722	ІНТЕЛІГЕНТА ПРОКИНУВШИСЬ
-0.3006833	ІНТЕЛІГЕНТОМ ХОЧА
-0.3009433	ІНТЕРЕС РВАТИ
-0.2661189	ІНШІ </s>
-1.17586	ІНШІ ПУБЛІКА
-1.175167	ІНШІ РЕЧІ
-1.17586	ІНШІ ТЕРМОЯДЕРНІ
-0.3009433	ІНШІЙ ТРИМАЄ
-0.3008855	ІНША РІЧ
-0.3006833	ІНШЕ ОДНЕ
-0.03470912	ІНШИЙ БО	-1.113943
-1.203889	ІНШИМ БОКОМ
-0.2493511	ІНШИМ ТІЛЬКИ	-1
-1.19872	ІНШИМ ТИ
-1.195988	ІНШИМ ЯК
-0.1760238	ІНШИХ ІНСТИТУТІВ	-0.8450981
-0.9538958	ІНШИХ ДРУЗІВ
-0.3978244	ІНШОГО БОКУ
-0.6985655	ІНШОГО НЕМАЄ
-0.3008855	ІНШОМУ СТАНІ
-0.05112001	ІСНУЄ ДЕКІЛЬКА	-0.9542426
-0.3005389	ІСНУВАННЯ ВЗАГАЛІ
-0.3009722	ІСНУЮЧИМ НЕСПРАВЕДЛИВИМ
-0.03390544	ІСТОРІЄЮ НЕ	-1.113943
-0.2975752	ІСТОРІЇ З
-0.2988963	ІСТОРИКІВ ТАК
-0.3009722	ІСТОРИЧНОГО СПІВПРАЦЮВАЛИ
-0.2902955	ІСТОРИЧНОМУ І
-0.2965441	ІСТОТА В
-0.3009722	ІЩЕ ЖІНКИ
-1.229756	ЇЇ ВЕТЕРАНСЬКИМ
-1.229525	ЇЇ ДЕЩО
-1.229987	ЇЇ ДУМКУ
-1.229987	ЇЇ ЗАКОННОГО
-1.229294	ЇЇ ЗНАЄ
-1.225849	ЇЇ ЛЮБИТЬ
-1.186293	ЇЇ НА
-0.9288412	ЇЇ НАЗАД	-0.4771212
-0.3009433	ЇЇАКВАТОРІЮ ТИМ
-0.2987525	ЇДЕ ДО
-1.019413	ЇДУТЬ В
-0.7260756	ЇДУТЬ НА	-0.4771213
-1.039518	ЇДУТЬ СОБІ
-1.027036	ЇДУТЬ У
-1.037651	ЇДУТЬ ЩЕ
-0.6019444	ЇЙ ДАЮТЬ
-0.6018288	ЇЙ ПОЇСТИ
-0.9487993	ЇМ І
-0.999711	ЇМ ВІДВЕЛИ
-0.9974063	ЇМ ГОВОРИТЬ
-0.999278	ЇМ КГБ
-0.9982691	ЇМ ОДНЕ
-0.2990401	ЇСТЬ ЙОГО
-0.6465058	ЇХ </s>
-1.671001	ЇХ БИТИ
-1.593905	ЇХ В
-1.632746	ЇХ ВІН
-1.671001	ЇХ ДОЧЕКАТИСЬ
-1.671001	ЇХ ЗГОРИ
-1.664476	ЇХ КІЛЬКА
-1.669361	ЇХ КРІЗЬ
-1.671001	ЇХ НАБИВАЄТЬСЯ
-1.510675	ЇХ НЕ
-1.671001	ЇХ ПРОБУХУЄМО
-1.655398	ЇХ ПРОСТО
-1.670453	ЇХ СЛУХАЄ
-1.669361	ЇХ СПОЧАТКУ
-1.652764	ЇХ ТЕЖ
-1.671001	ЇХ ТРИМАЛИ
-1.653816	ЇХ ТУТ
-1.626768	ЇХ ЦЕ
-1.656456	ЇХ ЧАС
-0.2986662	ЇХАТИ ЗА
-0.3009722	ЇХНІ СКРОМНІ
-0.3009722	ЇХНІМИ СПИНАМИ
-0.6018288	ЇХНЯ КОМПАНІЯ
-0.6019444	ЇХНЯ ПРАЦЮВАЛА
-1.883169	А ІНШИМ
-1.263789	А В
-1.873092	А ВІД
-1.842954	А ВІН
-1.875757	А ВЖЕ
-1.890709	А ВРАХОВУЮЧИ
-1.111637	А ГОВОРИТИ	-0.845098
-1.88658	А ДАЛІ
-1.815935	А З
-1.107403	А Й	-0.845098
-1.696568	А НЕ
-1.885896	А ОТ
-1.58555	А ПОТІМ
-1.046204	А СОНЕЧКО	-0.90309
-1.875757	А ТАМ
-1.575061	А ТИ	-0.4771212
-1.876425	А ТО
-1.864545	А ТОМУ
-1.869126	А ТУТ
-1.020285	А ЩО	-0.90309
-1.887952	А ЩОБИ
-1.846063	А Я
-1.277892	А ЯК	-0.69897
-1.877095	А ЯКЩО
-0.9028588	АБИ ІГНОРУВАТИ
-0.8894327	АБИ З
-0.9017048	АБИ ЙОМУ
-0.9028588	АБИ СІСТИ
-1.338624	АБО ІНШІ
-1.341787	АБО БЕЗРОБІТНІ
-1.340836	АБО ВІДВЕРНУТИСЬ
-1.305852	АБО З
-1.341787	АБО ЗАЙМАЮТЬСЯ
-1.341787	АБО ЗАЙМИСЬ
-1.34147	АБО КРОВ
-1.241834	АБО НЕ
-1.341787	АБО ПОДУМАЮТЬ
-1.34147	АБО ПОХМЕЛИТИСЬ
-1.34147	АБО ТЕРПІТИ
-0.2996736	АВТОМАТИЧНО СОБАКА
-0.2902955	АВТОМОБІЛІВ І
-0.3009722	АВТОСТОЯНКИ КІНЦЕВУ
-0.3009144	АГІТАЦІЙНУ РОБОТУ
-0.300741	АГА ГОВОРЯТЬ
-0.2902955	АГРЕСИВНА І
-0.2989826	АДЖЕ ЯК
-0.3009722	АДМІНІСТРАТИВНОГО ПІДПОРЯДКУВАННЯ
-0.6010206	АЖ ВСІ
-0.6013668	АЖ РАПТОМ
-0.3006833	АКЦІЯМИ АБО
-1.707753	АЛЕ </s>
-2.010601	АЛЕ ВІН
-2.084701	АЛЕ ВАСЯ
-2.082144	АЛЕ ВАХА
-2.097719	АЛЕ ВИЖИЛИ
-1.185638	АЛЕ ВОНИ	-0.5138602
-2.097719	АЛЕ ВПЕРТО
-2.077074	АЛЕ ВСІ
-2.018237	АЛЕ ВСЕ
-2.097719	АЛЕ ВСЕРЕДИНІ
-2.006297	АЛЕ ДО
-2.087274	АЛЕ ДОБРЕ
-1.964479	АЛЕ З
-2.003097	АЛЕ ЗА
-1.09891	АЛЕ ЗАБУДЬ	-1.041393
-1.05753	АЛЕ ЗГОДОМ	-1.079181
-2.097719	АЛЕ ЗМІСТ
-2.030514	АЛЕ Й
-2.088566	АЛЕ КАКАО
-2.092465	АЛЕ КОГО
-2.080871	АЛЕ МЕНЕ
-2.045486	АЛЕ МИ
-2.091161	АЛЕ МОРЯК
-2.073309	АЛЕ НІЧОГО
-1.892097	АЛЕ НА
-2.05978	АЛЕ НАВІТЬ
-2.097719	АЛЕ ОБІЦЯВСЯ
-2.097719	АЛЕ ОСТАННІМ
-1.784313	АЛЕ ОСЬ
-2.0964	АЛЕ ПОРИГАТИ
-2.0964	АЛЕ ПОРЯДОК
-2.093773	АЛЕ ПРАЦЮВАТИ
-2.097719	АЛЕ ПРОСЛІДКУВАТИ
-2.097719	АЛЕ СПРОБУВАТИ
-2.011683	АЛЕ ТАК
-2.097719	АЛЕ ТАНКІВ
-1.191338	АЛЕ ТЕЖ	-0.9542425
-2.097719	АЛЕ ТЕРПІЛИ
-2.041985	АЛЕ ТИ
-2.060993	АЛЕ ТОБІ
-1.983359	АЛЕ У
-2.095084	АЛЕ ХАЙ
-1.997815	АЛЕ ЦЕ
-2.016041	АЛЕ Я
-2.095084	АЛЕ ЯКІСЬ
-2.095084	АЛЕ ЯКБИ
-0.3009722	АЛКОГОЛЬНІЙ ПРОСТРАЦІЇ
-0.3009722	АЛКОГОЛЬНОГО ЗАПОЮ
-0.3009433	АЛКОГОЛЮ СКИДАЮТЬСЯ
-0.7765932	АЛЛО КАЖЕ
-0.7778912	АЛЛО НЕРВУЮТЬ
-0.7740947	АЛЛО ТИ
-0.300741	АМБРАЗУРИ СВІТУ
-0.2873727	АМБРАЗУРУ </s>
-0.05112001	АМЕРИКАНСЬКОЇ ЗІРКИ	-0.9542425
-0.6019444	АМЕРИКОСІВ ПОЛИВАЛИ
-0.6019444	АМЕРИКОСІВ СОЛІДНИЙ
-0.06691307	АНАЛОГІЧНИХ ЗАКИДІВ	-0.845098
-0.3009722	АНТИКВАРНУ ПОРЦЕЛЯНУ
-0.2996736	АНТИСЕМІТ СОБАКА
-0.3005389	АНТИСЕМІТИЗМ МЕНІ
-0.3009722	АПАРАТ ФЕД
-0.3009722	АПТЕЧНИХ КІОСКАХ
-0.09687389	АРТИСТIВ ВСЕТАКИ	-0.6989698
-0.05112001	АРХІТЕКТУРНОКУЛЬТУРНОЇ СПАДЩИНИ	-0.9542425
-0.05105498	АРХІТЕКТУРНОКУЛЬТУРОЛОГІЧНЕ ДОСЛІДЖЕННЯ	-0.9542425
-0.3009722	АТРАКЦІОНІВ НАВРЯД
-0.3009722	АТРАКЦІОНИ ГРОШЕЙ
-0.8385971	Б І
-1.170263	Б ЇХ
-1.175687	Б МОРЯКУ
-1.175687	Б ОСЕЛИТИСЯ
-1.172063	Б ТЕБЕ
-1.168868	Б ТЕЖ
-1.172264	Б ТОДІ
-0.3001349	БЄ ПРОСТО
-0.7467126	БЄЛГОРОДА І
-0.7720377	БЄЛГОРОДА ВОНИ
-0.7778912	БЄЛГОРОДА КАЙЗЕРИ
-0.7769389	БЄТЬСЯ БЕЗ
-0.7778912	БЄТЬСЯ ГОЛОВОЮ
-0.7778912	БЄТЬСЯ ОБ
-0.2952586	БІБЛІОТЕЦІ НА
-0.3009722	БІДКАЄТЬСЯ СТАРЕНЬКА
-0.9984131	БІЗНЕС БІЛЯ
-0.9989895	БІЗНЕС ЗАГАЛОМ
-0.999711	БІЗНЕС СЕРЕДНЬОЇ
-0.9995666	БІЗНЕС СИДЯТЬ
-0.9929754	БІЗНЕС ЩОСЬ
-0.3009433	БІЙКОЮ НІЖ
-0.300741	БІЙСЯ ГОВОРЯТЬ
-0.6018866	БІК ПРОХОДУ
-0.6017711	БІК ЩОБ
-0.3009722	БІЛЕ КІОСКИ
-0.05601441	БІЛОЛИЦИЙ </s>
-0.6988544	БІЛОМУ ОДЯЗІ
-0.3978533	БІЛОМУ ХАЛАТІ	-0.4771213
-0.7779779	БІЛЬШІСТЬ ВІДМІННИКІВ
-0.7779779	БІЛЬШІСТЬ ГАСТРОНОМІВ
-0.7779779	БІЛЬШІСТЬ МОЇХ
-1.379807	БІЛЬШЕ ГІВНА
-1.379807	БІЛЬШЕ ДЕСЯТКА
-1.313566	БІЛЬШЕ НЕ
-1.379807	БІЛЬШЕ ПЕРЕЙМАЮТЬСЯ
-0.3385979	БІЛЬШЕ ПОДОБАВСЯ	-1.079181
-1.378596	БІЛЬШЕ ТОГО
-1.375783	БІЛЬШЕ ЯКЩО
-0.3009722	БІЛЬШМЕНШ ВИПАДКОВА
-0.03773864	БІЛЬШОЇ ГРУПИ	-1.079181
-1.113683	БІЛЯ КІЛЬЦЕВОЇ
-0.2107558	БІЛЯ СИХІВСЬКОГО	-0.9542426
-1.113683	БІЛЯ СТАДІОНУ
-0.298695	БІНОКЛЕМ АЛЕ
-0.8508629	БІНОКЛЬ </s>
-0.8616579	БІНОКЛЬ І
-0.9014744	БІНОКЛЬ БЕЗ
-0.9017048	БІНОКЛЬ ХОЧА
-0.2975752	БАБКАМИ З
-0.7775447	БАБКИ ДВА
-0.7777179	БАБКИ КУПУЮТЬ
-0.7754714	БАБКИ ТОБІ
-0.2902955	БАБОК І
-0.5951777	БАБУСІ З
-0.6019444	БАБУСІ ПОЇХАЛИ
-0.30051	БАБУСЮ КАЖЕ
-1.247793	БАБУСЯ ЇХ
-1.236187	БАБУСЯ ВІН
-1.250615	БАБУСЯ ГОВОРИТЬ
-1.249844	БАБУСЯ КОЛИ
-1.171324	БАБУСЯ НЕ
-1.248561	БАБУСЯ НУ
-1.253455	БАБУСЯ ОЧЕВИДНО
-1.23321	БАБУСЯ ЦЕ
-1.254493	БАБУСЯ ЦЯ
-1.269488	БАГАТО АЛЕ
-0.1994471	БАГАТО ДУМОК	-1.113943
-1.278176	БАГАТО РЕЧЕЙ
-1.268809	БАГАТО ЦЕ
-0.3008566	БАГАТОФУНКЦІОНАЛЬНА ШТУКА
-0.3008277	БАГАТТЯ ОДНОГО
-0.2994431	БАЙКИ ПРО
-0.3009144	БАЛКОЮ КОТРА
-0.2902955	БАНКНОТИ І
-0.30051	БАНКУ ЧИ
-0.2952586	БАРАХОЛЦІ НА
-0.3009722	БАТЬКІВСЬКІЙ ВОЛІ
-0.3009433	БАТЬКІВЩИНУ НАШУ
-0.04136089	БАТЬКА РОМАНА	-1.041393
-0.3003368	БАТЬКАМ ТІ
-0.2988675	БАТЬКАМИ ВІН
-0.7734079	БАТЬКИ А
-0.7648302	БАТЬКИ В
-0.7706719	БАТЬКИ ЦЕ
-0.3008855	БАЧ ЯКАСЬ
-0.7648302	БАЧАТЬ В
-0.7722088	БАЧАТЬ ЙОГО
-0.7760751	БАЧАТЬ ТАМ
-0.2902955	БАЧИВ І
-0.3002791	БАЧИМО НУ
-0.3004234	БАЧИТИ КОЛИ
-0.3009722	БАЧИТЬ СЛІДИ
-0.6019444	БАЧИШ СВІТЛО
-0.5989494	БАЧИШ ТЕ
-0.2930679	БАЧУ ЩО
-0.2902955	БАШКУ І
-1.321757	БЕЗ ВАРІАНТІВ
-1.321757	БЕЗ ДУРАКІВ
-1.321757	БЕЗ ЖОДНИХ
-1.321757	БЕЗ ЖОДНОЇ
-0.5437983	БЕЗ ЗАСТОСУВАННЯ	-0.845098
-1.321757	БЕЗ ПРОПИСКИ
-1.321757	БЕЗ СИЛ
-1.321757	БЕЗ ШВОРОК
-0.3009722	БЕЗКІНЕЧНИЙ МУР
-0.3009722	БЕЗКОШТОВНІ АТРАКЦІОНИ
-0.300741	БЕЗНАДІЮ ВСЮ
-0.3009722	БЕЗПАНТОВО КИНУВ
-0.2952586	БЕЗПРОГРАШНИМИ НА
-0.3006833	БЕЗРОБІТНІ АБО
-0.3006255	БЕЗРОБІТНОГО СОБАКУ
-0.3009722	БЕЗТУРБОТНА СТАРІСТЬ
-0.3009722	БЕЗТУРБОТНО ПРОСИРАВ
-0.3009722	БЕЗЦІНЬ СКУПИТИ
-0.6019444	БЕРЕ АВТОМАТИЧНО
-0.5962601	БЕРЕ У
-0.3009722	БЕРЕШ ОПТОМ
-0.2908599	БЕРИ НЕ
-0.5951777	БЕРУТЬ З
-0.6006747	БЕРУТЬ ТАМ
-0.3009144	БЕСІДА ЗНАЄТЕ
-0.3009722	БЕТОННІ ПЛИТИ
-0.9449769	БИ АЛЕ
-0.9538958	БИ КУПИВ
-0.9532032	БИ САМЕ
-0.648212	БИ ЦЕ
-0.3005967	БИЛИСЬ МІЖ
-0.3009433	БИТИ ЗНИЗУ
-0.3009722	БИТИСЬ ТРАВА
-0.3009722	БЛІДИЙ НІЯК
-0.2902955	БЛАГОПОЛУЧЧЯ І
-0.3009722	БЛИЖНІХ СЕКТОРАХ
-0.3008277	БЛИЗЬКИХ ОЧЕВИДНО
-0.6004443	БЛИЗЬКО ВІД
-0.6019444	БЛИЗЬКО ПЯТОЇ
-0.3009722	БЛУКАВ КУХНЕЮ
-0.3009722	БЛУКАЮ КОРИДОРАМИ
-0.6013091	БЛЯ ДУМАЄ
-0.5862792	БЛЯ ЩО
-0.3009722	БЛЯДЬ НАЛОМ
-1.07247	БО В
-0.5349274	БО ЗАВТРА	-0.90309
-0.3009361	БО РОДИННОЮ	-1.113943
-0.2902955	БОЇТЬСЯ І
-0.30051	БОГОБОЯЗЛИВИЙ ЧИ
-0.3006255	БОДАЙ КІЛЬКА
-0.3008566	БОКИ НІ
-0.3009722	БОКОМ СВІТЛА
-0.7765068	БОКУ МАЮТЬ
-0.7717813	БОКУ ТАК
-0.7746105	БОКУ ТОМУ
-0.3008566	БОЛОТО КОМАНДИ
-0.9998844	БОЛЯЧЕ БЮТЬ
-0.1548029	БОЛЯЧЕ ТРЕБА	-0.90309
-0.3009433	БОРОТЬБА ПРЯМО
-0.3009722	БРАКУВАЛО АГА
-0.03456464	БРАЛАСЯ ЗА	-1.113943
-0.06656638	БРАТА ДО	-0.845098
-0.3007988	БРЕЛИ ДАЛІ
-0.7713543	БУВ ДО
-0.7779779	БУВ ЗАЛІЗНИЙ
-0.7777179	БУВ ТРІШКИ
-0.3007122	БУВА ЧОГО
-0.7467126	БУВАЄ І
-0.7779779	БУВАЄ ЗАКРИТТЯ
-0.7694802	БУВАЄ У
-0.03775703	БУДІВНИКАМ СПОРТИВНОГО	-1.079181
-1.078835	БУДЕ ВИБАЧАТИСЬ
-1.078315	БУДЕ НОРМАЛЬНО
-1.078835	БУДЕ ПОВЕРТАТИСЬ
-1.078661	БУДЕ ТІЄЮ
-1.066533	БУДЕ ТАК
-1.077969	БУДЕ ТАКА
-0.3007122	БУДЕМО ЯКИЙ
-0.2965441	БУДИНОЧКА В
-0.3009722	БУДИНОЧОК СЛІД
-0.06690826	БУДИТЬ МІЙ	-0.8450979
-0.300741	БУДУТЬ ДРУЗІ
-0.2930679	БУДЬ ЩО
-0.300106	БУДЬЩО НАВІТЬ
-0.06687935	БУЛА ПРИ	-0.845098
-1.145435	БУЛИ ДВІ
-0.1046723	БУЛИ ПОПУЛЯРНИМИ	-1.079181
-1.292562	БУЛО </s>
-1.078272	БУЛО Б
-1.377589	БУЛО ДЕСЬ
-1.379807	БУЛО ЗАМАНИТИ
-1.379807	БУЛО ЗРОЗУМІЛО
-1.379807	БУЛО ПИШАТИСЬ
-0.3799887	БУЛО УХВАЛЕНО	-1.041393
-1.203291	БУТИ </s>
-1.543721	БУТИ ЗБУДЛИВІШЕ
-1.543721	БУТИ КАГЕБІСТИ
-0.6987718	БУТИ НІЧИМ	-0.90309
-0.5024862	БУТИ ТИМЧАСОВИМ	-1.079181
-0.6987223	БУТИ ТРОХИ	-0.90309
-0.3009722	БЮТЬ ЗСЕРЕДИНИ
-0.6003867	БЮТЬСЯ МОЖЕ
-0.6018866	БЮТЬСЯ ПАЦАНИ
-1.692268	В ІНСТИТУТІ	-0.7781513
-2.389108	В ІНШІЙ
-2.389108	В ІНШОМУ
-2.389108	В ІСТОРИКІВ
-2.389108	В ЇЇАКВАТОРІЮ
-2.389108	В АПТЕЧНИХ
-2.389108	В БІБЛІОТЕЦІ
-2.089408	В БІК
-2.389108	В БІЛЕ
-1.913761	В БІЛОМУ	-0.1346723
-2.381215	В БІНОКЛЬ
-2.386461	В БАБУСІ
-2.389108	В БАНКУ
-2.389108	В БЛИЖНІХ
-2.386461	В ГІВНО
-2.386461	В ГАЗЕТУ
-2.386461	В ГАСТРОНОМ
-2.389108	В ГРУБИЙ
-1.913761	В ДОЛІ
-2.389108	В ДОЛЮ
-2.389108	В ДОРОЗІ
-2.389108	В ДУШ
-2.365845	В ДУШІ
-2.389108	В ЗАДНИЦІ
-1.859526	В ЙОГО
-2.386461	В КІЛЬКОХ
-2.389108	В КІМНАТІ
-2.370908	В КАКАО
-2.378615	В КОГО
-2.088078	В КОГОСЬ
-2.389108	В КОМПАНІЯХ
-2.389108	В КУЛАК
-2.389108	В ЛІЖКО
-2.389108	В ЛОТЕРЕЮ
-2.088078	В МІСТІ
-2.378615	В МАЮ
-2.389108	В МЕЖАХ
-2.073714	В МЕНЕ	-0.4771214
-2.389108	В МЕТРО
-2.389108	В МЕТРОПОЛІТЕНІ
-2.38383	В МОКРИХ
-2.389108	В НІКУДИ
-2.022865	В НАС
-2.389108	В НАШІЙ
-2.088078	В НАШОМУ
-1.787048	В НЕЇ
-2.389108	В НЕТРІ
-2.063559	В НИХ
-1.609191	В НЬОГО	-0.1326272
-2.38383	В НЬОМУ
-2.089408	В ОДНІЙ
-2.376031	В ОДНОГО
-2.086753	В ОДНОМУ	-0.4771214
-2.389108	В ОСТАННІ
-2.389108	В ПІДЗЕМКУ
-2.389108	В ПОВІТРІ
-2.086753	В ПОСВІДЧЕННЯ
-1.692268	В ПРИНЦИПІ
-2.389108	В ПРОХОЛОДНОМУ
-2.088078	В РАЗІ
-2.088078	В РЕКЛАМНИЙ
-2.089408	В РОСІЇ
-2.088078	В РОСІЮ	-0.4771213
-2.365845	В СВІЙ
-2.077585	В СВІТ
-2.351001	В СВОЇХ
-2.381215	В СЕКТОР
-2.389108	В СЕРЕДИНІ
-2.389108	В СЛУХАВЦІ
-2.38383	В СОБАКИ
-2.389108	В СОЮЗІ
-2.35836	В ТАКИЙ
-2.38383	В ТАКИХ
-2.089408	В ТАКОМУ	-0.4771212
-2.389108	В ТАНКОВОМУ
-2.088078	В ТАНКУ	-0.4771212
-2.389108	В ТВОЇ
-1.779155	В ТЕБЕ
-2.386461	В ТЕЛЕФОН
-2.389108	В ТЕПЛИХ
-1.428133	В ТОМУ	-0.2892084
-2.389108	В ТУНЕЛЬ
-1.546292	В УКРАЇНI	-0.90309
-2.389108	В УМОВАХ
-1.913761	В УНІФОРМІ
-2.389108	В УСІ
-2.389108	В ХАЩАХ
-2.389108	В ХОЛОДНЕ
-2.363336	В ЦЕЙ
-1.905835	В ЦЬОМУ
-2.389108	В ЧИЄСЬ
-1.911987	В ЯКОМУ
-2.378615	В ЯКУ
-1.680029	ВІД ВАРТОВИХ
-1.680029	ВІД ЗБУДЖЕННЯ
-1.67223	ВІД МЕНЕ
-1.680029	ВІД МИТНИКІВ
-1.680029	ВІД МУНІЦИПАЛІТЕТУ
-1.647951	ВІД НАС
-1.676412	ВІД НЕЇ
-1.6675	ВІД НИХ
-1.671636	ВІД НЬОГО
-1.680029	ВІД ПОГОДИ
-1.379302	ВІД ПОЛЯ
-1.680029	ВІД ПРИСУТНОСТІ
-1.680029	ВІД ПРИТИХЛИХ
-1.680029	ВІД ПРОДАВЩИЦЬ
-1.680029	ВІД СТРАХУ
-1.669268	ВІД ТЕБЕ
-1.676412	ВІД ТОГО
-1.680029	ВІД УЛЬТРАСІВ
-1.680029	ВІД ФУТБОЛУ
-0.9021804	ВІД ЧАСУ
-1.680029	ВІД ЯКОГОСЬ
-0.3009722	ВІДІБРАВ БУВА
-0.3008566	ВІДІРВАЛИ ЯЙЦЯ
-0.6949421	ВІДІРВЕМО Я
-0.3977666	ВІДІРВЕМО ЯЙЦЯ
-0.3008855	ВІДБИТИЙ ЧУВАК
-0.3009722	ВІДБУВАЄТЬСЯ ЯКАНЕБУДЬ
-0.3009722	ВІДБУВСЯ ПЕРЕВОРОТ
-0.07914656	ВІДБУЛАСЯ УРОЧИСТА	-0.7781513
-0.3009722	ВІДВЕЛИ ОКРЕМИЙ
-0.2902955	ВІДВЕРНУВШИСЬ І
-0.09420142	ВІДВЕРНУТИСЬ І
-0.3009722	ВІДВЕРТО ЛАЖОВІ
-0.3008855	ВІДВОДЯТЬ ТРІШКИ
-0.3009722	ВІДВЯЗНІ ТЕМИ
-0.3006544	ВІДГОРОДИЛОСЬ ЖИТТЯ
-0.6988544	ВІДДІЛ ОДНІЄЇ
-0.3978533	ВІДДІЛ РЕКЛАМИ
-0.2908599	ВІДДІЛІ НЕ
-0.2994431	ВІДКАЧАЄМО А
-0.3008566	ВІДКАЧАТИ ЩОБИ
-0.05601441	ВІДКИДАТИ </s>
-0.05793414	ВІДКЛАДАТИ ЛІКУВАННЯ	-0.90309
-0.3008566	ВІДКРИТИ ЯКУ
-0.07914656	ВІДКРИТТЯ ЛАБОРАТОРІЇ	-0.7781512
-0.3005678	ВІДКРУТИШСЯ ПОТІМ
-0.3002214	ВІДКУПИТИСЬ ВІД
-0.3008277	ВІДЛЕТІВ РЕКЛАМНИКИ
-0.593134	ВІДЛИТИ В
-0.6010206	ВІДЛИТИ ЧИ
-0.2975752	ВІДМІННИКІВ З
-0.5751618	ВІДМОВИВСЯ </s>
-0.5819525	ВІДМОВИВСЯ НЕ
-0.05112001	ВІДНОВЛЕННЯ АРХІТЕКТУРНОКУЛЬТУРНОЇ	-0.9542426
-0.3008855	ВІДНОВЛЮЄТЬСЯ СЕКТОР
-0.2989538	ВІДОБРАЖЕННІ Є
-0.2902955	ВІДОБРАЖЕННЯ І
-0.3009722	ВІДОМУ ГОЛОСНУ
-0.6019444	ВІДПОВІДНО ГОРІЛИ
-0.5951777	ВІДПОВІДНО З
-0.3009144	ВІДПОВІСТИ ШКОДА
-0.2987525	ВІДПОВЗАЄ ДО
-0.2965441	ВІДПОВЗАТИ В
-0.3009722	ВІДПОЧАТКУ ГОВОРИВ
-0.7779779	ВІДРАЗУ ВІДЧУЮТЬ
-0.7779779	ВІДРАЗУ ЗДОГАДАЮТЬСЯ
-0.7779779	ВІДРАЗУ ТРІЩИТЬ
-0.03473079	ВІДРЕАГУВАТИ ПОЗИТИВНО	-1.113943
-0.2994431	ВІДСИПАЄТЬСЯ ПРО
-0.3009433	ВІДТІСНЯТИ НАРОД
-0.3009722	ВІДЧАЙДУШНІ ШУКАЧІ
-0.2988963	ВІДЧАЙДУШНО ТАК
-0.2989826	ВІДЧУВАЮЧИ ЯК
-0.2989826	ВІДЧУЮТЬ ЯК
-0.298695	ВІЗЬМЕШ АЛЕ
-0.2952586	ВІКНОМ НА
-1.725678	ВІН І
-2.061654	ВІН ІЗ
-2.118882	ВІН ЇЇ
-2.129497	ВІН БЄТЬСЯ
-2.105121	ВІН БІЛЬШЕ
-2.131292	ВІН БЕРЕ
-2.12593	ВІН БИ
-2.131292	ВІН БЛЯ
-1.832064	ВІН БУВ
-2.08851	ВІН ВІД
-2.133094	ВІН ВБІГАЄ
-2.095078	ВІН ВЖЕ
-1.820482	ВІН ВЗАГАЛІ
-2.027775	ВІН ВСЕ
-2.131292	ВІН ВСЮДИ
-2.133094	ВІН ДАРЕМНО
-2.117138	ВІН ДИВИТЬСЯ
-2.012462	ВІН ДО
-2.118882	ВІН ДОБРЕ
-2.124157	ВІН ЖИВЕ
-2.124157	ВІН ЗАГАЛОМ
-2.133094	ВІН ЗАПИВАЄ
-2.133094	ВІН ЗБИРАЄ
-1.832968	ВІН ЗВІСНО
-1.825789	ВІН ЗОВСІМ
-2.026361	ВІН ЙОГО
-2.133094	ВІН КУРИТЬ
-2.131292	ВІН ЛОХ
-2.131292	ВІН МІГ
-2.095078	ВІН МАВ
-2.106817	ВІН МЕНІ
-1.871243	ВІН НА
-2.133094	ВІН НАБИРАЄ
-1.640597	ВІН НАВІТЬ
-2.129497	ВІН НАСПРАВДІ
-1.593558	ВІН НЕ
-2.120633	ВІН НЕЮ
-2.133094	ВІН НОРМАЛЬНИЙ
-2.133094	ВІН ОБЕРНУВШИСЬ
-2.133094	ВІН ОЗИРАЄТЬСЯ
-2.12771	ВІН ОСОБЛИВО
-2.131292	ВІН ПЄ
-2.133094	ВІН ПІДХОДИТЬ
-2.133094	ВІН ПЛАТИТЬ
-2.105121	ВІН ПО
-2.111947	ВІН ПОЧИНАЄ
-2.133094	ВІН ПОШЕПКИ
-2.133094	ВІН ПРАВИЙ
-2.133094	ВІН ПРИНОСИВ
-2.131292	ВІН ПРОДАЄ
-2.115401	ВІН РАПТОМ
-2.111947	ВІН СКАЖІМО
-2.133094	ВІН СКОНЦЕНТРОВУЄТЬСЯ
-2.131292	ВІН СХОЖИЙ
-2.105121	ВІН ТАКИ
-2.075665	ВІН ТЕЖ
-2.133094	ВІН ТРИМАВСЯ
-2.078841	ВІН ТУТ
-1.832968	ВІН ТЯГНЕ
-1.983365	ВІН У
-1.496757	ВІН ЦЕ	-0.1389905
-2.118882	ВІН ЧОМУ
-2.023545	ВІН ЯК
-0.3009722	ВІРА НАУМІВНА
-0.2988675	ВІРНІШЕ ВІН
-0.03774127	ВІРНИХ ДУХОВНИЙ	-1.079181
-0.3000484	ВІРЯТЬ ТУТ
-0.2217813	ВІСІМ РОКІВ	-0.8450981
-0.6988833	ВІСІМ ЯЩИКІВ
-0.3009144	ВІСІМНАДЦЯТЬ ДЕВЯТНАДЦЯТЬ
-0.30051	ВІТАЛІК ГОВОРИТЬ
-0.3009722	ВІТАЛЬНІ ПРОМОВИ
-0.30051	ВІТАЮТЬ ВСІ
-0.3009722	ВІТРИНИ ГАСТРОНОМУ
-0.2986662	ВІТРИНУ ЗА
-0.3009144	ВІТЧИМ САША
-0.2989826	ВІЦІ ВОНИ
-0.3009722	ВІЧНО ГОЛОДНА
-0.5751618	ВАГАВСЯ </s>
-0.6019444	ВАГАВСЯ ПРИХОДИВ
-0.3009433	ВАГОНУ ПІДБИРАЮТЬ
-0.3009722	ВАЖКИЙ ХЛІБ
-0.3009722	ВАЖКИМ ЧЕРВНЕВИМ
-1.078661	ВАЖКО ВОВУ
-1.078661	ВАЖКО ЛЕЖАТЬ
-1.078661	ВАЖКО ПОВЕРТАЄТЬСЯ
-1.078835	ВАЖКО СКОВТУЄ
-1.078661	ВАЖКО СПІЛКУВАТИСЬ
-1.066533	ВАЖКО ТАК
-0.2987525	ВАЖЛИВОЮ ДО
-0.3009722	ВАМ СКАЖУ
-0.2873727	ВАНТАЖІВ </s>
-0.3009144	ВАНТАЖИТИ НІКОМУ
-0.3006833	ВАРІАНТІВ СКІЛЬКИ
-0.3009144	ВАРТОВИХ ПОДАЛІ
-0.1546047	ВАС ТЕЖ	-0.90309
-0.9949995	ВАС ЦЕ
-0.3008855	ВАСЮ КРІЗЬ
-1.275528	ВАСЯ ВАХА
-0.9772614	ВАСЯ ДІСТАЄ
-1.276677	ВАСЯ ЗВИЧАЙНО
-1.275988	ВАСЯ ЙОМУ
-0.8013241	ВАСЯ КОМУНІСТ
-1.277599	ВАСЯ ПРОДАТИ
-1.277368	ВАСЯ СПРАВДІ
-1.278291	ВАСЯ ЦІЛУ
-1.257004	ВАХА </s>
-1.397247	ВАХА БОЇТЬСЯ
-1.393111	ВАХА ВАХА
-1.09639	ВАХА ГРУЗИН
-1.395174	ВАХА ДАЛІ
-1.394141	ВАХА ДИВИТЬСЯ
-1.395864	ВАХА МАЄ
-1.395864	ВАХА НІ
-1.395519	ВАХА ОПТИКУ
-1.396901	ВАХА ПОЗИТИВНИЙ
-1.393798	ВАХА РАПТОМ
-1.39483	ВАХА ЦЬОГО
-0.9487993	ВАХИ І
-0.999711	ВАХИ БЕРИ
-0.999278	ВАХИ КУПУЮТЬ
-0.999711	ВАХИ ПОЧИНАЮТЬСЯ
-0.9984131	ВАХИ СВІЙ
-0.2999907	ВАХТЕРАМ ТЕЖ
-0.3009433	ВАХУ ПРАВИЛЬНО
-0.2902955	ВБІГАЄ І
-0.5981466	ВБІК ВСЕ
