
\data\
ngram 1=4894
ngram 2=11022
ngram 3=885

\1-grams:
-1.581936	</s>
-99	<s>	-0.6370118
-4.050283	A	-0.30103
-3.23737	I	-0.6989701
-3.448223	IНША	-0.90309
-2.4705	Є	-0.6766935
-4.050283	ЄВРЕЄМ	-0.30103
-3.874192	ЄВРЕЇ	-0.30103
-4.050283	ЄВРЕЙ	-0.30103
-4.050283	ЄВРЕЙКА	-0.30103
-4.050283	ЄВРЕЯМИ	-0.30103
-3.272132	ЄПАРХІЇ	-1.079181
-3.272132	ЄПИСКОП	-1.079181
-4.050283	ЄПИСКОПИ	-0.30103
-1.634475	І	-0.4422771
-4.050283	ІВАНЕНКО	-0.30103
-4.050283	ІГНОРУВАТИ	-0.30103
-4.050283	ІГНОРУЮТЬ	-0.30103
-3.874192	ІДЕ	-0.30103
-3.351313	ІДЕЇ	-1
-3.272132	ІДЕЙ	-1.079181
-4.050283	ІДЕЙНО	-0.30103
-3.652343	ІДУТЬ	-0.30103
-2.551973	ІЗ	-0.4132567
-4.050283	ІЗБЛИЖАЛИСЬ	-0.30103
-4.050283	ІЗБРАВ	-0.30103
-4.050283	ІЛЛЄТЬСЯ	-0.30103
-4.050283	ІМЛА	-0.30103
-4.050283	ІМЯ	-0.30103
-3.397071	ІНІЦІАТИВІ	-0.9542425
-3.652343	ІНАКШЕ	-0.30103
-4.050283	ІНДУСТРІЇ	-0.30103
-3.397071	ІНКОЛИ	-0.3309932
-3.30992	ІНОДІ	-0.7781512
-3.573162	ІНСТИТУТІ	-0.7781513
-3.506215	ІНСТИТУТІВ	-0.845098
-3.506215	ІНСТИТУТСЬКИЙ	-0.8450981
-3.506215	ІНСТИТУТУ	-0.845098
-4.050283	ІНТЕЛІГЕНТ	-0.30103
-4.050283	ІНТЕЛІГЕНТА	-0.30103
-4.050283	ІНТЕЛІГЕНТОМ	-0.30103
-4.050283	ІНТЕРЕС	-0.30103
-3.23737	ІНШІ	-0.5314789
-4.050283	ІНШІЙ	-0.30103
-4.050283	ІНША	-0.30103
-3.874192	ІНШЕ	-0.30103
-3.175222	ІНШИЙ	-0.7533277
-3.205185	ІНШИМ	-0.5563025
-3.448223	ІНШИХ	-0.6532125
-4.050283	ІНШОЇ	-0.30103
-3.652343	ІНШОГО	-0.3679768
-4.050283	ІНШОМУ	-0.30103
-4.050283	ІСКОРКОЮ	-0.30103
-4.050283	ІСКРИСТИЙ	-0.30103
-3.397071	ІСНУЄ	-0.9542425
-4.050283	ІСНУВАННЯ	-0.30103
-4.050283	ІСНУЮЧИМ	-0.30103
-4.050283	ІСПУСКАТИСЯ	-0.30103
-3.23737	ІСТОРІЄЮ	-1.113943
-4.050283	ІСТОРІЇ	-0.30103
-4.050283	ІСТОРИКІВ	-0.30103
-4.050283	ІСТОРИЧНОГО	-0.30103
-4.050283	ІСТОРИЧНОМУ	-0.30103
-4.050283	ІСТОТ	-0.30103
-4.050283	ІСТОТА	-0.30103
-3.874192	ІЩЕ	-0.30103
-3.029094	ЇЇ	-0.312311
-4.050283	ЇЇАКВАТОРІЮ	-0.30103
-3.749253	ЇДЕ	-0.30103
-3.506215	ЇДУТЬ	-0.3424227
-4.050283	ЇЖ	-0.30103
-4.050283	ЇЖУ	-0.30103
-3.573162	ЇЙ	-0.30103
-3.072559	ЇМ	-0.30103
-4.050283	ЇСТЬ	-0.30103
-2.70786	ЇХ	-0.37787
-4.050283	ЇХАТИ	-0.30103
-4.050283	ЇХНІ	-0.30103
-4.050283	ЇХНІЙ	-0.30103
-4.050283	ЇХНІМИ	-0.30103
-4.050283	ЇХНЮ	-0.30103
-3.874192	ЇХНЯ	-0.30103
-2.286855	А	-0.4259688
-3.652343	АБИ	-0.30103
-3.147193	АБО	-0.30103
-4.050283	АВТОМАТИЧНО	-0.30103
-4.050283	АВТОМОБІЛІВ	-0.30103
-4.050283	АВТОСТОЯНКИ	-0.30103
-4.050283	АГІТАЦІЙНУ	-0.30103
-4.050283	АГА	-0.30103
-4.050283	АГРЕСИВНА	-0.30103
-4.050283	АДЖЕ	-0.30103
-4.050283	АДМІНІСТРАТИВНОГО	-0.30103
-3.09604	АЖ	-0.3631779
-4.050283	АКЦІЯМИ	-0.30103
-2.416815	АЛЕ	-0.4369087
-4.050283	АЛКОГОЛЬНІЙ	-0.30103
-4.050283	АЛКОГОЛЬНОГО	-0.30103
-4.050283	АЛКОГОЛЮ	-0.30103
-3.749253	АЛЛО	-0.30103
-4.050283	АМБРАЗУРИ	-0.30103
-4.050283	АМБРАЗУРУ	-0.30103
-3.397071	АМЕРИКАНСЬКОЇ	-0.9542425
-3.874192	АМЕРИКОСІВ	-0.30103
-4.050283	АНІ	-0.30103
-3.506215	АНАЛОГІЧНИХ	-0.845098
-4.050283	АНТИКВАРНУ	-0.30103
-4.050283	АНТИСЕМІТ	-0.30103
-4.050283	АНТИСЕМІТИЗМ	-0.30103
-4.050283	АПАРАТ	-0.30103
-4.050283	АПТЕЧНИХ	-0.30103
-4.050283	АРКУШ	-0.30103
-3.652343	АРТИСТIВ	-0.69897
-3.397071	АРХІТЕКТУРНОКУЛЬТУРНОЇ	-0.9542425
-3.397071	АРХІТЕКТУРНОКУЛЬТУРОЛОГІЧНЕ	-0.9542425
-4.050283	АТРАКЦІОНІВ	-0.30103
-4.050283	АТРАКЦІОНИ	-0.30103
-4.050283	АХ	-0.30103
-3.050283	Б	-0.3258536
-3.874192	БЄ	-0.30103
-3.749253	БЄЛГОРОДА	-0.30103
-3.749253	БЄТЬСЯ	-0.30103
-4.050283	БІБЛІОТЕЦІ	-0.30103
-4.050283	БІГ	-0.30103
-4.050283	БІГТИ	-0.30103
-4.050283	БІДКАЄТЬСЯ	-0.30103
-4.050283	БІДОЛАШКАМ	-0.30103
-3.874192	БІЖИ	-0.30103
-4.050283	БІЖИТЬ	-0.30103
-3.573162	БІЗНЕС	-0.30103
-4.050283	БІЙКОЮ	-0.30103
-4.050283	БІЙСЯ	-0.30103
-3.652343	БІК	-0.30103
-4.050283	БІЛЕ	-0.30103
-4.050283	БІЛИМИ	-0.30103
-4.050283	БІЛОГО	-0.30103
-4.050283	БІЛОГОРОДСЬКОГО	-0.30103
-3.448223	БІЛОЛИЦИЙ	-0.90309
-3.749253	БІЛОМУ	-0.39794
-4.050283	БІЛЬ	-0.30103
-3.652343	БІЛЬШІСТЬ	-0.30103
-3.029094	БІЛЬШЕ	-0.4771212
-4.050283	БІЛЬШМЕНШ	-0.30103
-3.272132	БІЛЬШОЇ	-1.079181
-3.272132	БІЛЯ	-0.5740312
-4.050283	БІНОКЛЕМ	-0.30103
-3.652343	БІНОКЛЬ	-0.30103
-4.050283	БАБАЄ	-0.30103
-4.050283	БАБАЙ	-0.30103
-4.050283	БАБКАМИ	-0.30103
-3.749253	БАБКИ	-0.30103
-4.050283	БАБОК	-0.30103
-3.874192	БАБУСІ	-0.30103
-4.050283	БАБУСЮ	-0.30103
-3.351313	БАБУСЯ	-0.30103
-3.09604	БАГАТО	-0.5835766
-4.050283	БАГАТОФУНКЦІОНАЛЬНА	-0.30103
-4.050283	БАГАТТЯ	-0.30103
-4.050283	БАДЬОРО	-0.30103
-4.050283	БАЙДУЖЕ	-0.30103
-4.050283	БАЙКИ	-0.30103
-4.050283	БАЙРАКАМИ	-0.30103
-4.050283	БАЛАКА	-0.30103
-4.050283	БАЛАКУЧОГО	-0.30103
-4.050283	БАЛКОЮ	-0.30103
-4.050283	БАНКНОТИ	-0.30103
-4.050283	БАНКУ	-0.30103
-4.050283	БАНТИКОМ	-0.30103
-4.050283	БАРАНІВ	-0.30103
-4.050283	БАРАНАМИ	-0.30103
-3.749253	БАРАНИ	-0.30103
-4.050283	БАРАНИСЬКА	-0.30103
-4.050283	БАРАНИТА	-0.30103
-4.050283	БАРАНОВЕ	-0.30103
-4.050283	БАРАХОЛЦІ	-0.30103
-4.050283	БАРВАМИ	-0.30103
-4.050283	БАСЕЙНУ	-0.30103
-4.050283	БАТЬКІВ	-0.30103
-4.050283	БАТЬКІВСЬКІЙ	-0.30103
-4.050283	БАТЬКІВЩИНУ	-0.30103
-3.30992	БАТЬКА	-1.041393
-4.050283	БАТЬКАМ	-0.30103
-4.050283	БАТЬКАМИ	-0.30103
-3.652343	БАТЬКИ	-0.30103
-4.050283	БАТЬКО	-0.30103
-4.050283	БАТЬКУ	-0.30103
-3.573162	БАЧ	-0.30103
-3.749253	БАЧАТЬ	-0.30103
-3.652343	БАЧИВ	-0.30103
-4.050283	БАЧИЛОСЯ	-0.30103
-4.050283	БАЧИМО	-0.30103
-3.874192	БАЧИТИ	-0.30103
-3.874192	БАЧИТЬ	-0.30103
-3.573162	БАЧИШ	-0.30103
-4.050283	БАЧТЕ	-0.30103
-4.050283	БАЧУ	-0.30103
-4.050283	БАШКУ	-0.30103
-3.874192	БАШТІ	-0.30103
-4.050283	БАШТА	-0.30103
-4.050283	БАШТУ	-0.30103
-4.050283	БДЖОЛА	-0.30103
-4.050283	БДЖОЛИ	-0.30103
-3.029094	БЕЗ	-0.3679767
-4.050283	БЕЗБОЖНИЙ	-0.30103
-4.050283	БЕЗВІСТІ	-0.30103
-4.050283	БЕЗДУШНИЙ	-0.30103
-4.050283	БЕЗЗАКОННІ	-0.30103
-4.050283	БЕЗКІНЕЧНИЙ	-0.30103
-4.050283	БЕЗКОЛІРНИМИ	-0.30103
-4.050283	БЕЗКОШТОВНІ	-0.30103
-4.050283	БЕЗЛАДДЄ	-0.30103
-4.050283	БЕЗНАДІЮ	-0.30103
-4.050283	БЕЗОДНЮ	-0.30103
-4.050283	БЕЗПАНТОВО	-0.30103
-4.050283	БЕЗПЕКИ	-0.30103
-4.050283	БЕЗПОРАДНО	-0.30103
-4.050283	БЕЗПРОГРАШНИМИ	-0.30103
-4.050283	БЕЗРОБІТНІ	-0.30103
-4.050283	БЕЗРОБІТНОГО	-0.30103
-4.050283	БЕЗТУРБОТНА	-0.30103
-4.050283	БЕЗТУРБОТНО	-0.30103
-4.050283	БЕЗЦІНЬ	-0.30103
-4.050283	БЕЗЧЕСТИТИ	-0.30103
-3.874192	БЕРЕ	-0.30103
-4.050283	БЕРЕГ	-0.30103
-3.397071	БЕРЕГА	-0.30103
-4.050283	БЕРЕГОМ	-0.30103
-4.050283	БЕРЕТЬСЯ	-0.30103
-4.050283	БЕРЕШ	-0.30103
-4.050283	БЕРИ	-0.30103
-3.874192	БЕРУТЬ	-0.30103
-4.050283	БЕСІДА	-0.30103
-4.050283	БЕТОННІ	-0.30103
-3.272132	БИ	-0.3222193
-4.050283	БИЛИСЬ	-0.30103
-4.050283	БИЛЬЦЕ	-0.30103
-4.050283	БИТА	-0.30103
-4.050283	БИТИ	-0.30103
-4.050283	БИТИСЬ	-0.30103
-4.050283	БИЧОВАТИ	-0.30103
-4.050283	БЛІДИЙ	-0.30103
-4.050283	БЛІДИХ	-0.30103
-4.050283	БЛАГАЮ	-0.30103
-4.050283	БЛАГОДАТТЮ	-0.30103
-4.050283	БЛАГОПОЛУЧЧЯ	-0.30103
-4.050283	БЛАГОЧЕСТИВІЇ	-0.30103
-4.050283	БЛАГОЧЕСТИВУ	-0.30103
-4.050283	БЛАГУЮ	-0.30103
-4.050283	БЛАКИТНЕ	-0.30103
-4.050283	БЛАКИТНИЙ	-0.30103
-3.874192	БЛАКИТНОГО	-0.4771212
-4.050283	БЛАМ	-0.30103
-4.050283	БЛИЖНІХ	-0.30103
-3.749253	БЛИЖЧЕ	-0.30103
-4.050283	БЛИЗЬКА	-0.30103
-4.050283	БЛИЗЬКИХ	-0.30103
-3.874192	БЛИЗЬКО	-0.30103
-4.050283	БЛИСК	-0.30103
-4.050283	БЛИСКАВИЦЬ	-0.30103
-4.050283	БЛИСКАВИЧНО	-0.30103
-4.050283	БЛИСКАВОК	-0.30103
-4.050283	БЛИСКУ	-0.30103
-4.050283	БЛИСКУЧЕ	-0.30103
-4.050283	БЛУКАВ	-0.30103
-4.050283	БЛУКАЮ	-0.30103
-3.874192	БЛЯ	-0.30103
-4.050283	БЛЯДЬ	-0.30103
-2.795011	БО	-0.4855544
-4.050283	БОЇТЬСЯ	-0.30103
-3.749253	БОГ	-0.30103
-4.050283	БОГДАНА	-0.30103
-4.050283	БОГОБОЯЗЛИВИЙ	-0.30103
-4.050283	БОГОМ	-0.30103
-3.874192	БОДАЙ	-0.30103
-3.448223	БОЖЕ	-0.6532125
-4.050283	БОЖЕВІЛЬНУ	-0.30103
-4.050283	БОЖИЙ	-0.30103
-4.050283	БОЖОЇ	-0.30103
-3.874192	БОКИ	-0.30103
-4.050283	БОКОМ	-0.30103
-3.749253	БОКУ	-0.30103
-4.050283	БОЛОТІ	-0.30103
-3.874192	БОЛОТА	-0.30103
-4.050283	БОЛОТО	-0.30103
-4.050283	БОЛЮ	-0.30103
-3.397071	БОЛЯЧЕ	-0.69897
-4.050283	БОРОДІ	-0.30103
-4.050283	БОРОТЬБА	-0.30103
-4.050283	БОЮ	-0.30103
-3.874192	БРАКУВАЛО	-0.30103
-3.23737	БРАЛАСЯ	-1.113943
-3.749253	БРАМИ	-0.30103
-4.050283	БРАМУ	-0.30103
-4.050283	БРАНКУ	-0.30103
-4.050283	БРАТ	-0.30103
-3.506215	БРАТА	-0.8450981
-4.050283	БРАТАВСЯ	-0.30103
-4.050283	БРАТАНОК	-0.30103
-3.749253	БРАТЕ	-0.30103
-4.050283	БРАТСЬКІЙ	-0.30103
-3.874192	БРЕЛИ	-0.30103
-4.050283	БРОВАРІ	-0.30103
-3.029094	БУВ	-0.30103
-4.050283	БУВА	-0.30103
-3.749253	БУВАЄ	-0.30103
-4.050283	БУВАЛО	-0.30103
-4.050283	БУВШИ	-0.30103
-3.272132	БУДІВНИКАМ	-1.079181
-3.351313	БУДЕ	-0.30103
-4.050283	БУДЕМО	-0.30103
-4.050283	БУДИНКІВ	-0.30103
-4.050283	БУДИНКИ	-0.30103
-4.050283	БУДИНКУ	-0.30103
-4.050283	БУДИНОЧКА	-0.30103
-3.749253	БУДИНОЧОК	-0.30103
-3.506215	БУДИТЬ	-0.845098
-4.050283	БУДУТЬ	-0.30103
-3.749253	БУДЬ	-0.30103
-4.050283	БУДЬЩО	-0.30103
-3.874192	БУКА	-0.30103
-3.23737	БУЛА	-0.4336556
-3.175222	БУЛИ	-0.6532125
-2.728064	БУЛО	-0.3916911
-4.050283	БУРМИЛА	-0.30103
-4.050283	БУРУНЯЧИСЬ	-0.30103
-4.050283	БУРХЛИВУ	-0.30103
-2.874192	БУТИ	-0.7659167
-4.050283	БУХ	-0.30103
-4.050283	БЮТЬ	-0.30103
-3.874192	БЮТЬСЯ	-0.30103
-2.003008	В	-0.3893399
-4.050283	ВІВЦЯМИ	-0.30103
-2.698101	ВІД	-0.3606157
-4.050283	ВІДІБРАВ	-0.30103
-4.050283	ВІДІГРІЛИСЯ	-0.30103
-4.050283	ВІДІРВАЛИ	-0.30103
-3.749253	ВІДІРВЕМО	-0.39794
-4.050283	ВІДБИТИЙ	-0.30103
-4.050283	ВІДБУВАЄТЬСЯ	-0.30103
-4.050283	ВІДБУВСЯ	-0.30103
-3.573162	ВІДБУЛАСЯ	-0.7781513
-4.050283	ВІДВЕЛИ	-0.30103
-4.050283	ВІДВЕРНУВШИСЬ	-0.30103
-3.652343	ВІДВЕРНУТИСЬ	-0.69897
-4.050283	ВІДВЕРТО	-0.30103
-4.050283	ВІДВОДЯТЬ	-0.30103
-4.050283	ВІДВЯЗНІ	-0.30103
-4.050283	ВІДГОРОДИЛОСЬ	-0.30103
-4.050283	ВІДГРІВАТИ	-0.30103
-3.749253	ВІДДІЛ	-0.39794
-4.050283	ВІДДІЛІ	-0.30103
-4.050283	ВІДКАЧАЄМО	-0.30103
-4.050283	ВІДКАЧАТИ	-0.30103
-3.448223	ВІДКИДАТИ	-0.90309
-3.448223	ВІДКЛАДАТИ	-0.90309
-4.050283	ВІДКОРКУВАЛА	-0.30103
-4.050283	ВІДКРИТИ	-0.30103
-3.573162	ВІДКРИТТЯ	-0.7781513
-4.050283	ВІДКРУТИШСЯ	-0.30103
-4.050283	ВІДКУПИТИСЬ	-0.30103
-4.050283	ВІДЛЕТІВ	-0.30103
-3.874192	ВІДЛИТИ	-0.30103
-4.050283	ВІДМІННИКІВ	-0.30103
-3.874192	ВІДМОВИВСЯ	-0.30103
-4.050283	ВІДНАЙТИ	-0.30103
-3.397071	ВІДНОВЛЕННЯ	-0.9542425
-4.050283	ВІДНОВЛЮЄТЬСЯ	-0.30103
-4.050283	ВІДОБРАЖЕННІ	-0.30103
-4.050283	ВІДОБРАЖЕННЯ	-0.30103
-4.050283	ВІДОМО	-0.30103
-4.050283	ВІДОМУ	-0.30103
-3.874192	ВІДПОВІДНО	-0.30103
-4.050283	ВІДПОВІСТИ	-0.30103
-4.050283	ВІДПОВЗАЄ	-0.30103
-4.050283	ВІДПОВЗАТИ	-0.30103
-4.050283	ВІДПОЧАТКУ	-0.30103
-4.050283	ВІДПОЧИЛИ	-0.30103
-4.050283	ВІДПУСТ	-0.30103
-4.050283	ВІДРА	-0.30103
-3.506215	ВІДРАЗУ	-0.30103
-3.23737	ВІДРЕАГУВАТИ	-1.113943
-4.050283	ВІДСИПАЄТЬСЯ	-0.30103
-4.050283	ВІДСТОРОНИВ	-0.30103
-4.050283	ВІДТІСНЯТИ	-0.30103
-4.050283	ВІДТЕПЕРКИ	-0.30103
-4.050283	ВІДХОДИЛИ	-0.30103
-4.050283	ВІДЦУРАВСЯ	-0.30103
-4.050283	ВІДЧАЙДУШНІ	-0.30103
-4.050283	ВІДЧАЙДУШНО	-0.30103
-4.050283	ВІДЧИНЕНИХ	-0.30103
-4.050283	ВІДЧИНИВ	-0.30103
-3.874192	ВІДЧУВАЮЧИ	-0.30103
-4.050283	ВІДЧУЮТЬ	-0.30103
-4.050283	ВІДШТОВХНУЛА	-0.30103
-4.050283	ВІЗ	-0.30103
-4.050283	ВІЗЬМЕШ	-0.30103
-3.874192	ВІЙНИ	-0.30103
-4.050283	ВІЙСЬКА	-0.30103
-4.050283	ВІКНОМ	-0.30103
-3.874192	ВІКОНЦЕ	-0.30103
-4.050283	ВІКОНЦЯ	-0.30103
-2.313887	ВІН	-0.3450763
-4.050283	ВІНКУ	-0.30103
-4.050283	ВІРА	-0.30103
-4.050283	ВІРНІ	-0.30103
-4.050283	ВІРНІШЕ	-0.30103
-4.050283	ВІРНИМ	-0.30103
-3.272132	ВІРНИХ	-1.079181
-3.874192	ВІРОЮ	-0.30103
-3.874192	ВІРУ	-0.30103
-4.050283	ВІРЯТЬ	-0.30103
-3.397071	ВІСІМ	-0.69897
-4.050283	ВІСІМНАДЦЯТЬ	-0.30103
-4.050283	ВІСЬТА	-0.30103
-4.050283	ВІТАЛІК	-0.30103
-4.050283	ВІТАЛЬНІ	-0.30103
-4.050283	ВІТАХ	-0.30103
-4.050283	ВІТАЮСЯ	-0.30103
-4.050283	ВІТАЮТЬ	-0.30103
-4.050283	ВІТЕРЕЦЬ	-0.30103
-3.874192	ВІТРИЛА	-0.30103
-4.050283	ВІТРИЛО	-0.30103
-4.050283	ВІТРИЛЬНОГО	-0.30103
-4.050283	ВІТРИНИ	-0.30103
-4.050283	ВІТРИНУ	-0.30103
-4.050283	ВІТЧИМ	-0.30103
-3.874192	ВІЦІ	-0.30103
-4.050283	ВІЧНО	-0.30103
-4.050283	ВІЧНУ	-0.30103
-4.050283	ВЇХАЛИ	-0.30103
-3.874192	ВАГАВСЯ	-0.30103
-4.050283	ВАГАННЯ	-0.30103
-4.050283	ВАГОНУ	-0.30103
-4.050283	ВАЖКЕ	-0.30103
-4.050283	ВАЖКИЙ	-0.30103
-4.050283	ВАЖКИМ	-0.30103
-3.448223	ВАЖКО	-0.30103
-4.050283	ВАЖЛИВОЮ	-0.30103
-4.050283	ВАЖЧЕ	-0.30103
-4.050283	ВАЛ	-0.30103
-3.448223	ВАМ	-0.30103
-4.050283	ВАМИ	-0.30103
-4.050283	ВАНДРУВАЛИ	-0.30103
-4.050283	ВАНТАЖІВ	-0.30103
-4.050283	ВАНТАЖИТИ	-0.30103
-4.050283	ВАРІАНТІВ	-0.30103
-4.050283	ВАРТІСНЕ	-0.30103
-4.050283	ВАРТОВИХ	-0.30103
-3.175222	ВАС	-0.4393327
-4.050283	ВАСИЛЕМ	-0.30103
-3.397071	ВАСИЛЬ	-0.9542425
-4.050283	ВАСИЛЮ	-0.30103
-4.050283	ВАСЮ	-0.30103
-3.272132	ВАСЯ	-0.3756636
-3.874192	ВАТРИ	-0.30103
-3.205185	ВАХА	-0.3187588
-3.573162	ВАХИ	-0.30103
-4.050283	ВАХТЕРАМ	-0.30103
-4.050283	ВАХУ	-0.30103
-4.050283	ВАША	-0.30103
-4.050283	ВБІГ	-0.30103
-4.050283	ВБІГАЄ	-0.30103
-3.874192	ВБІК	-0.30103
-4.050283	ВБАЧАТИ	-0.30103
-4.050283	ВБИЛИ	-0.30103
-4.050283	ВБИТА	-0.30103
-3.874192	ВБОЛІВАЛЬНИКІВ	-0.30103
-3.874192	ВБОЛІВАЛЬНИКИ	-0.30103
-4.050283	ВБОЛІВАТИ	-0.30103
-4.050283	ВВІГНАВ	-0.30103
-3.874192	ВВАЖАЄ	-0.30103
-4.050283	ВВАЖАВСЯ	-0.30103
-4.050283	ВВАЖАЙ	-0.30103
-4.050283	ВВАЖАЮ	-0.30103
-4.050283	ВВАЖАЮТЬ	-0.30103
-3.23737	ВВАЖАЮЧИ	-1.113943
-4.050283	ВГОРІ	-0.30103
-3.749253	ВГОРУ	-0.30103
-4.050283	ВГРИЗАТИСЬ	-0.30103
-4.050283	ВДАВИСЬ	-0.30103
-3.874192	ВДАЛИНІ	-0.30103
-3.652343	ВДАЛОСЯ	-0.30103
-4.050283	ВДАСТЬСЯ	-0.30103
-3.874192	ВДЕНЬ	-0.30103
-4.050283	ВДИВЛЯЮЧИСЬ	-0.30103
-4.050283	ВДОВЖ	-0.30103
-4.050283	ВДОВОЛЬНЯЛО	-0.30103
-3.874192	ВДОМА	-0.30103
-4.050283	ВДРАВ	-0.30103
-4.050283	ВДЯЧНІСТЬ	-0.30103
-4.050283	ВЕДЕ	-0.30103
-4.050283	ВЕДИ	-0.30103
-4.050283	ВЕДУ	-0.30103
-4.050283	ВЕЛА	-0.30103
-4.050283	ВЕЛЕТЕНСЬКІ	-0.30103
-4.050283	ВЕЛЕТЕНСЬКА	-0.30103
-4.050283	ВЕЛЕТЕНСЬКИЙ	-0.30103
-4.050283	ВЕЛЕТЕНСЬКОГО	-0.30103
-3.874192	ВЕЛИКІ	-0.30103
-4.050283	ВЕЛИКІЙ	-0.30103
-3.749253	ВЕЛИКА	-0.30103
-3.506215	ВЕЛИКИЙ	-0.4771213
-3.874192	ВЕЛИКИМ	-0.4771212
-4.050283	ВЕЛИКИМИ	-0.30103
-3.874192	ВЕЛИКИХ	-0.30103
-4.050283	ВЕЛИКОЇ	-0.30103
-4.050283	ВЕЛИКОЮ	-0.30103
-4.050283	ВЕЛИКУ	-0.30103
-4.050283	ВЕЛИЧЕЗНИХ	-0.30103
-4.050283	ВЕЛИЧЕЗНУ	-0.30103
-4.050283	ВЕРБУВАЛЬНИКІВ	-0.30103
-4.050283	ВЕРЕМІЯ	-0.30103
-4.050283	ВЕРСТОВ	-0.30103
-4.050283	ВЕРТАТЬ	-0.30103
-4.050283	ВЕРТУШКИ	-0.30103
-4.050283	ВЕРХІВКАМИ	-0.30103
-4.050283	ВЕРХІВКИ	-0.30103
-4.050283	ВЕРХІВКОЮ	-0.30103
-4.050283	ВЕРХИ	-0.30103
-4.050283	ВЕРХУ	-0.30103
-4.050283	ВЕРШИНА	-0.30103
-4.050283	ВЕСЕЛИЙ	-0.30103
-4.050283	ВЕСЕЛО	-0.30103
-4.050283	ВЕСЕЛОЩІ	-0.30103
-4.050283	ВЕСЕЛОЮ	-0.30103
-3.874192	ВЕСЛА	-0.4771212
-4.050283	ВЕСЛУВАЛИ	-0.30103
-4.050283	ВЕСНІ	-0.30103
-4.050283	ВЕСНА	-0.30103
-3.448223	ВЕСТИ	-0.90309
-3.506215	ВЕСЬ	-0.3424227
-4.050283	ВЕТЕРАН	-0.30103
-4.050283	ВЕТЕРАНСЬКЕ	-0.30103
-3.874192	ВЕТЕРАНСЬКИМ	-0.4771212
-4.050283	ВЕЧОРА	-0.30103
-4.050283	ВЕЧОРАМИ	-0.30103
-2.728064	ВЖЕ	-0.3238929
-4.050283	ВЖИВАЄ	-0.30103
-3.120864	ВЗАГАЛІ	-0.4149733
-3.874192	ВЗДОВЖ	-0.30103
-4.050283	ВЗИМКУ	-0.30103
-3.874192	ВЗЯВ	-0.30103
-4.050283	ВЗЯВСЬ	-0.30103
-4.050283	ВЗЯВСЯ	-0.30103
-4.050283	ВЗЯВШИ	-0.30103
-3.874192	ВЗЯЛА	-0.4771213
-3.874192	ВЗЯЛИ	-0.30103
-3.272132	ВИ	-0.3467875
-3.874192	ВИЄ	-0.30103
-4.050283	ВИЇЗДІ	-0.30103
-4.050283	ВИБІГАТИ	-0.30103
-4.050283	ВИБАЧАТИСЬ	-0.30103
-4.050283	ВИБИВ	-0.30103
-4.050283	ВИБИРАЛИ	-0.30103
-4.050283	ВИБИРАЛИСЯ	-0.30103
-4.050283	ВИБИТИМИ	-0.30103
-4.050283	ВИБЛИСКУВАВ	-0.30103
-4.050283	ВИБЛИСКУЮЧИ	-0.30103
-4.050283	ВИБОРУ	-0.30103
-4.050283	ВИБРАВСЯ	-0.30103
-4.050283	ВИБРАЛИСЯ	-0.30103
-4.050283	ВИВАЛЮЄТЬСЯ	-0.30103
-4.050283	ВИГАДУЄ	-0.30103
-3.874192	ВИГЛЯД	-0.30103
-3.874192	ВИГЛЯДАЄ	-0.30103
-4.050283	ВИГЛЯДАЛО	-0.30103
-4.050283	ВИГОЙДУВАЛОСЯ	-0.30103
-4.050283	ВИГРАВАЛИ	-0.30103
-4.050283	ВИГУКУВАЛО	-0.30103
-3.448223	ВИДІЛЯЛИСЯ	-0.9030899
-4.050283	ВИДАВ	-0.30103
-3.397071	ВИДАНИХ	-0.9542425
-3.30992	ВИДАННЯ	-1.041393
-3.351313	ВИДАТИ	-1
-4.050283	ВИДНІЛИСЯ	-0.30103
-4.050283	ВИДНО	-0.30103
-4.050283	ВИДРЯПАЛОСЯ	-0.30103
-3.874192	ВИДРЯПАТИСЯ	-0.4771213
-4.050283	ВИДУ	-0.30103
-4.050283	ВИЖИЛИ	-0.30103
-4.050283	ВИЗИРАЛА	-0.30103
-4.050283	ВИЗИРНУЛИ	-0.30103
-4.050283	ВИЙНЯЛА	-0.30103
-3.874192	ВИЙШЛИ	-0.30103
-4.050283	ВИЙШЛО	-0.30103
-3.874192	ВИЙШОВ	-0.30103
-4.050283	ВИКИДАЮТЬ	-0.30103
-4.050283	ВИКИНУЛИ	-0.30103
-4.050283	ВИКЛЮЧНО	-0.30103
-4.050283	ВИКОНУВАТИ	-0.30103
-4.050283	ВИКОТИЛИ	-0.30103
-4.050283	ВИКРЕСАНОЮ	-0.30103
-4.050283	ВИКРЕСЛИЛА	-0.30103
-3.652343	ВИКРИЛИ	-0.69897
-4.050283	ВИЛІЗАЮ	-0.30103
-3.874192	ВИЛІТАЮТЬ	-0.30103
-4.050283	ВИЛАЗИТЬ	-0.30103
-4.050283	ВИЛИЗАЛО	-0.30103
-4.050283	ВИЛОВЛЮВАТИ	-0.30103
-4.050283	ВИЛОВЛЮЮЧИ	-0.30103
-4.050283	ВИМАГАЄТЬСЯ	-0.30103
-4.050283	ВИМАГАТИ	-0.30103
-4.050283	ВИМАЛЬОВАНИЙ	-0.30103
-4.050283	ВИМАХУЮЧИ	-0.30103
-4.050283	ВИНОСИТЬ	-0.30103
-4.050283	ВИПАДКАХ	-0.30103
-4.050283	ВИПАДКОВА	-0.30103
-4.050283	ВИПАДКУ	-0.30103
-4.050283	ВИПЛЬОВУЮЧИ	-0.30103
-4.050283	ВИПОВЗАЄ	-0.30103
-4.050283	ВИПРОМІНЮВАЛИ	-0.30103
-4.050283	ВИПУЩЕНИЙ	-0.30103
-4.050283	ВИПХАТИ	-0.30103
-4.050283	ВИПЮТЬ	-0.30103
-4.050283	ВИРВА	-0.30103
-4.050283	ВИРИВАЮЧИ	-0.30103
-3.874192	ВИРИНАЛИ	-0.30103
-4.050283	ВИРОСТАВ	-0.30103
-4.050283	ВИРОСТЕШ	-0.30103
-4.050283	ВИРУВАЛА	-0.30103
-3.448223	ВИСВИСТУЄ	-0.90309
-4.050283	ВИСИДЖУЄ	-0.30103
-4.050283	ВИСОКО	-0.30103
-4.050283	ВИСОКОСТІ	-0.30103
-4.050283	ВИСОКУ	-0.30103
-3.749253	ВИСТАЧАЄ	-0.30103
-4.050283	ВИСТАЧИТЬ	-0.30103
-4.050283	ВИСТРИБНУВ	-0.30103
-4.050283	ВИСТРИБУЮТЬ	-0.30103
-3.397071	ВИСТУП	-0.9542425
-4.050283	ВИТАНЦЬОВУВАЛО	-0.30103
-3.874192	ВИТРІЩАЛИСЯ	-0.30103
-4.050283	ВИТРИМУЄ	-0.30103
-4.050283	ВИТРЯС	-0.30103
-4.050283	ВИТЯГНУТИ	-0.30103
-4.050283	ВИТЯГУЮТЬ	-0.30103
-4.050283	ВИХЛЮПНУЛА	-0.30103
-4.050283	ВИХОВАННЯ	-0.30103
-3.874192	ВИХОДИЛИ	-0.30103
-4.050283	ВИХОДИЛО	-0.30103
-4.050283	ВИХОДИМО	-0.30103
-3.448223	ВИХОДИТЬ	-0.30103
-3.874192	ВИХОДУ	-0.30103
-4.050283	ВИХОДЯТЬ	-0.30103
-4.050283	ВИШТОВХАЛА	-0.30103
-3.749253	ВИЩЕ	-0.30103
-4.050283	ВИЩИЙ	-0.30103
-4.050283	ВИЯВИЛОСЯ	-0.30103
-3.874192	ВИЯВЛЯЄТЬСЯ	-0.30103
-4.050283	ВКІНЕЦЬ	-0.30103
-4.050283	ВКЛАДАЮЧИ	-0.30103
-4.050283	ВКЛОНИВСЯ	-0.30103
-4.050283	ВКЛОНИВШИСЬ	-0.30103
-4.050283	ВКЛЮЧНО	-0.30103
-4.050283	ВКОЛОЧУЮТЬ	-0.30103
-3.874192	ВКРАЇНІ	-0.30103
-4.050283	ВКРАЇНУ	-0.30103
-3.874192	ВКРАВ	-0.30103
-3.448223	ВКРАДЕШ	-0.90309
-4.050283	ВЛАДИ	-0.30103
-4.050283	ВЛАСНІ	-0.30103
-4.050283	ВЛАСНА	-0.30103
-3.652343	ВЛАСНЕ	-0.30103
-4.050283	ВЛАСНИЙ	-0.30103
-4.050283	ВЛАСНОЇ	-0.30103
-3.506215	ВЛАСНОГО	-0.845098
-3.874192	ВЛАСНОМУ	-0.30103
-4.050283	ВЛАСНУ	-0.30103
-4.050283	ВЛАШТОВУВАЛО	-0.30103
-3.874192	ВЛАШТУВАЛИ	-0.30103
-4.050283	ВЛАШТУВАЛИСЯ	-0.30103
-4.050283	ВЛЕТИШ	-0.30103
-4.050283	ВЛИВАЮТЬ	-0.30103
-4.050283	ВЛЯГЛИСЯ	-0.30103
-4.050283	ВМІЄ	-0.30103
-4.050283	ВМІЄШ	-0.30103
-4.050283	ВМОСТИЛИСЯ	-0.30103
-4.050283	ВМУДРЯЛИСЬ	-0.30103
-4.050283	ВНЕСЕ	-0.30103
-3.874192	ВНИЗ	-0.30103
-3.652343	ВНОЧІ	-0.30103
-3.874192	ВНЮХАЮТЬ	-0.30103
-4.050283	ВОЄННОМУ	-0.30103
-3.205185	ВОВА	-0.5563025
-3.874192	ВОВИ	-0.30103
-3.749253	ВОВК	-0.30103
-3.749253	ВОВКА	-0.30103
-3.874192	ВОВКУ	-0.30103
-4.050283	ВОВОЮ	-0.30103
-3.874192	ВОВУ	-0.30103
-3.874192	ВОВЧЕ	-0.30103
-4.050283	ВОВЧИЦЮ	-0.30103
-4.050283	ВОВЧИЦЯ	-0.30103
-4.050283	ВОГНИЩ	-0.30103
-4.050283	ВОГНИЩА	-0.30103
-4.050283	ВОГОНЬ	-0.30103
-4.050283	ВОДІ	-0.30103
-4.050283	ВОДІЇВ	-0.30103
-4.050283	ВОДІЙСЬКЕ	-0.30103
-3.272132	ВОДА	-0.4522977
-3.573162	ВОДИ	-0.30103
-4.050283	ВОДИЛИСЯ	-0.30103
-4.050283	ВОДИТИСЬ	-0.30103
-4.050283	ВОДНИМ	-0.30103
-3.175222	ВОДНОЧАС	-0.7533276
-4.050283	ВОДОЮ	-0.30103
-3.874192	ВОДУ	-0.30103
-4.050283	ВОДЦІ	-0.30103
-3.874192	ВОДЯНЕ	-0.4771212
-3.874192	ВОДЯНОЇ	-0.4771212
-3.397071	ВОДЯРИ	-0.30103
-3.749253	ВОДЯРОЮ	-0.30103
-3.749253	ВОДЯРУ	-0.30103
-4.050283	ВОДЯТЬСЯ	-0.30103
-3.874192	ВОЗА	-0.30103
-4.050283	ВОЗИТИ	-0.30103
-3.749253	ВОКЗАЛ	-0.30103
-3.749253	ВОКЗАЛІ	-0.30103
-4.050283	ВОЛІ	-0.30103
-4.050283	ВОЛАМИ	-0.30103
-4.050283	ВОЛОГІЙ	-0.30103
-3.874192	ВОЛОДІ	-0.30103
-3.749253	ВОЛОДЕЮ	-0.30103
-3.874192	ВОЛОДЮ	-0.30103
-3.272132	ВОЛОДЯ	-0.30103
-3.272132	ВОЛОНТЕРАМ	-1.079181
-3.749253	ВОЛОССЯ	-0.30103
-4.050283	ВОЛОССЯЧКО	-0.30103
-4.050283	ВОЛОСЯНЦІ	-0.30103
-4.050283	ВОЛЮ	-0.30103
-4.050283	ВОЛЯ	-0.30103
-2.749253	ВОНА	-0.469822
-2.33428	ВОНИ	-0.365584
-3.30992	ВОНО	-0.3245111
-3.874192	ВОРІТ	-0.30103
-3.874192	ВОРІТЬМИ	-0.30103
-4.050283	ВОРОГ	-0.30103
-4.050283	ВОРОГІВ	-0.30103
-3.874192	ВОРОГИ	-0.30103
-3.506215	ВОРОГУВАТИ	-0.845098
-3.506215	ВОРОТА	-0.30103
-4.050283	ВОРОТАРЕМ	-0.30103
-4.050283	ВОСТАННЄ	-0.30103
-4.050283	ВОСЬМОГО	-0.30103
-4.050283	ВПІЗНАЄ	-0.30103
-3.874192	ВПАВ	-0.30103
-3.874192	ВПАДЕШ	-0.30103
-4.050283	ВПАЛО	-0.30103
-4.050283	ВПАСТИ	-0.30103
-4.050283	ВПЕРЕД	-0.30103
-4.050283	ВПЕРЛАСЯ	-0.30103
-3.749253	ВПЕРТО	-0.30103
-4.050283	ВПИРАЄ	-0.30103
-4.050283	ВПИРАЄТЬСЯ	-0.30103
-4.050283	ВПУСКАЙ	-0.30103
-4.050283	ВПУСКАТИ	-0.30103
-4.050283	ВПУСТИЛА	-0.30103
-4.050283	ВРАГ	-0.30103
-4.050283	ВРАЖІ	-0.30103
-4.050283	ВРАЖЕНИЙ	-0.30103
-4.050283	ВРАЖЕННЯМ	-0.30103
-3.749253	ВРАЗ	-0.30103
-4.050283	ВРАНЦІ	-0.30103
-4.050283	ВРАХОВУЮЧИ	-0.30103
-3.397071	ВРЕШТІ	-0.30103
-4.050283	ВРЯТОВАНОМУРАШИНИЙ	-0.30103
-3.00889	ВСІ	-0.3117539
-4.050283	ВСІЙ	-0.30103
-3.749253	ВСІЛЯКІ	-0.30103
-3.749253	ВСІМ	-0.30103
-3.351313	ВСІХ	-0.30103
-4.050283	ВСІЯНІ	-0.30103
-4.050283	ВСІЯНОЇ	-0.30103
-2.453686	ВСЕ	-0.5268091
-3.874192	ВСЕРЕДИНІ	-0.30103
-3.652343	ВСЕТАКИ	-0.69897
-4.050283	ВСИДІВ	-0.30103
-3.448223	ВСТАВАЛО	-0.90309
-3.448223	ВСТАНЕ	-0.90309
-4.050283	ВСТЕЛЕНИХ	-0.30103
-4.050283	ВСТИГАЛИ	-0.30103
-4.050283	ВСТИГЛА	-0.30103
-4.050283	ВСТУПАТИ	-0.30103
-4.050283	ВСТУПИТИ	-0.30103
-4.050283	ВСУПЕРЕЧ	-0.30103
-3.874192	ВСЬОМУ	-0.4771213
-3.351313	ВСЮ	-0.7403627
-3.749253	ВСЮДИ	-0.30103
-4.050283	ВСЯ	-0.30103
-3.874192	ВСЯКЕ	-0.30103
-4.050283	ВСЯКОГО	-0.30103
-4.050283	ВСЯКОМУ	-0.30103
-4.050283	ВСЯКУ	-0.30103
-4.050283	ВТІХА	-0.30103
-4.050283	ВТІШИВСЬ	-0.30103
-4.050283	ВТІШИЛИСЯ	-0.30103
-4.050283	ВТЕКЛИ	-0.30103
-4.050283	ВТИКАЙ	-0.30103
-4.050283	ВТОМЛЕНИЙ	-0.30103
-4.050283	ВТРАТИЛО	-0.30103
-3.506215	ВТРАЧАЄ	-0.845098
-4.050283	ВТРАЧАТИ	-0.30103
-4.050283	ВТРИМАТИСЯ	-0.30103
-4.050283	ВТРИМУЄТЬСЯ	-0.30103
-3.652343	ВУЛИЦІ	-0.30103
-4.050283	ВУЛИЦЮ	-0.30103
-3.30992	ВУХА	-0.6368221
-4.050283	ВУХО	-0.30103
-4.050283	ВУХОМ	-0.30103
-4.050283	ВХОПИЛИ	-0.30103
-4.050283	ВХОПИТИ	-0.30103
-4.050283	ВЦІЛІВ	-0.30103
-4.050283	ВЧАСНО	-0.30103
-4.050283	ВЧЕРГОВЕ	-0.30103
-4.050283	ВЧИЛИСЬ	-0.30103
-4.050283	ВЧОРА	-0.30103
-4.050283	ВЧОТИРЬОХ	-0.30103
-4.050283	ВЧУЛИСЯ	-0.30103
-4.050283	ВШИР	-0.30103
-4.050283	ВЩУХ	-0.30103
-4.050283	ГІВНА	-0.30103
-3.874192	ГІВНО	-0.30103
-4.050283	ГІВНОМ	-0.30103
-4.050283	ГІЛЛІ	-0.30103
-4.050283	ГІЛЛЯКИ	-0.30103
-4.050283	ГІЛОК	-0.30103
-3.397071	ГІПОТЕЗ	-0.9542425
-4.050283	ГІРКІШИМИ	-0.30103
-4.050283	ГІРКА	-0.30103
-4.050283	ГІСТЬ	-0.30103
-4.050283	ГАЄМ	-0.30103
-4.050283	ГАВКА	-0.30103
-4.050283	ГАДІСТЮ	-0.30103
-4.050283	ГАЗЕТ	-0.30103
-4.050283	ГАЗЕТА	-0.30103
-3.874192	ГАЗЕТИ	-0.30103
-3.874192	ГАЗЕТУ	-0.30103
-4.050283	ГАЗОВІЙ	-0.30103
-3.874192	ГАЙ	-0.30103
-4.050283	ГАЙДАМАКАОЙ	-0.30103
-3.30992	ГАЙДИ	-1.041393
-4.050283	ГАЛАС	-0.30103
-4.050283	ГАЛАСЛИВІ	-0.30103
-3.072559	ГАЛЕРЕЇ	-1.278754
-3.272132	ГАЛИЧАНАМИ	-1.079181
-4.050283	ГАЛЬМОНУТИЙ	-0.30103
-4.050283	ГАМОРУ	-0.30103
-3.874192	ГАНЬБУ	-0.30103
-4.050283	ГАНЯЮТЬ	-0.30103
-4.050283	ГАРАЗД	-0.30103
-4.050283	ГАРКНЕ	-0.30103
-3.874192	ГАРНА	-0.30103
-3.874192	ГАРНЕНЬКИЙ	-0.30103
-3.874192	ГАРНО	-0.30103
-3.874192	ГАРНОГО	-0.30103
-4.050283	ГАРЯЧЕКВІТИ	-0.30103
-4.050283	ГАРЯЧИЙ	-0.30103
-4.050283	ГАСИЛИ	-0.30103
-4.050283	ГАСТРОЛЕР	-0.30103
-4.050283	ГАСТРОЛЕРІВ	-0.30103
-4.050283	ГАСТРОЛЕРА	-0.30103
-3.874192	ГАСТРОНОМ	-0.30103
-4.050283	ГАСТРОНОМІВ	-0.30103
-4.050283	ГАСТРОНОМУ	-0.30103
-4.050283	ГАТІВНАТИ	-0.30103
-4.050283	ГАТІФНАТІВ	-0.30103
-4.050283	ГАТІФНАТА	-0.30103
-4.050283	ГАТІФНАТАМИ	-0.30103
-3.573162	ГАТІФНАТИ	-0.30103
-4.050283	ГАТЬТА	-0.30103
-3.874192	ГАЮ	-0.30103
-4.050283	ГАЯМИ	-0.30103
-4.050283	ГЕ	-0.30103
-3.874192	ГЕЙ	-0.30103
-4.050283	ГЕКТОР	-0.30103
-4.050283	ГЕМУЛЬ	-0.30103
-4.050283	ГЕН	-0.30103
-3.506215	ГЕОДЕЗІЇ	-0.845098
-4.050283	ГЕОМЕТРИ	-0.30103
-4.050283	ГЕОМЕТРУ	-0.30103
-4.050283	ГЕРОЇ	-0.30103
-4.050283	ГЕРОЇН	-0.30103
-3.874192	ГЕРОЙ	-0.30103
-4.050283	ГЕТЬ	-0.30103
-4.050283	ГЕТЬМАНА	-0.30103
-4.050283	ГЕТЬМАНИ	-0.30103
-4.050283	ГЕТЬМАНОМ	-0.30103
-4.050283	ГЕТЬМАНУ	-0.30103
-4.050283	ГЛАС	-0.30103
-4.050283	ГЛИБИНІ	-0.30103
-4.050283	ГЛИБИНИ	-0.30103
-4.050283	ГЛИБОКИЙ	-0.30103
-3.652343	ГЛИБШЕ	-0.30103
-3.874192	ГЛИБШОЮ	-0.30103
-4.050283	ГЛУМ	-0.30103
-4.050283	ГЛЯДИ	-0.30103
-4.050283	ГЛЯНУВШИ	-0.30103
-4.050283	ГНАЛИ	-0.30103
-4.050283	ГОВОРИВ	-0.30103
-4.050283	ГОВОРИЛА	-0.30103
-3.749253	ГОВОРИЛИ	-0.60206
-3.874192	ГОВОРИМО	-0.30103
-3.050283	ГОВОРИТИ	-0.5282738
-3.072559	ГОВОРИТЬ	-0.3774183
-4.050283	ГОВОРЮ	-0.30103
-3.351313	ГОВОРЯТЬ	-0.39794
-4.050283	ГОДІ	-0.30103
-3.652343	ГОДИНА	-0.30103
-4.050283	ГОДИНУ	-0.30103
-4.050283	ГОДЯЩИЙ	-0.30103
-4.050283	ГОЛІННЯ	-0.30103
-4.050283	ГОЛИТИСЬ	-0.30103
-4.050283	ГОЛИХ	-0.30103
-3.874192	ГОЛОВІ	-0.30103
-4.050283	ГОЛОВА	-0.30103
-4.050283	ГОЛОВАМИ	-0.30103
-3.573162	ГОЛОВИ	-0.30103
-3.30992	ГОЛОВНЕ	-0.4771213
-3.749253	ГОЛОВОЮ	-0.30103
-3.652343	ГОЛОВУ	-0.30103
-3.874192	ГОЛОД	-0.30103
-4.050283	ГОЛОДНА	-0.30103
-4.050283	ГОЛОДНИЙ	-0.30103
-4.050283	ГОЛОДУ	-0.30103
-3.749253	ГОЛОС	-0.30103
-4.050283	ГОЛОСІ	-0.30103
-4.050283	ГОЛОСИ	-0.30103
-4.050283	ГОЛОСИВ	-0.30103
-3.652343	ГОЛОСНО	-0.30103
-4.050283	ГОЛОСНУ	-0.30103
-4.050283	ГОЛУБІВ	-0.30103
-4.050283	ГОЛУБАМИ	-0.30103
-4.050283	ГОЛУБИ	-0.30103
-3.506215	ГОМОНІВ	-0.8450981
-4.050283	ГОМОСЕКСУАЛІЗМОМ	-0.30103
-4.050283	ГОНТОВИМ	-0.30103
-4.050283	ГОПНУЛИ	-0.30103
-4.050283	ГОРІВ	-0.30103
-4.050283	ГОРІВКИ	-0.30103
-3.749253	ГОРІЛА	-0.30103
-4.050283	ГОРІЛИ	-0.30103
-3.874192	ГОРІЛЧАНОЇ	-0.30103
-4.050283	ГОРА	-0.30103
-3.749253	ГОРИ	-0.30103
-4.050283	ГОРЛО	-0.30103
-4.050283	ГОРЛОМ	-0.30103
-4.050283	ГОРЛЯНКИ	-0.30103
-3.874192	ГОРОДА	-0.30103
-4.050283	ГОРОДАХ	-0.30103
-4.050283	ГОРОДОВА	-0.30103
-4.050283	ГОРОДОВИМ	-0.30103
-4.050283	ГОРОДОВИМИ	-0.30103
-4.050283	ГОРОЮ	-0.30103
-3.749253	ГОРУ	-0.39794
-3.874192	ГОСПОДАРЕМ	-0.30103
-3.874192	ГОСПОДИ	-0.30103
-4.050283	ГОСПОДЬ	-0.30103
-3.874192	ГОСТІ	-0.30103
-3.874192	ГОСТЕЙ	-0.30103
-4.050283	ГОСТРОВЕРХИЙ	-0.30103
-3.874192	ГОСТЯ	-0.30103
-4.050283	ГОТОВЕ	-0.30103
-4.050283	ГОТУЄ	-0.30103
-4.050283	ГОТУВАЛИ	-0.30103
-4.050283	ГРІБ	-0.30103
-3.874192	ГРІЗНІ	-0.30103
-4.050283	ГРІЛИСЯ	-0.30103
-4.050283	ГРА	-0.30103
-4.050283	ГРАЄ	-0.30103
-4.050283	ГРАДОМ	-0.30103
-4.050283	ГРАНТ	-0.30103
-4.050283	ГРАЮТЬ	-0.30103
-4.050283	ГРЕБІНЬ	-0.30103
-4.050283	ГРЕБЕЛЬКА	-0.30103
-4.050283	ГРЕБЕНІ	-0.30103
-4.050283	ГРЕБЛИ	-0.30103
-4.050283	ГРЕКОРУСЬКОЮ	-0.30103
-4.050283	ГРИБИ	-0.30103
-4.050283	ГРИБНИКІВ	-0.30103
-4.050283	ГРОМАДИЛИСЯ	-0.30103
-3.874192	ГРОШІ	-0.30103
-4.050283	ГРОШЕЙ	-0.30103
-4.050283	ГРОШОВИТИЙ	-0.30103
-4.050283	ГРОШОВОЮ	-0.30103
-4.050283	ГРУ	-0.30103
-4.050283	ГРУБИЙ	-0.30103
-4.050283	ГРУДЬМИ	-0.30103
-3.874192	ГРУЗИН	-0.30103
-3.874192	ГРУЗИНИ	-0.4771213
-4.050283	ГРУНТ	-0.30103
-3.072559	ГРУПИ	-0.9999998
-4.050283	ГРУШУ	-0.30103
-4.050283	ГРЮКАЄ	-0.30103
-4.050283	ГРЮКАТИ	-0.30103
-4.050283	ГРЮКОТИТЬ	-0.30103
-4.050283	ГУБАХ	-0.30103
-4.050283	ГУБИ	-0.30103
-4.050283	ГУБИЛАСЯ	-0.30103
-4.050283	ГУБЛЯТЬ	-0.30103
-4.050283	ГУЛЕЮ	-0.30103
-4.050283	ГУЛЬК	-0.30103
-4.050283	ГУЛЯЮТЬ	-0.30103
-4.050283	ГУСЛА	-0.30103
-3.874192	ГУСТО	-0.30103
-4.050283	ГУТОРИТЬ	-0.30103
-4.050283	ГУЩІ	-0.30103
-4.050283	ГУЩАВИНИ	-0.30103
-3.448223	ДІЄТИ	-0.90309
-4.050283	ДІБ	-0.30103
-4.050283	ДІБРОВИ	-0.30103
-4.050283	ДІВЧАТ	-0.30103
-3.573162	ДІВЧИНІ	-0.7781513
-4.050283	ДІВЧИНА	-0.30103
-3.874192	ДІДУСЬ	-0.30103
-4.050283	ДІЙСНІСТЮ	-0.30103
-3.397071	ДІЙСТВО	-0.9542425
-4.050283	ДІЙШЛО	-0.30103
-4.050283	ДІЛІ	-0.30103
-4.050283	ДІЛИЛАСЬ	-0.30103
-4.050283	ДІРАМ	-0.30103
-3.749253	ДІСТАЄ	-0.39794
-4.050283	ДІСТАЛИ	-0.30103
-4.050283	ДІСТАЛИСЯ	-0.30103
-3.448223	ДІТЕЙ	-0.6532125
-3.874192	ДІТИ	-0.30103
-3.874192	ДІТОК	-0.30103
-3.874192	ДІТЯМ	-0.30103
-3.120864	ДА	-0.4436975
-3.874192	ДАВ	-0.30103
-4.050283	ДАВАЙ	-0.30103
-4.050283	ДАВАЛИ	-0.30103
-3.448223	ДАВАТИ	-0.9030899
-4.050283	ДАВЛЯЧИ	-0.30103
-4.050283	ДАВНО	-0.30103
-3.397071	ДАВНЬОРУСЬКА	-0.9542425
-3.448223	ДАВНЬОРУСЬКОЇ	-0.90309
-4.050283	ДАВНЮ	-0.30103
-3.205185	ДАЛІ	-0.3187588
-4.050283	ДАЛІЗА	-0.30103
-4.050283	ДАЛА	-0.30103
-4.050283	ДАЛАСЬ	-0.30103
-4.050283	ДАЛЕКІ	-0.30103
-4.050283	ДАЛЕКИМ	-0.30103
-3.874192	ДАЛЕКО	-0.30103
-4.050283	ДАРЕМНО	-0.30103
-4.050283	ДАСТЬ	-0.30103
-4.050283	ДАУНІВ	-0.30103
-3.874192	ДАХ	-0.30103
-4.050283	ДАХИ	-0.30103
-4.050283	ДАХОМ	-0.30103
-4.050283	ДАХУ	-0.30103
-4.050283	ДАЮТЬ	-0.30103
-3.205185	ДВІ	-0.4559319
-4.050283	ДВІР	-0.30103
-3.351313	ДВІЧІ	-0.60206
-3.30992	ДВА	-0.3521825
-4.050283	ДВАДЦЯТКУ	-0.30103
-3.874192	ДВАДЦЯТЬ	-0.30103
-3.874192	ДВЕРІ	-0.30103
-4.050283	ДВЕРЦЯТ	-0.30103
-4.050283	ДВЕРЦЯТА	-0.30103
-3.874192	ДВОЄ	-0.30103
-4.050283	ДВОРІВ	-0.30103
-4.050283	ДВОРАХ	-0.30103
-4.050283	ДВОРУ	-0.30103
-3.874192	ДВОХ	-0.30103
-3.205185	ДЕ	-0.3388185
-4.050283	ДЕВЯТИПОВЕРХІВКУ	-0.30103
-3.749253	ДЕВЯТНАДЦЯТЬ	-0.30103
-4.050283	ДЕВЯТОГО	-0.30103
-4.050283	ДЕДАЛІ	-0.30103
-3.397071	ДЕКІЛЬКА	-0.9542425
-4.050283	ДЕКОТРІ	-0.30103
-4.050283	ДЕМБЕЛЬ	-0.30103
-4.050283	ДЕМОКРАТИЧНОГО	-0.30103
-4.050283	ДЕМПІНГОВОГО	-0.30103
-4.050283	ДЕНЕБУДЬ	-0.30103
-4.050283	ДЕННО	-0.30103
-4.050283	ДЕННОГО	-0.30103
-3.30992	ДЕНЬ	-0.3521825
-3.749253	ДЕРЕВ	-0.30103
-4.050283	ДЕРЕВІ	-0.30103
-3.351313	ДЕРЕВА	-0.30103
-3.749253	ДЕРЕВАМИ	-0.30103
-4.050283	ДЕРЕВО	-0.30103
-3.874192	ДЕРЕВОМ	-0.30103
-3.652343	ДЕРЖАВНА	-0.69897
-4.050283	ДЕРЖАВСЬКІ	-0.30103
-4.050283	ДЕРЖАВЦІВ	-0.30103
-4.050283	ДЕРЖАВЦЯМ	-0.30103
-4.050283	ДЕРЖАЛИ	-0.30103
-4.050283	ДЕРЖАЛИСЬ	-0.30103
-3.175222	ДЕСЬ	-0.3802112
-3.652343	ДЕСЯТА	-0.3679768
-4.050283	ДЕСЯТИЛІТНЮ	-0.30103
-4.050283	ДЕСЯТКІВ	-0.30103
-4.050283	ДЕСЯТКА	-0.30103
-4.050283	ДЕСЯТОК	-0.30103
-3.652343	ДЕСЯТЬ	-0.30103
-3.749253	ДЕЩО	-0.30103
-4.050283	ДЗВОНИ	-0.30103
-4.050283	ДЗВОНИК	-0.30103
-4.050283	ДЗВОНЮ	-0.30103
-4.050283	ДЗЬОБОМ	-0.30103
-4.050283	ДЗЮРКОТІЛИ	-0.30103
-4.050283	ДИВИЛАСЬ	-0.30103
-4.050283	ДИВИНА	-0.30103
-3.874192	ДИВИСЬ	-0.30103
-3.30992	ДИВИТЬСЯ	-0.4771213
-4.050283	ДИВЛЮСЬ	-0.30103
-3.874192	ДИВЛЯТЬСЯ	-0.30103
-4.050283	ДИВЛЯЧИСЬ	-0.30103
-4.050283	ДИВНА	-0.30103
-4.050283	ДИВНИЙ	-0.30103
-4.050283	ДИВНИМИ	-0.30103
-3.506215	ДИВНО	-0.845098
-4.050283	ДИВО	-0.30103
-4.050283	ДИВОКВІТИ	-0.30103
-4.050283	ДИКИЙ	-0.30103
-4.050283	ДИКИМИ	-0.30103
-4.050283	ДИКИХ	-0.30103
-4.050283	ДИКОГО	-0.30103
-3.506215	ДИСКУСІЮ	-0.845098
-4.050283	ДИХА	-0.30103
-3.272132	ДЛЯ	-0.3222193
-3.874192	ДНІ	-0.30103
-3.175222	ДНІВ	-0.4393327
-4.050283	ДНИНА	-0.30103
-4.050283	ДНОМ	-0.30103
-4.050283	ДНЯ	-0.30103
-2.202094	ДО	-0.4045705
-4.050283	ДОЇЗДЯЧИ	-0.30103
-4.050283	ДОБІГТИ	-0.30103
-3.448223	ДОБИ	-0.9030899
-4.050283	ДОБИРАТИСЯ	-0.30103
-4.050283	ДОБИРАЮТЬСЯ	-0.30103
-4.050283	ДОБИТИ	-0.30103
-4.050283	ДОБРА	-0.30103
-3.272132	ДОБРЕ	-0.3222193
-4.050283	ДОБРИХ	-0.30103
-4.050283	ДОБРОГО	-0.30103
-3.874192	ДОБРОДІЮ	-0.30103
-4.050283	ДОБРУ	-0.30103
-3.874192	ДОБУЛА	-0.30103
-4.050283	ДОВІДАЛИСЬ	-0.30103
-4.050283	ДОВІКУ	-0.30103
-3.448223	ДОВІРЯТИ	-0.90309
-4.050283	ДОВГИМ	-0.30103
-4.050283	ДОВГИХ	-0.30103
-3.652343	ДОВГО	-0.30103
-4.050283	ДОВЕДЕТЬСЯ	-0.30103
-3.30992	ДОВКОЛА	-0.6368221
-4.050283	ДОВКОЛАПЕРЕД	-0.30103
-4.050283	ДОВОДИЛОСЬ	-0.30103
-3.874192	ДОВОДИЛОСЯ	-0.30103
-3.448223	ДОДАВАТИ	-0.90309
-3.652343	ДОДОМУ	-0.30103
-4.050283	ДОДУМАЄШ	-0.30103
-4.050283	ДОЗВОЛЯЛА	-0.30103
-3.448223	ДОКИ	-0.30103
-4.050283	ДОКУПИ	-0.30103
-3.749253	ДОЛІ	-0.30103
-4.050283	ДОЛІВКУ	-0.30103
-4.050283	ДОЛАРИ	-0.30103
-3.874192	ДОЛИНІ	-0.30103
-4.050283	ДОЛИНИ	-0.30103
-4.050283	ДОЛИНУВ	-0.30103
-4.050283	ДОЛЮ	-0.30103
-4.050283	ДОМІВКИ	-0.30103
-4.050283	ДОМІРКУВАВСЯ	-0.30103
-4.050283	ДОМАШНІЙ	-0.30103
-4.050283	ДОМИСЛЯЛОСЬ	-0.30103
-4.050283	ДОМОВИЧКАМИ	-0.30103
-4.050283	ДОНБАС	-0.30103
-4.050283	ДОНБАСЬКИЙ	-0.30103
-4.050283	ДОНБАСЬКИМ	-0.30103
-4.050283	ДОНБАСЬКОГО	-0.30103
-4.050283	ДОПИТУВАЛАСЯ	-0.30103
-4.050283	ДОПЛАЧУЄ	-0.30103
-4.050283	ДОПОМАГАТИ	-0.30103
-3.272132	ДОПОМОГОЮ	-1.079181
-4.050283	ДОПОМОГУ	-0.30103
-4.050283	ДОРІЖКА	-0.30103
-4.050283	ДОРІЖЦІ	-0.30103
-3.874192	ДОРОГИ	-0.30103
-3.573162	ДОРОГУ	-0.7781512
-4.050283	ДОРОЗІ	-0.30103
-4.050283	ДОРОСЛІШОМУ	-0.30103
-3.175222	ДОСІ	-0.7533277
-4.050283	ДОСЕРЕДИНИ	-0.30103
-3.652343	ДОСИТЬ	-0.30103
-4.050283	ДОСКОЧИВ	-0.30103
-2.919949	ДОСЛІДЖЕННЯ	-0.9852768
-4.050283	ДОСТАТНЬО	-0.30103
-3.448223	ДОТРИМУВАТИСЯ	-0.90309
-4.050283	ДОЧВАЛАЄ	-0.30103
-4.050283	ДОЧЕКАТИСЬ	-0.30103
-4.050283	ДОЧКУ	-0.30103
-3.874192	ДОЩ	-0.30103
-4.050283	ДОЩІ	-0.30103
-4.050283	ДОЩІВ	-0.30103
-3.874192	ДОЩЕМ	-0.30103
-3.874192	ДОЩОВЕ	-0.4771212
-3.874192	ДОЩУ	-0.30103
-4.050283	ДРІМУЧОГО	-0.30103
-4.050283	ДРАБИНІ	-0.30103
-4.050283	ДРАБИНА	-0.30103
-4.050283	ДРАЙВ	-0.30103
-4.050283	ДРАЛИ	-0.30103
-4.050283	ДРИ	-0.30103
-4.050283	ДРИГЛІ	-0.30103
-3.749253	ДРУГ	-0.30103
-3.874192	ДРУГИЙ	-0.30103
-4.050283	ДРУГОГО	-0.30103
-4.050283	ДРУГОМ	-0.30103
-4.050283	ДРУЖЕ	-0.30103
-4.050283	ДРУЖИТЬ	-0.30103
-4.050283	ДРУЖНІЙ	-0.30103
-4.050283	ДРУЖНЬО	-0.30103
-4.050283	ДРУЖНЯ	-0.30103
-3.272132	ДРУЗІ	-0.3222193
-3.573162	ДРУЗІВ	-0.30103
-3.874192	ДРУЗІРЕКЛАМНИКИ	-0.30103
-4.050283	ДРУЗЯК	-0.30103
-4.050283	ДРУЗЯМ	-0.30103
-3.874192	ДРУЗЯМИ	-0.30103
-4.050283	ДРУКУВАТИ	-0.30103
-4.050283	ДРЮЧКИ	-0.30103
-4.050283	ДРЯПАТИСЯ	-0.30103
-4.050283	ДУБАХ	-0.30103
-4.050283	ДУБОВІ	-0.30103
-4.050283	ДУБОВИХ	-0.30103
-4.050283	ДУВ	-0.30103
-2.874192	ДУЖЕ	-0.4024876
-4.050283	ДУЖУ	-0.30103
-3.652343	ДУМА	-0.69897
-3.23737	ДУМАЄ	-0.39794
-4.050283	ДУМАВ	-0.30103
-4.050283	ДУМАЛИ	-0.30103
-4.050283	ДУМАТИ	-0.30103
-3.874192	ДУМАЮ	-0.30103
-4.050283	ДУМАЮТЬ	-0.30103
-3.749253	ДУМКУ	-0.30103
-3.23737	ДУМОК	-1.113943
-4.050283	ДУРАКІВ	-0.30103
-4.050283	ДУРИТИ	-0.30103
-4.050283	ДУРНІ	-0.30103
-4.050283	ДУХ	-0.30103
-3.09604	ДУХОВНИЙ	-0.9777236
-4.050283	ДУШ	-0.30103
-3.272132	ДУШІ	-0.5740313
-3.749253	ДУША	-0.30103
-4.050283	ДУШИВ	-0.30103
-3.652343	ДУШУ	-0.30103
-3.874192	ЕГЕ	-0.30103
-4.050283	ЕЙ	-0.30103
-4.050283	ЕКОНОМЛЯТЬ	-0.30103
-4.050283	ЕКСКУРСІЇ	-0.30103
-3.506215	ЕКСПОЗИЦІЯ	-0.845098
-4.050283	ЕЛЕКТРИЧКАМИ	-0.30103
-4.050283	ЕЛЕКТРИЧКОЮ	-0.30103
-4.050283	ЕЛЕКТРИЧКУ	-0.30103
-3.506215	ЕМОЦІЙНИЙ	-0.845098
-4.050283	ЕСКАЛАТОРА	-0.30103
-3.448223	ЕТНІЧНОМОВНІ	-0.9030899
-2.580461	Ж	-0.4490925
-3.749253	ЖІНКА	-0.30103
-4.050283	ЖІНКИ	-0.30103
-3.874192	ЖІНКО	-0.30103
-3.874192	ЖІНКУ	-0.30103
-4.050283	ЖІНОК	-0.30103
-4.050283	ЖІНЦІ	-0.30103
-4.050283	ЖАБ	-0.30103
-4.050283	ЖАДЕН	-0.30103
-4.050283	ЖАЛІБНЕ	-0.30103
-4.050283	ЖАЛІБНО	-0.30103
-3.874192	ЖАЛОВАЛИСЬ	-0.30103
-4.050283	ЖАЛОВАТИСЬ	-0.30103
-4.050283	ЖАРИ	-0.30103
-4.050283	ЖАРТ	-0.30103
-3.573162	ЖАРТУЄ	-0.7781512
-3.120864	ЖАХ	-0.9542425
-4.050283	ЖАХІТТЯ	-0.30103
-4.050283	ЖАХЛИВА	-0.30103
-4.050283	ЖАХЛИВИХ	-0.30103
-4.050283	ЖВАВО	-0.30103
-4.050283	ЖДАВ	-0.30103
-3.749253	ЖЕ	-0.30103
-4.050283	ЖИЄ	-0.30103
-4.050283	ЖИВІТ	-0.30103
-3.506215	ЖИВЕ	-0.3424227
-4.050283	ЖИВЕМО	-0.30103
-4.050283	ЖИВИЙ	-0.30103
-4.050283	ЖИВИМИ	-0.30103
-4.050283	ЖИВО	-0.30103
-4.050283	ЖИВОЮ	-0.30103
-3.351313	ЖИВУТЬ	-0.60206
-4.050283	ЖИВУЧИ	-0.30103
-3.749253	ЖИДАМ	-0.30103
-4.050283	ЖИДАМИ	-0.30103
-3.874192	ЖИДИ	-0.30103
-4.050283	ЖИЙТЕ	-0.30103
-3.351313	ЖИТИ	-0.60206
-4.050283	ЖИТТЄВІ	-0.30103
-4.050283	ЖИТТІ	-0.30103
-3.175222	ЖИТТЯ	-0.4393327
-4.050283	ЖОВНІРАМИ	-0.30103
-4.050283	ЖОВНІРИ	-0.30103
-4.050283	ЖОВТИМИ	-0.30103
-4.050283	ЖОВТНІ	-0.30103
-4.050283	ЖОДНІ	-0.30103
-4.050283	ЖОДНЕ	-0.30103
-4.050283	ЖОДНИХ	-0.30103
-4.050283	ЖОДНОЇ	-0.30103
-4.050283	ЖОДНОГО	-0.30103
-4.050283	ЖОЛОБ	-0.30103
-4.050283	ЖУПАНКОВІ	-0.30103
-4.050283	ЖУРОЮ	-0.30103
-2.065756	З	-0.3861128
-3.351313	ЗІ	-0.30103
-4.050283	ЗІЙДЕСЬ	-0.30103
-3.874192	ЗІЙДЕТЬСЯ	-0.30103
-4.050283	ЗІЙШЛА	-0.30103
-4.050283	ЗІЙШОВ	-0.30103
-4.050283	ЗІЛЛЄ	-0.30103
-4.050283	ЗІЛЛЯ	-0.30103
-4.050283	ЗІПНУВ	-0.30103
-4.050283	ЗІПХАЄ	-0.30103
-4.050283	ЗІР	-0.30103
-4.050283	ЗІРВАЛА	-0.30103
-4.050283	ЗІРВАНЕ	-0.30103
-4.050283	ЗІРВАТИ	-0.30103
-3.397071	ЗІРКИ	-0.9542425
-4.050283	ЗІТКАНА	-0.30103
-4.050283	ЗІШТОВХНУТИ	-0.30103
-4.050283	ЗЇДЕНИХ	-0.30103
-4.050283	ЗЇХАТИСЬ	-0.30103
-2.250942	ЗА	-0.4296214
-4.050283	ЗАЇЗДИЛИ	-0.30103
-4.050283	ЗАБІГАЄ	-0.30103
-4.050283	ЗАБОЛІВ	-0.30103
-4.050283	ЗАБУВАЄ	-0.30103
-3.30992	ЗАБУВАЙ	-1.041393
-4.050283	ЗАБУВАЮТЬ	-0.30103
-4.050283	ЗАБУДУ	-0.30103
-3.30992	ЗАБУДЬ	-1.041393
-3.874192	ЗАБУЛИ	-0.30103
-3.652343	ЗАВАДИТИ	-0.69897
-3.874192	ЗАВАЖАЛИ	-0.30103
-4.050283	ЗАВАЖАЮТЬ	-0.30103
-4.050283	ЗАВАЖАЮЧИ	-0.30103
-4.050283	ЗАВАЛЮЄ	-0.30103
-3.874192	ЗАВАЛЮЄТЬСЯ	-0.30103
-3.397071	ЗАВВИШКИ	-0.9542425
-4.050283	ЗАВДАВАВ	-0.30103
-3.397071	ЗАВДЯКИ	-0.9542425
-4.050283	ЗАВЕДЕ	-0.30103
-4.050283	ЗАВЕРТІЛИ	-0.30103
-3.506215	ЗАВЕРШИТИ	-0.845098
-2.807245	ЗАВЖДИ	-0.8239088
-4.050283	ЗАВИСАЄ	-0.30103
-4.050283	ЗАВМЕРЛО	-0.30103
-4.050283	ЗАВМИРАЮТЬ	-0.30103
-3.175222	ЗАВТРА	-0.9030899
-4.050283	ЗАВЯЗ	-0.30103
-4.050283	ЗАВЯЗАВШИ	-0.30103
-3.506215	ЗАГАЛОМ	-0.30103
-4.050283	ЗАГАРТОВАВСЯ	-0.30103
-4.050283	ЗАГОВОРИТЬ	-0.30103
-4.050283	ЗАГОЙДАВ	-0.30103
-4.050283	ЗАГОЙДАВСЯ	-0.30103
-4.050283	ЗАГОРНУЛИСЯ	-0.30103
-4.050283	ЗАГРИВОК	-0.30103
-4.050283	ЗАДНИЦІ	-0.30103
-4.050283	ЗАДОВОЛЕНИЙ	-0.30103
-4.050283	ЗАДОВОЛЕНО	-0.30103
-3.506215	ЗАЗДРИТИ	-0.845098
-3.874192	ЗАЙВОГО	-0.30103
-4.050283	ЗАЙМАЄМОСЬ	-0.30103
-4.050283	ЗАЙМАЄТЬ	-0.30103
-4.050283	ЗАЙМАЄШСЯ	-0.30103
-3.23737	ЗАЙМАЛАСЯ	-1.113943
-3.506215	ЗАЙМАТИМУТЬСЯ	-0.845098
-4.050283	ЗАЙМАТИСЬ	-0.30103
-3.652343	ЗАЙМАТИСЯ	-0.69897
-4.050283	ЗАЙМАЮТЬСЯ	-0.30103
-4.050283	ЗАЙМЕ	-0.30103
-4.050283	ЗАЙМИСЬ	-0.30103
-3.874192	ЗАЙЦЯ	-0.30103
-4.050283	ЗАЙШЛО	-0.30103
-4.050283	ЗАКІНЧИВ	-0.30103
-4.050283	ЗАКІНЧУЄТЬСЯ	-0.30103
-3.272132	ЗАКАРПАТЦЯМИ	-1.079181
-3.506215	ЗАКИДІВ	-0.845098
-4.050283	ЗАКЛИКОМ	-0.30103
-4.050283	ЗАКОВТУЄ	-0.30103
-4.050283	ЗАКОНАМИ	-0.30103
-4.050283	ЗАКОННОГО	-0.30103
-4.050283	ЗАКОПУВАВСЯ	-0.30103
-4.050283	ЗАКОПУВАТИСЯ	-0.30103
-4.050283	ЗАКРИТТЯ	-0.30103
-4.050283	ЗАКРИЧАВ	-0.30103
-4.050283	ЗАКРИЧАЛА	-0.30103
-4.050283	ЗАКРИЧАТИ	-0.30103
-4.050283	ЗАКРУТИВСЯ	-0.30103
-3.652343	ЗАЛ	-0.69897
-4.050283	ЗАЛІЗАЄ	-0.30103
-4.050283	ЗАЛІЗНІЙ	-0.30103
-4.050283	ЗАЛІЗНИЙ	-0.30103
-4.050283	ЗАЛІЗНОГО	-0.30103
-4.050283	ЗАЛІПЛЕНОМУ	-0.30103
-4.050283	ЗАЛАМАВСЯ	-0.30103
-4.050283	ЗАЛИВАЛИСЯ	-0.30103
-4.050283	ЗАЛИЛО	-0.30103
-4.050283	ЗАЛИШИЛИСЬ	-0.30103
-4.050283	ЗАЛИШИЛОСЯ	-0.30103
-3.397071	ЗАЛИШИТИСЯ	-0.9542425
-3.652343	ЗАЛУЧАЮТЬ	-0.69897
-4.050283	ЗАМІСТЬ	-0.30103
-4.050283	ЗАМАЛО	-0.30103
-4.050283	ЗАМАНИТИ	-0.30103
-4.050283	ЗАМЕРЗЛИ	-0.30103
-4.050283	ЗАМКУ	-0.30103
-4.050283	ЗАМНОГО	-0.30103
-4.050283	ЗАМОВКЛИ	-0.30103
-4.050283	ЗАМОРДУВАВ	-0.30103
-4.050283	ЗАМОРОЧУВАТИСЬ	-0.30103
-4.050283	ЗАНИКАНИЙ	-0.30103
-4.050283	ЗАНУРИВ	-0.30103
-4.050283	ЗАНУРИЛИ	-0.30103
-3.506215	ЗАПІЗНАТИ	-0.845098
-3.874192	ЗАПАДЛО	-0.30103
-4.050283	ЗАПАЛА	-0.30103
-4.050283	ЗАПАЛИ	-0.30103
-4.050283	ЗАПАМОРОЧЛИВІЙ	-0.30103
-4.050283	ЗАПАРУВАЛО	-0.30103
-4.050283	ЗАПАШНОГО	-0.30103
-4.050283	ЗАПИВАЄ	-0.30103
-4.050283	ЗАПИТАВ	-0.30103
-4.050283	ЗАПИТАВСЯ	-0.30103
-4.050283	ЗАПИТАЛО	-0.30103
-4.050283	ЗАПИТАННЯ	-0.30103
-4.050283	ЗАПИТАННЯМИ	-0.30103
-4.050283	ЗАПИШАВСЯ	-0.30103
-4.050283	ЗАПЛИВАЄШ	-0.30103
-4.050283	ЗАПЛИЛИ	-0.30103
-4.050283	ЗАПОВІТНІ	-0.30103
-4.050283	ЗАПОВЗАЄШ	-0.30103
-4.050283	ЗАПОВЗЯТО	-0.30103
-4.050283	ЗАПОВНЕНІ	-0.30103
-3.874192	ЗАПОРОЖЖЄ	-0.30103
-3.874192	ЗАПОРОЖЖЯ	-0.30103
-3.874192	ЗАПОРОЗЬКИМ	-0.30103
-4.050283	ЗАПОЮ	-0.30103
-3.506215	ЗАПРОПОНУВАВ	-0.845098
-4.050283	ЗАПРОСИВ	-0.30103
-3.272132	ЗАПРОШЕННЯ	-1.079181
-4.050283	ЗАПРЯГАТИ	-0.30103
-4.050283	ЗАПУСТИЛИ	-0.30103
-3.205185	ЗАРАЗ	-0.3388185
-4.050283	ЗАРЕПЕТУВАЛО	-0.30103
-4.050283	ЗАРОБЛЯТИ	-0.30103
-4.050283	ЗАРОСЛОМУ	-0.30103
-3.874192	ЗАСІВ	-0.4771213
-4.050283	ЗАСИПАВ	-0.30103
-4.050283	ЗАСИПАЛА	-0.30103
-4.050283	ЗАСМІЯВСЯ	-0.30103
-4.050283	ЗАСМУЧЕНІ	-0.30103
-4.050283	ЗАСНУВ	-0.30103
-4.050283	ЗАСОХЛЕ	-0.30103
-4.050283	ЗАСПІВАЛА	-0.30103
-4.050283	ЗАСПОКОЇЛА	-0.30103
-4.050283	ЗАСПОКОЇТИСЬ	-0.30103
-4.050283	ЗАСПОКОЇТИСЯ	-0.30103
-4.050283	ЗАСРАНІ	-0.30103
-4.050283	ЗАСТАЄ	-0.30103
-4.050283	ЗАСТАВАМИ	-0.30103
-3.506215	ЗАСТОСУВАННЯ	-0.845098
-4.050283	ЗАСТУДИШСЯ	-0.30103
-4.050283	ЗАСТУДЯТЬСЯ	-0.30103
-4.050283	ЗАТІНКУ	-0.30103
-4.050283	ЗАТАМОВУЮТЬ	-0.30103
-4.050283	ЗАТИХЛІ	-0.30103
-4.050283	ЗАТИШНОГО	-0.30103
-4.050283	ЗАТУМАНЕНИМ	-0.30103
-3.874192	ЗАТЯГНУЛИ	-0.30103
-4.050283	ЗАТЯГНУЛО	-0.30103
-4.050283	ЗАТЯТІ	-0.30103
-4.050283	ЗАХЛИПАЛИ	-0.30103
-3.874192	ЗАХОДИЛИСЯ	-0.30103
-4.050283	ЗАХОДУ	-0.30103
-4.050283	ЗАХОДЯТЬ	-0.30103
-4.050283	ЗАХОДЯЧИ	-0.30103
-4.050283	ЗАХОПЛЕННЯ	-0.30103
-4.050283	ЗАЧІПАЮЧИСЬ	-0.30103
-4.050283	ЗАЧАРОВАНО	-0.30103
-4.050283	ЗАЧАРОВАНОГО	-0.30103
-4.050283	ЗАЧИНИВ	-0.30103
-4.050283	ЗАЧИНЯЄТЬСЯ	-0.30103
-4.050283	ЗАЯЦЬ	-0.30103
-4.050283	ЗБАВИТЬ	-0.30103
-4.050283	ЗБАГАТИЛОСЬ	-0.30103
-4.050283	ЗБАГНУЛА	-0.30103
-3.506215	ЗБЕРІГАЄТЬСЯ	-0.845098
-3.397071	ЗБЕРЕЖЕННЯ	-0.9542425
-4.050283	ЗБИВАЮЧИСЬ	-0.30103
-4.050283	ЗБИЛИСЯ	-0.30103
-4.050283	ЗБИРАЄ	-0.30103
-4.050283	ЗБИРАЄШСЯ	-0.30103
-4.050283	ЗБИРАЮСЯ	-0.30103
-4.050283	ЗБИРАЮТЬСЯ	-0.30103
-4.050283	ЗБЛІДЛО	-0.30103
-3.874192	ЗБЛИЗЬКА	-0.30103
-3.874192	ЗБЛИСНУЛО	-0.30103
-3.874192	ЗБОКУ	-0.30103
-4.050283	ЗБОРІВ	-0.30103
-4.050283	ЗБРОЙНИЙ	-0.30103
-4.050283	ЗБРОЯ	-0.30103
-4.050283	ЗБУДЖЕНІ	-0.30103
-3.874192	ЗБУДЖЕННЯ	-0.30103
-4.050283	ЗБУДЛИВІШЕ	-0.30103
-4.050283	ЗБУРУНЕНІ	-0.30103
-3.749253	ЗВІДКИ	-0.30103
-3.652343	ЗВІДКИСЬ	-0.3679768
-4.050283	ЗВІДСИ	-0.30103
-4.050283	ЗВІДТИ	-0.30103
-4.050283	ЗВІДУСІЛЬ	-0.30103
-4.050283	ЗВІР	-0.30103
-4.050283	ЗВІРІ	-0.30103
-3.874192	ЗВІРАМ	-0.4771213
-3.874192	ЗВІРАМИ	-0.30103
-4.050283	ЗВІРЯТКАТРОЛІ	-0.30103
-3.09604	ЗВІРЯТКО	-0.314394
-3.874192	ЗВІРЯТКОМ	-0.30103
-3.749253	ЗВІРЯЧИЙ	-0.39794
-3.874192	ЗВІСНО	-0.30103
-4.050283	ЗВАЖАЛИ	-0.30103
-3.448223	ЗВАЖАЮТЬ	-0.9030899
-4.050283	ЗВАЖАЮЧИ	-0.30103
-4.050283	ЗВАЖИВСЯ	-0.30103
-3.874192	ЗВАТИ	-0.30103
-4.050283	ЗВЕ	-0.30103
-4.050283	ЗВЕРТАТИСЬ	-0.30103
-4.050283	ЗВЕЧОРА	-0.30103
-4.050283	ЗВИКЛИ	-0.30103
-3.397071	ЗВИЧАЙНО	-0.30103
-4.050283	ЗВОДИТЬСЯ	-0.30103
-4.050283	ЗВОДЯТЬСЯ	-0.30103
-4.050283	ЗВОЛОЖУЮТЬСЯ	-0.30103
-4.050283	ЗВОРУШЕНІ	-0.30103
-4.050283	ЗВУКАМИ	-0.30103
-4.050283	ЗВУЧАТЬ	-0.30103
-3.506215	ЗГАДАНОМУ	-0.845098
-3.874192	ЗГАДАТИ	-0.30103
-3.874192	ЗГАДУЄ	-0.30103
-4.050283	ЗГАДУЮТЬ	-0.30103
-4.050283	ЗГАСЛА	-0.30103
-4.050283	ЗГОДЕН	-0.30103
-3.272132	ЗГОДОМ	-1.079181
-4.050283	ЗГОРИ	-0.30103
-4.050283	ЗГРАЇ	-0.30103
-4.050283	ЗДІЙНЯЛИСЯ	-0.30103
-3.00889	ЗДАЄТЬСЯ	-0.7160034
-4.050283	ЗДАВАЛИСЯ	-0.30103
-3.874192	ЗДАВАЛОСЯ	-0.30103
-4.050283	ЗДАВНА	-0.30103
-4.050283	ЗДАТНІСТЬ	-0.30103
-4.050283	ЗДАЮТЬСЯ	-0.30103
-3.874192	ЗДЕБІЛЬШОГО	-0.30103
-4.050283	ЗДИБАВ	-0.30103
-4.050283	ЗДИВОВАНІ	-0.30103
-4.050283	ЗДИРАЮЧИ	-0.30103
-4.050283	ЗДОГАДАТИСЬ	-0.30103
-4.050283	ЗДОГАДАЮТЬСЯ	-0.30103
-3.272132	ЗДОГАДУЄМОСЯ	-1.079181
-4.050283	ЗДОРОВЕ	-0.30103
-3.448223	ЗДОРОВЯ	-0.9030899
-4.050283	ЗДОХЛИЙ	-0.30103
-4.050283	ЗДОХНУТИ	-0.30103
-4.050283	ЗДУЛОСЯ	-0.30103
-4.050283	ЗЕКИ	-0.30103
-4.050283	ЗЕЛЕНА	-0.30103
-4.050283	ЗЕЛЕНИМИ	-0.30103
-4.050283	ЗЕЛЕНИХ	-0.30103
-4.050283	ЗЕЛЕНКУВАТІ	-0.30103
-4.050283	ЗЕЛЕНОГО	-0.30103
-4.050283	ЗЕЛЕНУ	-0.30103
-4.050283	ЗЕЛЕНЬ	-0.30103
-3.397071	ЗЕМЛІ	-0.6989701
-4.050283	ЗЕМЛЕЮ	-0.30103
-3.448223	ЗЕМЛЮ	-0.30103
-4.050283	ЗЕМЛЯ	-0.30103
-4.050283	ЗЕМЛЯКАМ	-0.30103
-4.050283	ЗЕМЛЯКИ	-0.30103
-3.874192	ЗИМИ	-0.4771213
-4.050283	ЗИМОВНИКОМ	-0.30103
-4.050283	ЗИМОВНИКУ	-0.30103
-4.050283	ЗИСК	-0.30103
-4.050283	ЗЛІЗ	-0.30103
-4.050283	ЗЛІСТЬ	-0.30103
-3.874192	ЗЛА	-0.4771212
-4.050283	ЗЛИВОЮ	-0.30103
-4.050283	ЗЛИЙ	-0.30103
-3.506215	ЗЛИТИСЯ	-0.845098
-3.351313	ЗЛО	-1
-3.874192	ЗЛОДІЙ	-0.30103
-4.050283	ЗЛОМ	-0.30103
-4.050283	ЗЛОСТІ	-0.30103
-4.050283	ЗЛУДА	-0.30103
-4.050283	ЗЛЯКАЛАСЯ	-0.30103
-4.050283	ЗМІЙ	-0.30103
-3.397071	ЗМІНЕТЬСЯ	-0.9542425
-4.050283	ЗМІРКУЙ	-0.30103
-4.050283	ЗМІСТ	-0.30103
-4.050283	ЗМІЯ	-0.30103
-4.050283	ЗМАХНУВШИ	-0.30103
-4.050283	ЗМАХУЮЧИ	-0.30103
-4.050283	ЗМЕРЗЛИЙ	-0.30103
-4.050283	ЗМИЛО	-0.30103
-4.050283	ЗМИРИВСЯ	-0.30103
-4.050283	ЗМОГЛИ	-0.30103
-4.050283	ЗМУСИВ	-0.30103
-4.050283	ЗМУЧЕНИЙ	-0.30103
-4.050283	ЗМУЧЕНИМИ	-0.30103
-4.050283	ЗНІМАЄ	-0.30103
-4.050283	ЗНІЧЕНО	-0.30103
-4.050283	ЗНА	-0.30103
-3.573162	ЗНАЄ	-0.30103
-3.749253	ЗНАЄТЕ	-0.39794
-4.050283	ЗНАЄШ	-0.30103
-3.874192	ЗНАВ	-0.4771213
-4.050283	ЗНАЙ	-0.30103
-4.050283	ЗНАЙДЕ	-0.30103
-4.050283	ЗНАЙДЕТЬСЯ	-0.30103
-3.448223	ЗНАЙДЕШ	-0.9030899
-3.448223	ЗНАЙДУТЬСЯ	-0.9030899
-3.749253	ЗНАЙОМІ	-0.30103
-3.573162	ЗНАЙОМІЙ	-0.7781513
-3.573162	ЗНАЙОМИХ	-0.30103
-4.050283	ЗНАЙТИ	-0.30103
-4.050283	ЗНАЙШЛИ	-0.30103
-4.050283	ЗНАК	-0.30103
-3.351313	ЗНАЛИ	-0.7403627
-4.050283	ЗНАМЕНА	-0.30103
-4.050283	ЗНАМЕНИТА	-0.30103
-4.050283	ЗНАМЕНИТИЙ	-0.30103
-4.050283	ЗНАМЕНО	-0.30103
-3.23737	ЗНАННЯ	-0.845098
-3.874192	ЗНАТИ	-0.30103
-3.874192	ЗНАТЬ	-0.4771212
-4.050283	ЗНАХОДЯТЬ	-0.30103
-3.30992	ЗНАЧИТЬ	-0.636822
-4.050283	ЗНАЧКИ	-0.30103
-4.050283	ЗНАЧНИЙ	-0.30103
-3.029094	ЗНАЮ	-0.4771212
-4.050283	ЗНЕВАЖАЄ	-0.30103
-3.874192	ЗНЕВАЖАЄТЕ	-0.30103
-4.050283	ЗНЕВАЖАТИ	-0.30103
-4.050283	ЗНЕМАГАЮЧИ	-0.30103
-4.050283	ЗНЕМОЖЕНО	-0.30103
-4.050283	ЗНЕНАЦЬКА	-0.30103
-4.050283	ЗНЕСЛА	-0.30103
-4.050283	ЗНИЖОК	-0.30103
-3.874192	ЗНИЗУ	-0.30103
-3.652343	ЗНИК	-0.30103
-4.050283	ЗНИКАЄ	-0.30103
-4.050283	ЗНИКАЮТЬ	-0.30103
-4.050283	ЗНИКЛИ	-0.30103
-4.050283	ЗНИКНУВШИ	-0.30103
-3.874192	ЗНОВ	-0.30103
-3.448223	ЗНОВУ	-0.3357921
-4.050283	ЗНОСИТЬ	-0.30103
-4.050283	ЗНУДИЛО	-0.30103
-4.050283	ЗНЯВ	-0.30103
-4.050283	ЗНЯВСЯ	-0.30103
-3.506215	ЗНЯЛИ	-0.845098
-3.874192	ЗО	-0.30103
-4.050283	ЗОВНІ	-0.30103
-4.050283	ЗОВНІШНОСТІ	-0.30103
-3.272132	ЗОВСІМ	-0.30103
-4.050283	ЗОКРЕМА	-0.30103
-3.874192	ЗОЛОТІ	-0.30103
-4.050283	ЗОЛОТИСТИМ	-0.30103
-4.050283	ЗОЛОТИСТОГО	-0.30103
-4.050283	ЗОЛОТИХ	-0.30103
-4.050283	ЗОЛОТОЗУБИЙ	-0.30103
-4.050283	ЗОМЛІЛИЙ	-0.30103
-3.448223	ЗОРІ	-0.90309
-4.050283	ЗОРИВ	-0.30103
-4.050283	ЗОСТАЛИСЯ	-0.30103
-3.874192	ЗПОЗА	-0.30103
-4.050283	ЗПОМІЖ	-0.30103
-4.050283	ЗРАДИ	-0.30103
-4.050283	ЗРАЗОК	-0.30103
-4.050283	ЗРАНКУ	-0.30103
-3.874192	ЗРЕШТОЮ	-0.30103
-3.874192	ЗРИВАЮТЬСЯ	-0.30103
-4.050283	ЗРИВАЮЧИ	-0.30103
-4.050283	ЗРОБИВСЬ	-0.30103
-4.050283	ЗРОБИЛА	-0.30103
-3.874192	ЗРОБИЛИ	-0.30103
-3.874192	ЗРОБИТИ	-0.30103
-3.23737	ЗРОБИТЬ	-1.113943
-4.050283	ЗРОБЛЮ	-0.30103
-3.448223	ЗРОБЛЯТЬ	-0.90309
-4.050283	ЗРОДУ	-0.30103
-3.749253	ЗРОЗУМІВ	-0.30103
-3.749253	ЗРОЗУМІЛИ	-0.30103
-4.050283	ЗРОЗУМІЛО	-0.30103
-3.652343	ЗРОЗУМІТИ	-0.30103
-3.272132	ЗРОСЛА	-1.079181
-4.050283	ЗСАДИВ	-0.30103
-4.050283	ЗСЕРЕДИНИ	-0.30103
-4.050283	ЗСУНУТИ	-0.30103
-4.050283	ЗУБАМИ	-0.30103
-4.050283	ЗУБАТИЙ	-0.30103
-4.050283	ЗУБИ	-0.30103
-4.050283	ЗУБНОГО	-0.30103
-3.749253	ЗУПИНЯЄТЬСЯ	-0.30103
-4.050283	ЗУПИНЯТИСЯ	-0.30103
-3.397071	ЗУСИЛЛЯМ	-0.9542425
-4.050283	ЗУСИЛЛЯМИ	-0.30103
-4.050283	ЗУСТРІЧАЄ	-0.30103
-4.050283	ЗУСТРІЧАЄТЬСЯ	-0.30103
-4.050283	ЗУСТРІЧАВСЯ	-0.30103
-3.652343	ЗЯВЛЯЮТЬСЯ	-0.3679768
-3.272132	ЗЯСУВАЛОСЯ	-1.079181
-2.290615	Й	-0.3449355
-3.652343	ЙДЕ	-0.30103
-4.050283	ЙДТИ	-0.30103
-4.050283	ЙДУТЬ	-0.30103
-3.874192	ЙОБНУТИЙ	-0.30103
-2.378185	ЙОГО	-0.4109916
-2.971102	ЙОМУ	-0.30103
-3.874192	ЙШЛА	-0.4771212
-3.874192	ЙШЛИ	-0.30103
-4.050283	К	-0.30103
-4.050283	КІЛЬКІСТЮ	-0.30103
-3.147193	КІЛЬКА	-0.3735807
-4.050283	КІЛЬКОМА	-0.30103
-3.874192	КІЛЬКОХ	-0.30103
-4.050283	КІЛЬЦЕВІЙ	-0.30103
-3.874192	КІЛЬЦЕВОЇ	-0.30103
-4.050283	КІМНАТ	-0.30103
-4.050283	КІМНАТІ	-0.30103
-4.050283	КІМНАТАХ	-0.30103
-3.652343	КІМНАТИ	-0.30103
-3.749253	КІНЕЦЬ	-0.30103
-3.874192	КІНЦЕВО	-0.30103
-4.050283	КІНЦЕВУ	-0.30103
-4.050283	КІНЦЯ	-0.30103
-3.874192	КІОСК	-0.30103
-3.652343	КІОСКІВ	-0.30103
-4.050283	КІОСКАХ	-0.30103
-4.050283	КІОСКИ	-0.30103
-3.874192	КІОСКУ	-0.30103
-4.050283	КІТ	-0.30103
-3.749253	КІШКА	-0.30103
-4.050283	КАГЕБІСТИ	-0.30103
-3.272132	КАДЕНЦІЇ	-1.079181
-4.050283	КАДЦІ	-0.30103
-2.874192	КАЖЕ	-0.3891661
-3.874192	КАЖУ	-0.30103
-3.397071	КАЖУТЬ	-0.69897
-3.874192	КАЖУЧИ	-0.30103
-4.050283	КАЗАВ	-0.30103
-4.050283	КАЗАЛИ	-0.30103
-4.050283	КАЗАНИ	-0.30103
-4.050283	КАЗАТИ	-0.30103
-4.050283	КАЗНА	-0.30103
-4.050283	КАЗНАЗВІДКИ	-0.30103
-4.050283	КАЙЗЕРІВ	-0.30103
-3.874192	КАЙЗЕРИ	-0.30103
-3.397071	КАКАО	-0.30103
-4.050283	КАКТУСІВ	-0.30103
-4.050283	КАЛЮЖАХ	-0.30103
-4.050283	КАМІНЬ	-0.30103
-4.050283	КАМАНДІР	-0.30103
-4.050283	КАНАБІСІ	-0.30103
-4.050283	КАНАБІСОМ	-0.30103
-4.050283	КАПІТАЛУ	-0.30103
-4.050283	КАПРОНОВИХ	-0.30103
-4.050283	КАРАМЕЛЬКИ	-0.30103
-4.050283	КАРАМЕЛЬОК	-0.30103
-4.050283	КАРБЮРАТОР	-0.30103
-3.749253	КАРБЮРАТОРА	-0.30103
-4.050283	КАРМУ	-0.30103
-4.050283	КАТАФАЛК	-0.30103
-4.050283	КАТОЛИКІВ	-0.30103
-4.050283	КАТОЛИЦЬКІ	-0.30103
-3.506215	КАФЕДР	-0.845098
-4.050283	КАХЛЯНИМИ	-0.30103
-4.050283	КАХЛЯНУ	-0.30103
-4.050283	КАШЛЯТИ	-0.30103
-3.874192	КВІТАМИ	-0.30103
-3.874192	КВІТИ	-0.30103
-4.050283	КВІТОКЛІХТАРИКІВ	-0.30103
-4.050283	КВІТУЧИМИ	-0.30103
-4.050283	КВІТУЧОГО	-0.30103
-4.050283	КВАКА	-0.30103
-4.050283	КВАПЛЯЧИСЬ	-0.30103
-4.050283	КВАС	-0.30103
-3.448223	КВИТКІВ	-0.6532125
-4.050283	КВИТКАМИ	-0.30103
-4.050283	КВИТКАХ	-0.30103
-4.050283	КВИТКИ	-0.30103
-3.652343	КГБ	-0.30103
-3.30992	КЕРІВНИК	-1.041393
-4.050283	КЕРМАНА	-0.30103
-3.749253	КИЄВА	-0.30103
-4.050283	КИЇВСЬКІЙ	-0.30103
-3.652343	КИДАЄ	-0.30103
-3.506215	КИДАТИ	-0.8450981
-4.050283	КИДАЮТЬ	-0.30103
-4.050283	КИМ	-0.30103
-4.050283	КИМОСЬ	-0.30103
-4.050283	КИНЕШ	-0.30103
-3.874192	КИНУВ	-0.30103
-4.050283	КИНУВСЯ	-0.30103
-4.050283	КИНУЛАСЯ	-0.30103
-4.050283	КИНУЛИСЬ	-0.30103
-4.050283	КИНУЛИСЯ	-0.30103
-4.050283	КИШЕНІ	-0.30103
-4.050283	КИШЕЧНИКУ	-0.30103
-3.506215	КЛІМАТ	-0.845098
-3.397071	КЛАДОВИЩА	-0.9542425
-4.050283	КЛАДУТЬ	-0.30103
-4.050283	КЛАПАНЮ	-0.30103
-4.050283	КЛАПТЯМИ	-0.30103
-4.050283	КЛЕКІТЛИВІ	-0.30103
-4.050283	КЛЕРКІВ	-0.30103
-4.050283	КЛОУНИ	-0.30103
-3.874192	КЛЬОВО	-0.30103
-4.050283	КЛЮЧНИК	-0.30103
-4.050283	КЛЯНЧИМО	-0.30103
-3.397071	КНИГ	-0.9542425
-3.397071	КНИГОЮ	-0.9542425
-3.351313	КНИГУ	-1
-4.050283	КОВАЛІ	-0.30103
-4.050283	КОВБАСИ	-0.30103
-4.050283	КОВДРУ	-0.30103
-3.506215	КОГО	-0.30103
-3.749253	КОГОСЬ	-0.30103
-3.749253	КОЖДИЙ	-0.30103
-3.506215	КОЖЕН	-0.4771213
-4.050283	КОЖНИЙ	-0.30103
-4.050283	КОЖНОГО	-0.30103
-4.050283	КОЖНОЮ	-0.30103
-3.652343	КОЗАК	-0.30103
-3.874192	КОЗАКАМ	-0.30103
-3.749253	КОЗАКАМИ	-0.39794
-4.050283	КОЗАКИ	-0.30103
-4.050283	КОЗАРЛЮГА	-0.30103
-4.050283	КОЗАЦТВА	-0.30103
-4.050283	КОЗАЦЬКІЇ	-0.30103
-3.874192	КОЗАЦЬКА	-0.30103
-3.874192	КОЗАЦЬКОГО	-0.30103
-4.050283	КОЗАЦЬКОЮ	-0.30103
-4.050283	КОЗАЧИХ	-0.30103
-4.050283	КОЛІНА	-0.30103
-4.050283	КОЛІНАХ	-0.30103
-4.050283	КОЛІНО	-0.30103
-4.050283	КОЛІР	-0.30103
-4.050283	КОЛАМИ	-0.30103
-4.050283	КОЛЕКТИВ	-0.30103
-2.888915	КОЛИ	-0.3565473
-4.050283	КОЛИНЕБУДЬ	-0.30103
-3.874192	КОЛО	-0.30103
-4.050283	КОЛОНАМИ	-0.30103
-3.874192	КОЛУ	-0.30103
-4.050283	КОМІКСІВ	-0.30103
-4.050283	КОМІСАРИ	-0.30103
-3.573162	КОМАНДИ	-0.4259687
-3.874192	КОМПАНІЇ	-0.30103
-3.749253	КОМПАНІЯ	-0.30103
-4.050283	КОМПАНІЯХ	-0.30103
-4.050283	КОМПРОМІСІВ	-0.30103
-4.050283	КОМСОМОЛЬСЬКОМУ	-0.30103
-3.749253	КОМУНІСТ	-0.30103
-3.23737	КОМУСЬ	-0.69897
-4.050283	КОНІ	-0.30103
-4.050283	КОНДАКІВ	-0.30103
-4.050283	КОНСИСТЕНТІВ	-0.30103
-4.050283	КОНСИСТУЮЧИ	-0.30103
-4.050283	КОНСТРУКЦІЇ	-0.30103
-3.506215	КОНТАКТ	-0.845098
-4.050283	КОНТАКТНИЙ	-0.30103
-4.050283	КОНТОРІ	-0.30103
-4.050283	КОНТОРА	-0.30103
-4.050283	КОНТОРУ	-0.30103
-4.050283	КОНТРАБАНДУ	-0.30103
-3.652343	КОНЦЕРТНИЙ	-0.69897
-4.050283	КОНЯ	-0.30103
-4.050283	КОНЯХ	-0.30103
-4.050283	КОПИТА	-0.30103
-4.050283	КОРІННЯ	-0.30103
-4.050283	КОРІНЦЯМИ	-0.30103
-3.749253	КОРДОН	-0.30103
-4.050283	КОРДОНУ	-0.30103
-4.050283	КОРЕНЯ	-0.30103
-3.874192	КОРЕСПОНДЕНЦІЄЮ	-0.30103
-4.050283	КОРИДОР	-0.30103
-4.050283	КОРИДОРАМИ	-0.30103
-4.050283	КОРИДОРУ	-0.30103
-4.050283	КОРИСНИМ	-0.30103
-4.050283	КОРИСТІ	-0.30103
-4.050283	КОРИСТЬ	-0.30103
-4.050283	КОРКОТЯГ	-0.30103
-4.050283	КОРОГВАМИ	-0.30103
-3.874192	КОРОЛЯ	-0.30103
-4.050283	КОРОННОГО	-0.30103
-4.050283	КОРОННОМУ	-0.30103
-4.050283	КОРОТШЕ	-0.30103
-4.050283	КОРТІЛО	-0.30103
-4.050283	КОСИСТЕНТИ	-0.30103
-4.050283	КОСМЕТИКА	-0.30103
-4.050283	КОСМЕТИКИ	-0.30103
-4.050283	КОСМЕТИКУ	-0.30103
-4.050283	КОСТІ	-0.30103
-3.874192	КОСТЮМ	-0.30103
-3.874192	КОСТЮМІ	-0.30103
-3.749253	КОТОРІ	-0.30103
-3.573162	КОТРІ	-0.30103
-3.749253	КОТРА	-0.30103
-3.749253	КОТРИЙ	-0.30103
-3.272132	КОТРИМ	-1.079181
-4.050283	КОТРИМИ	-0.30103
-4.050283	КОТРОГОСЬ	-0.30103
-4.050283	КОТРУ	-0.30103
-4.050283	КОХАЮТЬСЯ	-0.30103
-4.050283	КОШЕНЯТ	-0.30103
-4.050283	КОШЕНЯТАМИ	-0.30103
-4.050283	КОШИКОМ	-0.30103
-4.050283	КОШТОВНОСТЯМИ	-0.30103
-3.397071	КОШТУВАТИМЕ	-0.9542425
-3.573162	КРІЗЬ	-0.30103
-3.874192	КРІМ	-0.30103
-3.874192	КРІПЛЕННЯ	-0.30103
-4.050283	КРІСЛІ	-0.30103
-3.874192	КРІСЛА	-0.30103
-3.573162	КРІСЛО	-0.30103
-4.050283	КРАЇНІ	-0.30103
-4.050283	КРАЇНА	-0.30103
-4.050283	КРАЇНУ	-0.30103
-4.050283	КРАВЦІ	-0.30103
-3.874192	КРАЙ	-0.30103
-4.050283	КРАСНІЙ	-0.30103
-3.175222	КРАЩЕ	-0.4393327
-4.050283	КРАЩОГО	-0.30103
-4.050283	КРАЮ	-0.30103
-4.050283	КРИВІЙ	-0.30103
-4.050283	КРИВА	-0.30103
-3.874192	КРИВДИВ	-0.4771212
-4.050283	КРИЙ	-0.30103
-3.749253	КРИКНУ	-0.30103
-3.874192	КРИКНУВ	-0.30103
-3.652343	КРИКНУТИ	-0.30103
-4.050283	КРИКОМ	-0.30103
-4.050283	КРИЛАМИ	-0.30103
-4.050283	КРИТИ	-0.30103
-4.050283	КРИХІТКУ	-0.30103
-3.120864	КРИХІТНЕ	-1.230449
-3.874192	КРИХІТНИМ	-0.4771212
-4.050283	КРИХІТНИХ	-0.30103
-3.652343	КРИЧАТИ	-0.30103
-3.874192	КРИЧАТЬ	-0.30103
-4.050283	КРИЧИТЬ	-0.30103
-4.050283	КРИЧИШ	-0.30103
-3.573162	КРИЧУ	-0.30103
-3.749253	КРОВ	-0.30103
-4.050283	КРОВЮ	-0.30103
-4.050283	КРОК	-0.30103
-4.050283	КРОКУВАЛА	-0.30103
-4.050283	КРУГЛИЙ	-0.30103
-4.050283	КРУГЛИМ	-0.30103
-4.050283	КРУГЛИМИ	-0.30103
-4.050283	КРУГЛОЮ	-0.30103
-4.050283	КРУГОВЕРТІ	-0.30103
-3.874192	КРУГОМ	-0.30103
-4.050283	КРУТИ	-0.30103
-4.050283	КРУТИВ	-0.30103
-4.050283	КРУТИТЬСЯ	-0.30103
-3.874192	КРУЧЕНИМИ	-0.4771212
-4.050283	КУБЕЛЬЦЕ	-0.30103
-3.652343	КУДИ	-0.30103
-3.749253	КУДИСЬ	-0.30103
-4.050283	КУКАРЕКО	-0.30103
-4.050283	КУЛАК	-0.30103
-4.050283	КУЛЬЧИКИ	-0.30103
-4.050283	КУМКАННЯ	-0.30103
-4.050283	КУМПАНІЯ	-0.30103
-4.050283	КУПАТИСЯ	-0.30103
-3.874192	КУПИВ	-0.30103
-3.874192	КУПИТИ	-0.30103
-4.050283	КУПУ	-0.30103
-3.652343	КУПУЮТЬ	-0.30103
-3.874192	КУРЄРОМ	-0.30103
-4.050283	КУРИТЬ	-0.30103
-4.050283	КУРКА	-0.30103
-4.050283	КУРС	-0.30103
-3.874192	КУРСІ	-0.30103
-4.050283	КУРСАНТІВ	-0.30103
-4.050283	КУРСИ	-0.30103
-4.050283	КУСАЄ	-0.30103
-4.050283	КУТОЧОК	-0.30103
-4.050283	КУХНЕЮ	-0.30103
-4.050283	КУХНЮ	-0.30103
-4.050283	КУЦІ	-0.30103
-4.050283	ЛІВОРУЧ	-0.30103
-4.050283	ЛІВУ	-0.30103
-4.050283	ЛІД	-0.30103
-3.272132	ЛІДЕР	-1.079181
-4.050283	ЛІЖКО	-0.30103
-4.050283	ЛІЗЕ	-0.30103
-3.874192	ЛІЗТИ	-0.30103
-4.050283	ЛІКЕРИ	-0.30103
-4.050283	ЛІКЕРО	-0.30103
-4.050283	ЛІКУВАЛЬНІ	-0.30103
-3.205185	ЛІКУВАННЯ	-0.8750613
-3.874192	ЛІЛІЇ	-0.30103
-3.874192	ЛІПШЕ	-0.30103
-3.874192	ЛІС	-0.30103
-4.050283	ЛІСКУ	-0.30103
-3.874192	ЛІТАВ	-0.30103
-4.050283	ЛІТАКА	-0.30103
-4.050283	ЛІТАКОМ	-0.30103
-4.050283	ЛІТАТИ	-0.30103
-3.506215	ЛІТЕРАТУРНИЙ	-0.845098
-4.050283	ЛІТНЬОГО	-0.30103
-3.749253	ЛІТО	-0.30103
-3.874192	ЛІТРОВИХ	-0.30103
-3.573162	ЛАБОРАТОРІЇ	-0.7781513
-3.506215	ЛАБОРАТОРІЯ	-0.845098
-4.050283	ЛАВІ	-0.30103
-4.050283	ЛАВАМИ	-0.30103
-4.050283	ЛАВАХ	-0.30103
-4.050283	ЛАВУ	-0.30103
-4.050283	ЛАДИ	-0.30103
-4.050283	ЛАДИЛИ	-0.30103
-4.050283	ЛАДНО	-0.30103
-4.050283	ЛАЖОВІ	-0.30103
-4.050283	ЛАЗИВ	-0.30103
-4.050283	ЛАЙНО	-0.30103
-4.050283	ЛАМАЛО	-0.30103
-3.874192	ЛАМПА	-0.30103
-3.874192	ЛАПКАМИ	-0.30103
-3.652343	ЛАПКИ	-0.30103
-4.050283	ЛАПКУ	-0.30103
-4.050283	ЛАСКА	-0.30103
-4.050283	ЛАСОЩІВ	-0.30103
-4.050283	ЛАЮЧИ	-0.30103
-3.272132	ЛЕВ	-0.5740312
-4.050283	ЛЕВА	-0.30103
-4.050283	ЛЕВАДАМИ	-0.30103
-3.397071	ЛЕВИ	-0.9542425
-4.050283	ЛЕГЕНЬКИЙ	-0.30103
-3.506215	ЛЕГКА	-0.8450981
-4.050283	ЛЕГШЕ	-0.30103
-3.749253	ЛЕДВЕ	-0.30103
-3.448223	ЛЕДЬ	-0.3802113
-3.874192	ЛЕЖАТЬ	-0.30103
-3.874192	ЛЕЖИТЬ	-0.30103
-4.050283	ЛЕЖУ	-0.30103
-4.050283	ЛЕМЕНТ	-0.30103
-4.050283	ЛЕТІВ	-0.30103
-4.050283	ЛЕТИТЬ	-0.30103
-4.050283	ЛИВ	-0.30103
-4.050283	ЛИПІ	-0.30103
-3.205185	ЛИС	-0.4191293
-4.050283	ЛИСА	-0.30103
-4.050283	ЛИСОМ	-0.30103
-3.874192	ЛИСТ	-0.30103
-4.050283	ЛИСТИ	-0.30103
-3.874192	ЛИСТОК	-0.4771212
-4.050283	ЛИХО	-0.30103
-4.050283	ЛИХОГО	-0.30103
-4.050283	ЛИЦАРСЬКИМ	-0.30103
-3.30992	ЛИШ	-0.30103
-4.050283	ЛИШАЄТЬСЯ	-0.30103
-2.971102	ЛИШЕ	-0.4900862
-4.050283	ЛИШИВ	-0.30103
-4.050283	ЛИШИВСЯ	-0.30103
-4.050283	ЛИШИЛАСЯ	-0.30103
-4.050283	ЛОГАЗУ	-0.30103
-4.050283	ЛОЗАМИ	-0.30103
-4.050283	ЛОМКАХ	-0.30103
-4.050283	ЛОТЕРЕЙНІ	-0.30103
-4.050283	ЛОТЕРЕЙНИМИ	-0.30103
-4.050283	ЛОТЕРЕЮ	-0.30103
-4.050283	ЛОТЕРЕЯ	-0.30103
-3.874192	ЛОХ	-0.30103
-4.050283	ЛУГИ	-0.30103
-4.050283	ЛУКИ	-0.30103
-4.050283	ЛУНА	-0.30103
-4.050283	ЛУНАЄ	-0.30103
-4.050283	ЛУШПАЙКУ	-0.30103
-3.397071	ЛЬВІВСЬКИЙ	-0.9542425
-3.573162	ЛЬВІВСЬКОЇ	-0.7781513
-3.506215	ЛЬВОВІ	-0.8450981
-3.397071	ЛЬВОВА	-0.9542425
-3.506215	ЛЬВОВОМ	-0.845098
-4.050283	ЛЬОДОВИХ	-0.30103
-4.050283	ЛЮБИВ	-0.30103
-4.050283	ЛЮБИЙ	-0.30103
-4.050283	ЛЮБИЛА	-0.30103
-4.050283	ЛЮБИМО	-0.30103
-3.448223	ЛЮБИТИ	-0.90309
-3.029094	ЛЮБИТЬ	-0.7781513
-3.573162	ЛЮБЛЮ	-0.30103
-2.953373	ЛЮБЛЯТЬ	-0.9542425
-4.050283	ЛЮБО	-0.30103
-4.050283	ЛЮБОВ	-0.30103
-4.050283	ЛЮБОВІ	-0.30103
-3.749253	ЛЮД	-0.39794
-3.652343	ЛЮДЕЙ	-0.30103
-3.072559	ЛЮДИ	-0.7403627
-4.050283	ЛЮДИНОЮ	-0.30103
-3.506215	ЛЮДИНУ	-0.845098
-3.874192	ЛЮДСЬКИХ	-0.30103
-2.953373	ЛЮДЯМ	-0.845098
-4.050283	ЛЮТИМИ	-0.30103
-4.050283	ЛЯКАЄТЬСЯ	-0.30103
-4.050283	ЛЯПАЄТЬСЯ	-0.30103
-3.573162	ЛЯХІВ	-0.3521825
-4.050283	ЛЯХА	-0.30103
-4.050283	ЛЯХАМ	-0.30103
-4.050283	ЛЯХАМИ	-0.30103
-3.874192	ЛЯХИ	-0.30103
-3.874192	ЛЯЧНО	-0.30103
-3.749253	МІГ	-0.30103
-4.050283	МІД	-0.30103
-3.072559	МІЖ	-0.5118834
-4.050283	МІЗЕРНИЙ	-0.30103
-3.147193	МІЙ	-0.39794
-4.050283	МІЛІЦІЄЮ	-0.30103
-3.749253	МІЛІЦІЯ	-0.30103
-4.050283	МІНТУРІ	-0.30103
-4.050283	МІРИ	-0.30103
-4.050283	МІРУ	-0.30103
-4.050283	МІРЯТЬ	-0.30103
-3.749253	МІСТІ	-0.30103
-3.272132	МІСТА	-0.5740313
-3.652343	МІСЦІ	-0.30103
-4.050283	МІСЦЕ	-0.30103
-3.573162	МІСЦЕМ	-0.7781513
-4.050283	МІСЦИНИ	-0.30103
-3.573162	МІСЦЯ	-0.30103
-4.050283	МІСЯТЬ	-0.30103
-4.050283	МІСЯЦЬ	-0.30103
-4.050283	МІЦНЕ	-0.30103
-3.874192	МІЦНО	-0.30103
-4.050283	МІЩАНАМИ	-0.30103
-4.050283	МІЩАНСЬКИХ	-0.30103
-3.573162	МАЄ	-0.30103
-3.448223	МАЄМО	-0.6532125
-4.050283	МАЄТЕ	-0.30103
-4.050283	МАЄТКИ	-0.30103
-3.652343	МАЄШ	-0.30103
-3.749253	МАБУТЬ	-0.30103
-2.904155	МАВ	-0.6863809
-3.272132	МАЙДАНЧИКА	-1.079181
-3.029094	МАЙЖЕ	-0.5862657
-4.050283	МАКІТРИЛОСЯ	-0.30103
-3.506215	МАЛА	-0.8450981
-3.749253	МАЛЕНЬКІ	-0.30103
-4.050283	МАЛЕНЬКЕ	-0.30103
-4.050283	МАЛЕНЬКИМИ	-0.30103
-3.874192	МАЛЕНЬКИХ	-0.30103
-4.050283	МАЛЕНЬКОЇ	-0.30103
-3.397071	МАЛЕНЬКОГО	-0.9542425
-4.050283	МАЛЕНЬКОЮ	-0.30103
-4.050283	МАЛИ	-0.30103
-3.652343	МАЛО	-0.30103
-4.050283	МАЛОРУХОМЕ	-0.30103
-4.050283	МАМІ	-0.30103
-2.971102	МАМА	-0.4648868
-3.652343	МАМИ	-0.3679768
-4.050283	МАМИНОМУ	-0.30103
-3.749253	МАМОЮ	-0.39794
-3.506215	МАМУ	-0.3424227
-4.050283	МАНІВЦЕМ	-0.30103
-4.050283	МАНДРІВНИКІВ	-0.30103
-4.050283	МАНДРІВНИКАМ	-0.30103
-4.050283	МАНДРИ	-0.30103
-4.050283	МАНДРУВАЛИ	-0.30103
-3.573162	МАРАБУ	-0.30103
-4.050283	МАРАМИ	-0.30103
-4.050283	МАРАХ	-0.30103
-4.050283	МАРИ	-0.30103
-4.050283	МАРШІ	-0.30103
-4.050283	МАСОЮ	-0.30103
-4.050283	МАТ	-0.30103
-4.050283	МАТІРОК	-0.30103
-4.050283	МАТИ	-0.30103
-4.050283	МАТИМЕ	-0.30103
-4.050283	МАТЧ	-0.30103
-4.050283	МАТЧАМИ	-0.30103
-4.050283	МАХАЮТЬ	-0.30103
-4.050283	МАХУ	-0.30103
-3.573162	МАЮ	-0.4259687
-3.072559	МАЮТЬ	-0.7403628
-3.874192	МЕБЛІ	-0.30103
-4.050283	МЕДВІДЬ	-0.30103
-4.050283	МЕДВЕДЯ	-0.30103
-4.050283	МЕЖАХ	-0.30103
-4.050283	МЕЖИ	-0.30103
-4.050283	МЕЖУ	-0.30103
-3.050283	МЕНІ	-0.4357285
-2.953373	МЕНЕ	-0.3203351
-3.506215	МЕРТВЕ	-0.845098
-4.050283	МЕТАЛІСТ	-0.30103
-4.050283	МЕТАЛЕВІ	-0.30103
-4.050283	МЕТАЛЕВЕ	-0.30103
-4.050283	МЕТАТИ	-0.30103
-4.050283	МЕТРІВ	-0.30103
-3.397071	МЕТРИ	-0.9542425
-4.050283	МЕТРО	-0.30103
-4.050283	МЕТРОПОЛІТЕНІ	-0.30103
-4.050283	МЕТУШИЛАСЯ	-0.30103
-3.874192	МЕТУШНЮ	-0.30103
-4.050283	МЕЧ	-0.30103
-4.050283	МЕЧЕМ	-0.30103
-4.050283	МЕШКАЛИ	-0.30103
-2.670072	МИ	-0.4593925
-3.874192	МИЄТЬСЯ	-0.4771213
-4.050283	МИГОТІЛИ	-0.30103
-4.050283	МИГОТЛИВИМИ	-0.30103
-3.23737	МИКИТА	-0.3203351
-3.874192	МИКИТИ	-0.30103
-4.050283	МИКИТИН	-0.30103
-4.050283	МИКИТУ	-0.30103
-4.050283	МИКОЛАЙКУ	-0.30103
-4.050283	МИЛА	-0.30103
-4.050283	МИЛОСЕРДЯ	-0.30103
-3.448223	МИНАЄ	-0.90309
-3.749253	МИНУЛО	-0.60206
-4.050283	МИР	-0.30103
-4.050283	МИРИТИ	-0.30103
-4.050283	МИРОВИМ	-0.30103
-4.050283	МИРЯНЕ	-0.30103
-3.874192	МИСКА	-0.30103
-4.050283	МИСКУ	-0.30103
-4.050283	МИСЛЬ	-0.30103
-4.050283	МИТІ	-0.30103
-4.050283	МИТНИКІВ	-0.30103
-3.272132	МИТРОПОЛІЇ	-1.079181
-3.874192	МИТЬ	-0.30103
-4.050283	МИШКУЄ	-0.30103
-4.050283	МЛОСНИМИ	-0.30103
-4.050283	МНЕ	-0.30103
-4.050283	МНОГОЦВІТНА	-0.30103
-4.050283	МНОЮ	-0.30103
-3.874192	МОЄ	-0.30103
-3.749253	МОЇ	-0.30103
-3.874192	МОЇХ	-0.30103
-3.050283	МОВ	-0.4121805
-3.397071	МОВА	-0.9542425
-3.147193	МОВИ	-0.9294189
-4.050283	МОВИВ	-0.30103
-4.050283	МОВЛЯВ	-0.30103
-4.050283	МОВЧИШ	-0.30103
-4.050283	МОВЧКИ	-0.30103
-3.874192	МОГЛИ	-0.30103
-4.050283	МОГО	-0.30103
-2.859951	МОЖЕ	-0.4586378
-4.050283	МОЖЕМО	-0.30103
-3.874192	МОЖЕТЕ	-0.30103
-4.050283	МОЖЕШ	-0.30103
-3.351313	МОЖЛИВІСТЬ	-1
-4.050283	МОЖЛИВО	-0.30103
-2.888915	МОЖНА	-0.4573772
-3.874192	МОЖУ	-0.30103
-4.050283	МОЖУТЬ	-0.30103
-3.749253	МОКРІ	-0.30103
-4.050283	МОКРА	-0.30103
-3.749253	МОКРЕ	-0.30103
-4.050283	МОКРИЙ	-0.30103
-4.050283	МОКРИМИ	-0.30103
-3.749253	МОКРИХ	-0.30103
-4.050283	МОКРУ	-0.30103
-4.050283	МОЛОДІ	-0.30103
-4.050283	МОЛОДІЙ	-0.30103
-4.050283	МОЛОДІСТЬ	-0.30103
-3.874192	МОЛОДИЙ	-0.30103
-3.506215	МОЛОДШОГО	-0.845098
-4.050283	МОЛОКО	-0.30103
-4.050283	МОЛОКОБІЛЬШІСТЬ	-0.30103
-4.050283	МОЛОЧНІ	-0.30103
-4.050283	МОМЕНТ	-0.30103
-4.050283	МОНАСТИРІ	-0.30103
-4.050283	МОНАХ	-0.30103
-4.050283	МОНЕТИ	-0.30103
-3.652343	МОРІ	-0.30103
-4.050283	МОРІЖКА	-0.30103
-4.050283	МОРДОВАТИ	-0.30103
-3.749253	МОРЕ	-0.30103
-4.050283	МОРОЗИВА	-0.30103
-3.874192	МОРОЗИВО	-0.30103
-4.050283	МОРСЬКІ	-0.30103
-3.874192	МОРСЬКИЙ	-0.4771212
-3.749253	МОРСЬКОГО	-0.30103
-4.050283	МОРСЬКОМУ	-0.30103
-3.506215	МОРЯК	-0.30103
-4.050283	МОРЯКА	-0.30103
-4.050283	МОРЯКУ	-0.30103
-4.050283	МОСЬПАНЕ	-0.30103
-4.050283	МОТУЗЯНІЙ	-0.30103
-4.050283	МОТУЗЯНА	-0.30103
-4.050283	МОХНАТИХ	-0.30103
-4.050283	МОХУ	-0.30103
-4.050283	МОЧАРІВ	-0.30103
-4.050283	МОЧИТИ	-0.30103
-4.050283	МОЮ	-0.30103
-3.749253	МОЯ	-0.30103
-4.050283	МУДАК	-0.30103
-4.050283	МУДАКА	-0.30103
-4.050283	МУДАКИ	-0.30103
-4.050283	МУДРИЙ	-0.30103
-4.050283	МУЖИЦЬКОЇ	-0.30103
-4.050283	МУЖИЦЬКОЮ	-0.30103
-4.050283	МУЗИКАНТИ	-0.30103
-3.874192	МУМІТРОЛІ	-0.30103
-3.874192	МУМІТРОЛІВ	-0.30103
-3.749253	МУМІТРОЛЕВІ	-0.30103
-3.072559	МУМІТРОЛЬ	-0.3273589
-4.050283	МУМІТРОЛЬТО	-0.30103
-2.93634	МУМІТРОЛЯ	-0.3099849
-4.050283	МУМІТРОЛЯМ	-0.30103
-4.050283	МУНІЦИПАЛІТЕТУ	-0.30103
-4.050283	МУР	-0.30103
-4.050283	МУРАШИНИЙ	-0.30103
-4.050283	МУРАШИНОГО	-0.30103
-4.050283	МУРКОТІЛА	-0.30103
-4.050283	МУРЛИКА	-0.30103
-4.050283	МУРУЮТЬ	-0.30103
-4.050283	МУСИЛИ	-0.30103
-4.050283	МУЧИВ	-0.30103
-4.050283	МУШУ	-0.30103
-4.050283	МЯКЕ	-0.30103
-4.050283	МЯСА	-0.30103
-4.050283	МЯТОМУ	-0.30103
-4.050283	МЯЧ	-0.30103
-4.050283	НЄ	-0.30103
-3.23737	НІ	-0.30103
-3.448223	НІБИ	-0.30103
-3.120864	НІБИТО	-0.9542424
-3.506215	НІГДЕ	-0.845098
-4.050283	НІГТЯМИ	-0.30103
-4.050283	НІДЕ	-0.30103
-3.749253	НІЖ	-0.30103
-4.050283	НІЖАЧИСЬ	-0.30103
-4.050283	НІЖКИ	-0.30103
-4.050283	НІЖНІ	-0.30103
-4.050283	НІЗАЩО	-0.30103
-3.749253	НІКОГО	-0.39794
-3.120864	НІКОЛИ	-0.8016323
-3.448223	НІКОМУ	-0.6532125
-4.050283	НІКУДИ	-0.30103
-4.050283	НІС	-0.30103
-3.147193	НІХТО	-0.4973246
-3.506215	НІЧ	-0.30103
-3.397071	НІЧИМ	-0.69897
-3.00889	НІЧОГО	-0.559308
-3.874192	НІЩО	-0.30103
-4.050283	НІЯК	-0.30103
-4.050283	НІЯКИЙ	-0.30103
-1.871306	НА	-0.4137342
-4.050283	НАБИВАЄТЬСЯ	-0.30103
-4.050283	НАБИРАЄ	-0.30103
-4.050283	НАБЛИЖАЛОСЯ	-0.30103
-4.050283	НАБУХЛИМИ	-0.30103
-3.652343	НАВIЩО	-0.69897
-4.050283	НАВІКИ	-0.30103
-2.807245	НАВІТЬ	-0.4455222
-3.175222	НАВКОЛО	-0.30103
-4.050283	НАВОЛОЧНОЇ	-0.30103
-4.050283	НАВРЯД	-0.30103
-4.050283	НАВРЯДЧИ	-0.30103
-4.050283	НАВСІБІЧ	-0.30103
-4.050283	НАВЧАННЯ	-0.30103
-4.050283	НАВЧИТИ	-0.30103
-3.506215	НАВЧИТИСЯ	-0.845098
-4.050283	НАГАДАЛИ	-0.30103
-4.050283	НАГНУВСЬ	-0.30103
-4.050283	НАГОРІ	-0.30103
-3.175222	НАД	-0.30103
-3.448223	НАДІЇ	-0.6532125
-4.050283	НАДІЙШЛА	-0.30103
-3.397071	НАДІЯ	-0.6989701
-4.050283	НАДЇХАВ	-0.30103
-3.30992	НАДАВ	-1.041393
-3.30992	НАДАЛИ	-1.041393
-4.050283	НАДБІГЛА	-0.30103
-4.050283	НАДВІРНОЮ	-0.30103
-4.050283	НАДВЕЧІР	-0.30103
-4.050283	НАДОВГО	-0.30103
-4.050283	НАДРАВ	-0.30103
-3.874192	НАДТО	-0.30103
-3.573162	НАЗАД	-0.3521825
-4.050283	НАЗБИРАЛА	-0.30103
-3.874192	НАЗВАТИ	-0.30103
-4.050283	НАЗДОГАНЯВ	-0.30103
-4.050283	НАЗИВАЄ	-0.30103
-3.874192	НАЗИВАЄТЬСЯ	-0.30103
-4.050283	НАЗИВАВ	-0.30103
-3.23737	НАЗИВАЛИ	-0.845098
-4.050283	НАЗИВАЮЧИ	-0.30103
-4.050283	НАЗОВІМО	-0.30103
-4.050283	НАЗОВНІ	-0.30103
-4.050283	НАЗУСТРІЧ	-0.30103
-3.573162	НАЙ	-0.30103
-3.874192	НАЙБІЛЬШ	-0.30103
-3.397071	НАЙБІЛЬШИЙ	-0.9542425
-4.050283	НАЙБІЛЬШУ	-0.30103
-4.050283	НАЙВИЩИХ	-0.30103
-3.448223	НАЙГІРШОГО	-0.90309
-4.050283	НАЙГАРНІШЕ	-0.30103
-4.050283	НАЙГАРНІШОЇ	-0.30103
-3.874192	НАЙГОЛОВНІШЕ	-0.30103
-4.050283	НАЙГУСТІШОЇ	-0.30103
-4.050283	НАЙЛІПШУ	-0.30103
-4.050283	НАЙМЕНШИЙ	-0.30103
-3.397071	НАЙМИЛОЗВУЧНІШИХ	-0.9542425
-4.050283	НАЙОБКАМИ	-0.30103
-4.050283	НАЙТОНШОГО	-0.30103
-3.874192	НАЙЦІКАВІШЕ	-0.30103
-4.050283	НАЙШВИДШЕ	-0.30103
-4.050283	НАЙЯСКРАВІША	-0.30103
-4.050283	НАКАЖИ	-0.30103
-4.050283	НАКАЗ	-0.30103
-4.050283	НАКАЧАНИЙ	-0.30103
-4.050283	НАКАЧУЄТЬСЯ	-0.30103
-4.050283	НАКОТИТЬСЯ	-0.30103
-4.050283	НАКУПОВУЄ	-0.30103
-4.050283	НАЛАШТУВАЛА	-0.30103
-4.050283	НАЛЕЖИТЬСЯ	-0.30103
-4.050283	НАЛЕТІВ	-0.30103
-3.874192	НАЛОЖНИКІВ	-0.30103
-3.874192	НАЛОЖНИКАМИ	-0.30103
-4.050283	НАЛОЖНИКИ	-0.30103
-4.050283	НАЛОМ	-0.30103
-3.272132	НАМ	-0.30103
-4.050283	НАМІСНИКІВ	-0.30103
-3.874192	НАМАГАЄТЬСЯ	-0.30103
-4.050283	НАМАГАВСЯ	-0.30103
-4.050283	НАМАГАЛИСЯ	-0.30103
-3.874192	НАМАГАЮТЬСЯ	-0.30103
-3.874192	НАМАГАЮЧИСЬ	-0.30103
-4.050283	НАМАЛЮВАЛА	-0.30103
-4.050283	НАМАХУЮТЬ	-0.30103
-3.652343	НАМИ	-0.30103
-4.050283	НАМОКЛИЙ	-0.30103
-4.050283	НАМОСТИЛА	-0.30103
-4.050283	НАПІВВІДЧИНЕНІ	-0.30103
-4.050283	НАПІВПРИТОМНОГО	-0.30103
-4.050283	НАПІВРОЗВАЛЕНИЙ	-0.30103
-4.050283	НАПІВФАБРИКАТИ	-0.30103
-4.050283	НАПЕВНО	-0.30103
-3.874192	НАПИВАЛИСЬ	-0.30103
-4.050283	НАПИНАТИ	-0.30103
-4.050283	НАПИС	-0.30103
-4.050283	НАПИТКИ	-0.30103
-4.050283	НАПОВНЕНУ	-0.30103
-4.050283	НАПОВНЮЮЧИСЬ	-0.30103
-4.050283	НАПОЛЕГЛИВО	-0.30103
-4.050283	НАПОЛОХАНЕ	-0.30103
-3.30992	НАПРАВДУ	-1.041393
-3.448223	НАПРАЦЮВАТИ	-0.90309
-3.874192	НАПРИКЛАД	-0.30103
-4.050283	НАПРУЖЕНО	-0.30103
-4.050283	НАПРУЖУВАЛО	-0.30103
-4.050283	НАПРЯМКУЗНЕНАЦЬКА	-0.30103
-3.448223	НАРІЧЧЯ	-0.90309
-3.874192	НАРАЗ	-0.30103
-3.448223	НАРЕШТІ	-0.6532125
-3.874192	НАРОД	-0.30103
-4.050283	НАРОДЖЕННЯ	-0.30103
-4.050283	НАРОДОМ	-0.30103
-4.050283	НАРОЩУВАННЯ	-0.30103
-4.050283	НАРУГИ	-0.30103
-3.874192	НАРУГУ	-0.30103
-2.545133	НАС	-0.5118834
-3.448223	НАСЕЛЕННЯ	-0.90309
-3.749253	НАСПРАВДІ	-0.30103
-3.874192	НАСТАВ	-0.30103
-4.050283	НАСТАННЯ	-0.30103
-3.448223	НАСТАТИ	-0.90309
-4.050283	НАСТОРОЖИЛО	-0.30103
-4.050283	НАСТУПНИЙ	-0.30103
-3.874192	НАСТУПНОГО	-0.4771212
-3.874192	НАТОМІСТЬ	-0.30103
-4.050283	НАТУРУ	-0.30103
-3.874192	НАУКА	-0.30103
-3.573162	НАУКОВЦІВ	-0.7781513
-4.050283	НАУМІВНА	-0.30103
-4.050283	НАЦІОНАЛЬНА	-0.30103
-3.506215	НАЧЕ	-0.30103
-3.874192	НАШ	-0.30103
-3.272132	НАШІ	-0.3467875
-4.050283	НАШІЙ	-0.30103
-4.050283	НАШІПТУЮТЬ	-0.30103
-4.050283	НАША	-0.30103
-3.448223	НАШЕ	-0.90309
-4.050283	НАШИМИ	-0.30103
-3.874192	НАШИХ	-0.30103
-4.050283	НАШОЇ	-0.30103
-3.749253	НАШОМУ	-0.30103
-3.874192	НАШУ	-0.30103
-1.702953	НЕ	-0.4824016
-3.448223	НЕІСНУЮЧИХ	-0.90309
-3.23737	НЕЇ	-0.30103
-4.050283	НЕБАЧЕНИМИ	-0.30103
-4.050283	НЕБЕСАМИ	-0.30103
-4.050283	НЕБЕСНОБЛАКИТНОЇ	-0.30103
-3.749253	НЕБО	-0.39794
-4.050283	НЕБОКРАЄМ	-0.30103
-4.050283	НЕБОКРАЙ	-0.30103
-4.050283	НЕБОРАКА	-0.30103
-3.506215	НЕБУДЬ	-0.30103
-4.050283	НЕВІДОМО	-0.30103
-4.050283	НЕВІДОМОГО	-0.30103
-4.050283	НЕВІДОМУ	-0.30103
-4.050283	НЕВІРНИЙ	-0.30103
-4.050283	НЕВАЖКО	-0.30103
-4.050283	НЕВГАСИМИЙ	-0.30103
-4.050283	НЕВДАЧЕЮ	-0.30103
-4.050283	НЕВЕЛИЧКИЙ	-0.30103
-4.050283	НЕВЕЛИЧКУ	-0.30103
-4.050283	НЕВЖИВАНИЙ	-0.30103
-4.050283	НЕВИДИМІ	-0.30103
-3.749253	НЕВОЛІ	-0.30103
-3.397071	НЕВОЛЬНИК	-0.3309932
-4.050283	НЕВОЛЬНИКОМ	-0.30103
-4.050283	НЕВОЛЯ	-0.30103
-4.050283	НЕВПИННО	-0.30103
-4.050283	НЕГАРНО	-0.30103
-3.506215	НЕГОТОВНІСТЬ	-0.8450981
-4.050283	НЕДАРМА	-0.30103
-3.874192	НЕДАРОМ	-0.4771213
-4.050283	НЕДОВІРЛИВО	-0.30103
-4.050283	НЕДОЛЮБЛЮВАЛИ	-0.30103
-4.050283	НЕДОЛЮБЛЮЮТЬ	-0.30103
-4.050283	НЕДОЛЯШКІВ	-0.30103
-4.050283	НЕДОЛЯШКАМИ	-0.30103
-4.050283	НЕДОЛЯШКИ	-0.30103
-4.050283	НЕДОПАЛКИ	-0.30103
-4.050283	НЕДОРОБЛЕНУ	-0.30103
-4.050283	НЕДРУГІВ	-0.30103
-3.448223	НЕДУГ	-0.90309
-4.050283	НЕДУЖЕ	-0.30103
-4.050283	НЕЗАБАРОМ	-0.30103
-4.050283	НЕЗАДОВОЛЕНІ	-0.30103
-4.050283	НЕЗАЛЕЖНИХ	-0.30103
-4.050283	НЕЗАЛЕЖНУ	-0.30103
-4.050283	НЕЗВИЧАЙНИЙ	-0.30103
-4.050283	НЕЗЛОБИВО	-0.30103
-4.050283	НЕЗРОЗУМІЛО	-0.30103
-4.050283	НЕЗРУЧНО	-0.30103
-4.050283	НЕЗЧИСЛЕННОГО	-0.30103
-4.050283	НЕЙМОВІРНИМ	-0.30103
-4.050283	НЕЙМОВІРНИМИ	-0.30103
-4.050283	НЕЙМОВІРНО	-0.30103
-4.050283	НЕЛЮБА	-0.30103
-3.874192	НЕМА	-0.30103
-3.448223	НЕМАЄ	-0.3802112
-3.448223	НЕМОВБИ	-0.90309
-4.050283	НЕМОЩНИХ	-0.30103
-4.050283	НЕНАВИДИШ	-0.30103
-4.050283	НЕНАВИСТЮ	-0.30103
-3.506215	НЕНАВЯЗЛИВА	-0.845098
-4.050283	НЕНАДОВГО	-0.30103
-4.050283	НЕНАЧЕ	-0.30103
-3.448223	НЕОБХІДНО	-0.90309
-4.050283	НЕОДМІННО	-0.30103
-4.050283	НЕОЗОРЕ	-0.30103
-4.050283	НЕОПОХМІЛЕНИЙ	-0.30103
-4.050283	НЕОРУЖНИМ	-0.30103
-4.050283	НЕОХОЧЕ	-0.30103
-4.050283	НЕПАЛЕНУ	-0.30103
-4.050283	НЕПЕРЕДБАЧУВАНО	-0.30103
-3.874192	НЕПОВАГА	-0.30103
-4.050283	НЕПОГАНО	-0.30103
-4.050283	НЕПОГАНУ	-0.30103
-4.050283	НЕПОМІТНО	-0.30103
-4.050283	НЕПОСЛУШНИЙ	-0.30103
-4.050283	НЕПОТРІБ	-0.30103
-4.050283	НЕПРИВІТНА	-0.30103
-3.874192	НЕРІШУЧЕ	-0.30103
-4.050283	НЕРВУЙТЕ	-0.30103
-3.874192	НЕРВУЮТЬ	-0.30103
-4.050283	НЕСИТА	-0.30103
-3.874192	НЕСИТИЙ	-0.30103
-4.050283	НЕСКОРО	-0.30103
-4.050283	НЕСЛА	-0.30103
-4.050283	НЕСЛУХНЯНІ	-0.30103
-4.050283	НЕСПРАВЕДЛИВИМ	-0.30103
-4.050283	НЕСПРАВЖНЄ	-0.30103
-4.050283	НЕСУ	-0.30103
-4.050283	НЕСУТЬ	-0.30103
-4.050283	НЕТРІ	-0.30103
-4.050283	НЕТРУ	-0.30103
-4.050283	НЕТРЯХ	-0.30103
-4.050283	НЕУХИЛЬНО	-0.30103
-4.050283	НЕХАЙ	-0.30103
-4.050283	НЕХОТЯ	-0.30103
-4.050283	НЕХРИСТ	-0.30103
-4.050283	НЕЩАСНИЙ	-0.30103
-4.050283	НЕЩОДАВНО	-0.30103
-3.30992	НЕЮ	-0.4259688
-4.050283	НИВИ	-0.30103
-4.050283	НИЖЧЕ	-0.30103
-3.874192	НИЗУ	-0.30103
-4.050283	НИЗЦЯМИ	-0.30103
-4.050283	НИЗЬКО	-0.30103
-3.573162	НИМ	-0.30103
-3.072559	НИМИ	-0.30103
-3.506215	НИНІ	-0.845098
-4.050283	НИПАТИ	-0.30103
-4.050283	НИРКАХ	-0.30103
-2.807245	НИХ	-0.372912
-4.050283	НОВІЙ	-0.30103
-4.050283	НОВІСТЬ	-0.30103
-4.050283	НОВЕ	-0.30103
-4.050283	НОВИЙ	-0.30103
-3.874192	НОГАМИ	-0.30103
-3.749253	НОГИ	-0.30103
-4.050283	НОРМАЛЬНІ	-0.30103
-4.050283	НОРМАЛЬНИЙ	-0.30103
-3.652343	НОРМАЛЬНО	-0.30103
-4.050283	НОСЯТЬ	-0.30103
-4.050283	НОТУ	-0.30103
-4.050283	НОЧАМИ	-0.30103
-4.050283	НОЧЕЙ	-0.30103
-3.749253	НОЧУЄ	-0.30103
-2.859951	НУ	-0.3424227
-3.874192	НУБО	-0.30103
-4.050283	НУЖДАХ	-0.30103
-4.050283	НУНЕВПЕВНЕНО	-0.30103
-3.00889	НЬОГО	-0.3357921
-3.749253	НЬОМУ	-0.30103
-4.050283	НЮХ	-0.30103
-4.050283	НЮХАЄ	-0.30103
-3.749253	О	-0.30103
-3.874192	ОБ	-0.30103
-4.050283	ОБІЙМИ	-0.30103
-4.050283	ОБІЙНЯЛИСЯ	-0.30103
-4.050283	ОБІРВАЛИ	-0.30103
-4.050283	ОБІЦЯВСЯ	-0.30103
-4.050283	ОБІЧ	-0.30103
-4.050283	ОББИВКУ	-0.30103
-4.050283	ОБВАЖНІЛИМИ	-0.30103
-3.874192	ОБВИСАЄ	-0.30103
-4.050283	ОБВИСЛІ	-0.30103
-3.506215	ОБГОВОРЕННІ	-0.8450981
-3.448223	ОБЕРЕЖНІШИМ	-0.90309
-3.874192	ОБЕРЕЖНО	-0.30103
-4.050283	ОБЕРНУВШИСЬ	-0.30103
-4.050283	ОБЕРТАЛИ	-0.30103
-3.874192	ОБЗИВАЄСЬ	-0.4771212
-3.874192	ОБКЛАДИНЦІ	-0.30103
-4.050283	ОБЛЕСНО	-0.30103
-3.749253	ОБЛИЧЧІ	-0.30103
-4.050283	ОБЛИЧЧЯ	-0.30103
-4.050283	ОБМОВЛЯЄ	-0.30103
-4.050283	ОБНЯЛА	-0.30103
-3.175222	ОБОВЯЗКОВО	-0.4393327
-4.050283	ОБОЛОНЦІ	-0.30103
-4.050283	ОБОХ	-0.30103
-3.506215	ОБРАЗИ	-0.8450981
-4.050283	ОБРУЧКИ	-0.30103
-4.050283	ОБХОПИЛА	-0.30103
-4.050283	ОГИДУ	-0.30103
-3.448223	ОД	-0.3802113
-4.050283	ОДДАВАЛИ	-0.30103
-4.050283	ОДДАЮЧИ	-0.30103
-4.050283	ОДЕЖІ	-0.30103
-4.050283	ОДЕЖА	-0.30103
-2.919949	ОДИН	-0.455932
-4.050283	ОДКУП	-0.30103
-3.874192	ОДНІЄЇ	-0.30103
-3.397071	ОДНІЄЮ	-0.9542425
-3.749253	ОДНІЙ	-0.30103
-3.874192	ОДНА	-0.30103
-3.749253	ОДНАК	-0.39794
-4.050283	ОДНАКОВИЙ	-0.30103
-3.175222	ОДНЕ	-0.5228787
-3.573162	ОДНИМ	-0.3521825
-4.050283	ОДНИМИ	-0.30103
-3.573162	ОДНО	-0.30103
-3.175222	ОДНОГО	-0.3565473
-3.573162	ОДНОМУ	-0.3521825
-4.050283	ОДНООКИХ	-0.30103
-4.050283	ОДНОСТАЙНЕ	-0.30103
-3.749253	ОДНУ	-0.30103
-4.050283	ОДРАЗУ	-0.30103
-4.050283	ОДЦУРАВСЯ	-0.30103
-4.050283	ОДЦУРАТИСЬ	-0.30103
-4.050283	ОДЧИНИ	-0.30103
-4.050283	ОДЧИНИВШИ	-0.30103
-4.050283	ОДЧИНИЛИСЬ	-0.30103
-4.050283	ОДЧИНЯТИ	-0.30103
-4.050283	ОДЯЗІ	-0.30103
-4.050283	ОЖИЛИ	-0.30103
-4.050283	ОЗБРОЄНИМ	-0.30103
-3.874192	ОЗВАВСЯ	-0.30103
-4.050283	ОЗИВАВСЬ	-0.30103
-4.050283	ОЗИРАЄТЬСЯ	-0.30103
-4.050283	ОЗНАЧАТИ	-0.30103
-3.874192	ОЙ	-0.30103
-4.050283	ОКА	-0.30103
-4.050283	ОКЕАН	-0.30103
-4.050283	ОКО	-0.30103
-4.050283	ОКОЛИЦЯМИ	-0.30103
-3.652343	ОКОМ	-0.3679768
-4.050283	ОКОРМИ	-0.30103
-3.351313	ОКРІМ	-0.60206
-4.050283	ОКРЕМИЙ	-0.30103
-4.050283	ОКРИТЕ	-0.30103
-4.050283	ОКРУГ	-0.30103
-3.874192	ОН	-0.30103
-4.050283	ОНУКА	-0.30103
-4.050283	ОНУКОМ	-0.30103
-4.050283	ОПИНИВШИСЬ	-0.30103
-4.050283	ОПИНИТЬСЯ	-0.30103
-4.050283	ОПИНЯЄШСЯ	-0.30103
-4.050283	ОПИСАМИ	-0.30103
-4.050283	ОПОВІДІ	-0.30103
-4.050283	ОПОВІДАЮЧИ	-0.30103
-4.050283	ОПТ	-0.30103
-3.506215	ОПТИКУ	-0.3424227
-4.050283	ОПТИЧНИЙ	-0.30103
-4.050283	ОПТОМ	-0.30103
-4.050283	ОПУСТИВСЯ	-0.30103
-4.050283	ОПУСТИЛИ	-0.30103
-3.874192	ОРІЄНТУЮТЬСЯ	-0.30103
-4.050283	ОРАЛИ	-0.30103
-4.050283	ОРАНДАРІВ	-0.30103
-3.397071	ОРГАНІЗАТОРАМ	-0.9542425
-3.874192	ОРЕЛ	-0.4771213
-4.050283	ОРЕНДУ	-0.30103
-4.050283	ОСІ	-0.30103
-4.050283	ОСІБ	-0.30103
-4.050283	ОСЕЛИТИСЯ	-0.30103
-4.050283	ОСЕЛЬ	-0.30103
-4.050283	ОСЕЛЯХ	-0.30103
-3.652343	ОСОБЛИВО	-0.30103
-4.050283	ОСТІ	-0.30103
-4.050283	ОСТАВЛЕНО	-0.30103
-4.050283	ОСТАЛИСЬ	-0.30103
-4.050283	ОСТАННІ	-0.30103
-4.050283	ОСТАННІЙ	-0.30103
-4.050283	ОСТАННІМ	-0.30103
-4.050283	ОСТАННІМИ	-0.30103
-4.050283	ОСТАННІХ	-0.30103
-3.874192	ОСТАННЬОГО	-0.30103
-4.050283	ОСТАННЮ	-0.30103
-4.050283	ОСТАННЯ	-0.30103
-4.050283	ОСТАТНЮ	-0.30103
-4.050283	ОСТРІВЦІ	-0.30103
-4.050283	ОСТРИЙ	-0.30103
-4.050283	ОСТРЯНИЦІ	-0.30103
-4.050283	ОСТРЯНИЦЕЮ	-0.30103
-4.050283	ОСТРЯНИЦЯ	-0.30103
-4.050283	ОСУНУВСЯ	-0.30103
-2.859951	ОСЬ	-0.362548
-4.050283	ОСЬДЕ	-0.30103
-3.874192	ОСЬОСЬ	-0.30103
-3.147193	ОТ	-0.39794
-4.050283	ОТАК	-0.30103
-4.050283	ОТВЕРТИЙ	-0.30103
-4.050283	ОТО	-0.30103
-4.050283	ОТОДІ	-0.30103
-4.050283	ОТОЖ	-0.30103
-4.050283	ОТРИМАВШИ	-0.30103
-3.506215	ОТРИМАЛА	-0.845098
-4.050283	ОТРИМАНІ	-0.30103
-4.050283	ОТЧИЗНИ	-0.30103
-4.050283	ОФІСІ	-0.30103
-3.30992	ОФІЦІЙНОЇ	-1.041393
-3.652343	ОХ	-0.3679768
-4.050283	ОХОТА	-0.30103
-4.050283	ОХОЧЕ	-0.30103
-4.050283	ОХРІНІЛИ	-0.30103
-3.448223	ОЦІНКУ	-0.90309
-3.506215	ОЧІ	-0.30103
-3.506215	ОЧЕВИДНО	-0.3424227
-4.050283	ОЧЕЙ	-0.30103
-4.050283	ОЧЕРЕТАМИ	-0.30103
-3.749253	ОЧИМА	-0.30103
-3.874192	ПЄ	-0.30103
-4.050283	ПЄШ	-0.30103
-4.050283	ПІВ	-0.30103
-4.050283	ПІВДЕННОГО	-0.30103
-3.448223	ПІВДЕННОЗАХІДНУ	-0.90309
-4.050283	ПІВДЕННОМУ	-0.30103
-3.397071	ПІВДЕННОРУСЬКА	-0.9542425
-4.050283	ПІВДЕНЬ	-0.30103
-3.874192	ПІВЕНЬ	-0.4771213
-4.050283	ПІВМІСТА	-0.30103
-3.506215	ПІВНІ	-0.845098
-3.448223	ПІВНІЧНОСХІДНУ	-0.90309
-4.050283	ПІВТОРА	-0.30103
-2.717844	ПІД	-0.4074853
-4.050283	ПІДІЙМАЄ	-0.30103
-4.050283	ПІДІЙМАЛИ	-0.30103
-4.050283	ПІДІЙНЯТИ	-0.30103
-4.050283	ПІДЇХАВШИ	-0.30103
-4.050283	ПІДЇХАТИ	-0.30103
-3.573162	ПІДАР	-0.3521825
-4.050283	ПІДАРАС	-0.30103
-4.050283	ПІДБИВАЛО	-0.30103
-4.050283	ПІДБИЛАСЯ	-0.30103
-4.050283	ПІДБИРАЄ	-0.30103
-3.874192	ПІДБИРАЮТЬ	-0.30103
-4.050283	ПІДВОДЯТЬ	-0.30103
-4.050283	ПІДДАНСТВА	-0.30103
-4.050283	ПІДЕ	-0.30103
-4.050283	ПІДЗЕМКИ	-0.30103
-4.050283	ПІДЗЕМКУ	-0.30103
-4.050283	ПІДКРАДАВСЯ	-0.30103
-4.050283	ПІДКРАДАЛАСЯ	-0.30103
-4.050283	ПІДЛОГАМИ	-0.30103
-4.050283	ПІДМОВЛЯЄ	-0.30103
-4.050283	ПІДМОГУ	-0.30103
-4.050283	ПІДНІМАЄТЬСЯ	-0.30103
-4.050283	ПІДНЕСЕНОМУ	-0.30103
-4.050283	ПІДНЯВ	-0.30103
-3.749253	ПІДНЯВСЬ	-0.39794
-4.050283	ПІДНЯВСЯ	-0.30103
-4.050283	ПІДНЯЛИСЬ	-0.30103
-4.050283	ПІДНЯЛИСЯ	-0.30103
-4.050283	ПІДПАЛИЛА	-0.30103
-4.050283	ПІДПИРАЄ	-0.30103
-4.050283	ПІДПОРЯДКУВАННЯ	-0.30103
-4.050283	ПІДРИВАЄ	-0.30103
-3.874192	ПІДРУЧНИКИ	-0.30103
-4.050283	ПІДСТРИБУВАЛО	-0.30103
-4.050283	ПІДСТРИБУЮЧИ	-0.30103
-4.050283	ПІДСТУПАЮТЬ	-0.30103
-4.050283	ПІДТЯГУЄТЬСЯ	-0.30103
-4.050283	ПІДТЯГУВАТИ	-0.30103
-4.050283	ПІДХОДИТЬ	-0.30103
-4.050283	ПІДХОПИТИ	-0.30103
-4.050283	ПІЖОНИ	-0.30103
-4.050283	ПІЖОНСЬКОМУ	-0.30103
-4.050283	ПІЗНЄ	-0.30103
-3.397071	ПІЗНАВАЛЬНИМИ	-0.9542425
-4.050283	ПІЗНАВАТИ	-0.30103
-4.050283	ПІОНЕР	-0.30103
-4.050283	ПІОНЕРСЬКУ	-0.30103
-3.652343	ПІП	-0.30103
-4.050283	ПІРНАЄ	-0.30103
-4.050283	ПІРНАЛИ	-0.30103
-4.050283	ПІРЯМ	-0.30103
-4.050283	ПІСЕНЬ	-0.30103
-4.050283	ПІСКУ	-0.30103
-3.351313	ПІСЛЯ	-0.3590219
-4.050283	ПІСНЬ	-0.30103
-3.749253	ПІСОК	-0.30103
-4.050283	ПІСОЧНИЙ	-0.30103
-4.050283	ПІСТ	-0.30103
-4.050283	ПІСТОЛЯХ	-0.30103
-4.050283	ПІТЬМІ	-0.30103
-4.050283	ПІТЬМИ	-0.30103
-4.050283	ПІЧ	-0.30103
-3.874192	ПІШЛА	-0.30103
-3.749253	ПІШОВ	-0.30103
-4.050283	ПІЩАНИМ	-0.30103
-3.351313	ПАВЛОВ	-0.3273589
-3.506215	ПАВЛОВА	-0.30103
-4.050283	ПАВЛЮК	-0.30103
-3.874192	ПАВОЛОЦЬКИЙ	-0.30103
-4.050283	ПАВОЛОЦЬКОГО	-0.30103
-4.050283	ПАГІННЯМ	-0.30103
-3.874192	ПАДЛА	-0.4771212
-4.050283	ПАДЛЮКУ	-0.30103
-4.050283	ПАЙ	-0.30103
-4.050283	ПАЙКУ	-0.30103
-4.050283	ПАКЕТА	-0.30103
-4.050283	ПАЛИЛИ	-0.30103
-4.050283	ПАЛЬ	-0.30103
-4.050283	ПАЛЬКИ	-0.30103
-3.874192	ПАЛЬЦЯМИ	-0.30103
-4.050283	ПАЛЮЧИМ	-0.30103
-4.050283	ПАЛЯТЬ	-0.30103
-3.506215	ПАМФЛЕТ	-0.845098
-3.09604	ПАМЯТІ	-0.9777236
-4.050283	ПАМЯТАЮЧИ	-0.30103
-3.397071	ПАН	-0.4149733
-3.506215	ПАНА	-0.3424227
-4.050283	ПАНИ	-0.30103
-4.050283	ПАНОТЦЯ	-0.30103
-4.050283	ПАНУ	-0.30103
-4.050283	ПАНУВАЛА	-0.30103
-4.050283	ПАПІРОСИ	-0.30103
-3.874192	ПАПЕРУ	-0.30103
-4.050283	ПАПИ	-0.30103
-4.050283	ПАПОРОТЬ	-0.30103
-4.050283	ПАРАФІЇ	-0.30103
-4.050283	ПАРКАНИ	-0.30103
-4.050283	ПАРУ	-0.30103
-4.050283	ПАРУВАЛА	-0.30103
-4.050283	ПАРФУМИ	-0.30103
-3.874192	ПАС	-0.30103
-4.050283	ПАСІКИ	-0.30103
-4.050283	ПАСІКУ	-0.30103
-4.050283	ПАСІЦІ	-0.30103
-4.050283	ПАСІЧНИКУЄ	-0.30103
-4.050283	ПАТРІОТ	-0.30103
-4.050283	ПАТРУЛІВ	-0.30103
-4.050283	ПАТРУЛЯМИ	-0.30103
-4.050283	ПАХАР	-0.30103
-3.397071	ПАХНЕ	-0.4771212
-3.874192	ПАЦАНИ	-0.30103
-4.050283	ПАЦАНСЬКУ	-0.30103
-4.050283	ПАЩІ	-0.30103
-4.050283	ПАЩЕКУ	-0.30103
-4.050283	ПАЯЛЬНИК	-0.30103
-4.050283	ПЕВНА	-0.30103
-4.050283	ПЕВНО	-0.30103
-4.050283	ПЕВНОЇ	-0.30103
-4.050283	ПЕРІЩИВ	-0.30103
-4.050283	ПЕРВИННЕ	-0.30103
-4.050283	ПЕРЕБІГАЛА	-0.30103
-4.050283	ПЕРЕБИВАЮЧИ	-0.30103
-4.050283	ПЕРЕБОЇВ	-0.30103
-4.050283	ПЕРЕБОЯМИ	-0.30103
-4.050283	ПЕРЕВАЖНУ	-0.30103
-4.050283	ПЕРЕВЕЗЕННЯ	-0.30103
-4.050283	ПЕРЕВЕРТНІ	-0.30103
-4.050283	ПЕРЕВЕРТНЯМИ	-0.30103
-4.050283	ПЕРЕВОДИТЬ	-0.30103
-4.050283	ПЕРЕВОЗИТИ	-0.30103
-4.050283	ПЕРЕВОРОТ	-0.30103
-4.050283	ПЕРЕГАНЯЙ	-0.30103
-4.050283	ПЕРЕГОРОДЖУВАЛИ	-0.30103
-3.30992	ПЕРЕД	-0.3245111
-4.050283	ПЕРЕДІ	-0.30103
-4.050283	ПЕРЕДАЙТЕ	-0.30103
-4.050283	ПЕРЕДАТИ	-0.30103
-4.050283	ПЕРЕДМІСТІ	-0.30103
-4.050283	ПЕРЕЖИВАЄМО	-0.30103
-4.050283	ПЕРЕЙМАВСЯ	-0.30103
-4.050283	ПЕРЕЙМАЮТЬСЯ	-0.30103
-4.050283	ПЕРЕЙМАЮЧИСЬ	-0.30103
-4.050283	ПЕРЕКЛАВ	-0.30103
-4.050283	ПЕРЕКОНАВШИСЬ	-0.30103
-3.448223	ПЕРЕКОНАНА	-0.90309
-4.050283	ПЕРЕКОНАТИ	-0.30103
-4.050283	ПЕРЕЛЯКАНО	-0.30103
-4.050283	ПЕРЕНОСИТЬ	-0.30103
-4.050283	ПЕРЕОДЯГНУТИСЬ	-0.30103
-3.874192	ПЕРЕПИТУЄ	-0.30103
-4.050283	ПЕРЕПОЧИНОК	-0.30103
-4.050283	ПЕРЕПРОШУЮ	-0.30103
-4.050283	ПЕРЕРАХОВУЄ	-0.30103
-4.050283	ПЕРЕРАХУВАННЯМИ	-0.30103
-4.050283	ПЕРЕРВИ	-0.30103
-4.050283	ПЕРЕСЕЛЯВСЯ	-0.30103
-4.050283	ПЕРЕСТАЄШ	-0.30103
-4.050283	ПЕРЕСТАВЛЯЮЧИ	-0.30103
-4.050283	ПЕРЕСТРІНЕ	-0.30103
-4.050283	ПЕРЕСТРАХУЙСЯ	-0.30103
-4.050283	ПЕРЕСТРИБУЮЧИ	-0.30103
-4.050283	ПЕРЕТВОРЮВАВСЯ	-0.30103
-4.050283	ПЕРЕТЯГНУЛА	-0.30103
-4.050283	ПЕРЕХОВУЄТЬСЯ	-0.30103
-4.050283	ПЕРЕХОТІЛОСЬ	-0.30103
-4.050283	ПЕРЕХРЕСНИХ	-0.30103
-4.050283	ПЕРЕХРЕСТІ	-0.30103
-4.050283	ПЕРЛИ	-0.30103
-4.050283	ПЕРШ	-0.30103
-3.652343	ПЕРШI	-0.69897
-3.09604	ПЕРШЕ	-0.6434526
-3.749253	ПЕРШИЙ	-0.30103
-4.050283	ПЕРШИМ	-0.30103
-3.874192	ПЕРШИХ	-0.30103
-4.050283	ПЕРШОМУ	-0.30103
-4.050283	ПЕРШУ	-0.30103
-3.874192	ПЕТРО	-0.30103
-4.050283	ПЕТРУСЬ	-0.30103
-4.050283	ПЕЧІ	-0.30103
-4.050283	ПЕЧІНЦІ	-0.30103
-4.050283	ПЕЧАЛЬНО	-0.30103
-4.050283	ПЕЧАМИ	-0.30103
-4.050283	ПЕЧАТКАМИ	-0.30103
-4.050283	ПЕЧАТТЮ	-0.30103
-4.050283	ПИВ	-0.30103
-4.050283	ПИВОВАР	-0.30103
-4.050283	ПИСАТИ	-0.30103
-4.050283	ПИСОК	-0.30103
-4.050283	ПИТАЄ	-0.30103
-3.874192	ПИТАЄТЬСЯ	-0.30103
-4.050283	ПИТАЮСЬ	-0.30103
-4.050283	ПИТАЮТЬ	-0.30103
-3.874192	ПИТАЮТЬСЯ	-0.30103
-4.050283	ПИТИ	-0.30103
-4.050283	ПИШАЄТЬСЯ	-0.30103
-4.050283	ПИШАТИСЬ	-0.30103
-4.050283	ПИШЕ	-0.30103
-4.050283	ПЛІД	-0.30103
-4.050283	ПЛІСНЬ	-0.30103
-3.874192	ПЛАВАЄ	-0.30103
-4.050283	ПЛАВАМИ	-0.30103
-4.050283	ПЛАВАЮТЬ	-0.30103
-4.050283	ПЛАКАЛО	-0.30103
-4.050283	ПЛАКСИВО	-0.30103
-4.050283	ПЛАН	-0.30103
-3.874192	ПЛАТИТЬ	-0.30103
-4.050283	ПЛАТОЮ	-0.30103
-4.050283	ПЛАТФОРМІ	-0.30103
-4.050283	ПЛАТФОРМУ	-0.30103
-3.874192	ПЛАЧ	-0.30103
-3.506215	ПЛЕКАТИ	-0.845098
-4.050283	ПЛЕМЕНЕМ	-0.30103
-3.874192	ПЛЕСО	-0.30103
-4.050283	ПЛЕСОМ	-0.30103
-4.050283	ПЛЕХАНІВСЬКІЙ	-0.30103
-3.874192	ПЛЕЧАХ	-0.30103
-4.050283	ПЛИВ	-0.30103
-4.050283	ПЛИВЛО	-0.30103
-3.448223	ПЛИЛИ	-0.90309
-4.050283	ПЛИТИ	-0.30103
-3.874192	ПЛОДАМИ	-0.30103
-4.050283	ПЛОЩІ	-0.30103
-3.874192	ПЛУГ	-0.30103
-4.050283	ПЛУГОМ	-0.30103
-4.050283	ПЛЮСКОТІЛИ	-0.30103
-4.050283	ПЛЯШКИ	-0.30103
-4.050283	ПЛЯШКУ	-0.30103
-4.050283	ПНУЛАСЯ	-0.30103
-2.698101	ПО	-0.3222193
-3.749253	ПОЇСТИ	-0.30103
-4.050283	ПОЇХАЛИ	-0.30103
-4.050283	ПОЇХАТИ	-0.30103
-4.050283	ПОБАЖАНЬ	-0.30103
-4.050283	ПОБАЧЕНОГО	-0.30103
-4.050283	ПОБАЧИВШИ	-0.30103
-3.749253	ПОБАЧИЛИ	-0.30103
-3.397071	ПОБАЧИЛО	-0.9542425
-3.749253	ПОБАЧИТИ	-0.30103
-4.050283	ПОБАЧИШ	-0.30103
-4.050283	ПОБЛИЗУ	-0.30103
-4.050283	ПОБОЇЩА	-0.30103
-4.050283	ПОБРАЛИСЬ	-0.30103
-4.050283	ПОБУВАВ	-0.30103
-4.050283	ПОБУДУВАТИ	-0.30103
-4.050283	ПОВІВ	-0.30103
-4.050283	ПОВІДАТЬ	-0.30103
-4.050283	ПОВІДАЮ	-0.30103
-3.749253	ПОВІНЬ	-0.30103
-4.050283	ПОВІСТЬ	-0.30103
-4.050283	ПОВІТАВ	-0.30103
-4.050283	ПОВІТРІ	-0.30103
-3.874192	ПОВІТРЯ	-0.30103
-4.050283	ПОВАГИ	-0.30103
-4.050283	ПОВЕЛА	-0.30103
-4.050283	ПОВЕН	-0.30103
-4.050283	ПОВЕНІ	-0.30103
-4.050283	ПОВЕРНЕННЯМ	-0.30103
-4.050283	ПОВЕРНУВСЯ	-0.30103
-3.874192	ПОВЕРНУВШИСЬ	-0.30103
-4.050283	ПОВЕРНУЛИ	-0.30103
-3.749253	ПОВЕРСІ	-0.30103
-3.874192	ПОВЕРТАЄТЬСЯ	-0.4771213
-4.050283	ПОВЕРТАТИСЬ	-0.30103
-4.050283	ПОВЕРТАЮТЬ	-0.30103
-3.874192	ПОВЕРТАЮТЬСЯ	-0.4771212
-4.050283	ПОВЕРХ	-0.30103
-4.050283	ПОВЕРХНІ	-0.30103
-3.874192	ПОВЕРХНЮ	-0.30103
-4.050283	ПОВЕРХУ	-0.30103
-4.050283	ПОВЕСЕЛІЛО	-0.30103
-3.874192	ПОВЕСЛУВАЛИ	-0.4771212
-4.050283	ПОВЗ	-0.30103
-4.050283	ПОВИГАНЯЛИ	-0.30103
-3.573162	ПОВИНЕН	-0.544068
-4.050283	ПОВИСКУВАВ	-0.30103
-4.050283	ПОВИТРУШУВАТИ	-0.30103
-4.050283	ПОВНІ	-0.30103
-4.050283	ПОВНІСТЮ	-0.30103
-4.050283	ПОВНІШИЙ	-0.30103
-4.050283	ПОВНИЛАСЯ	-0.30103
-4.050283	ПОВНО	-0.30103
-4.050283	ПОВНОГО	-0.30103
-3.652343	ПОВОЛІ	-0.30103
-4.050283	ПОВСІДАЛИСЯ	-0.30103
-4.050283	ПОВСТАЛИ	-0.30103
-4.050283	ПОВСЮДИОДНАК	-0.30103
-4.050283	ПОВСЯКДЕННИМИ	-0.30103
-3.175222	ПОВТОРИТЬСЯ	-0.90309
-4.050283	ПОГАМУВАТИ	-0.30103
-4.050283	ПОГАНА	-0.30103
-3.205185	ПОГАНО	-0.455932
-4.050283	ПОГАНЯТИ	-0.30103
-4.050283	ПОГАС	-0.30103
-4.050283	ПОГАСИТИ	-0.30103
-3.874192	ПОГЛЯД	-0.30103
-4.050283	ПОГЛЯДОМ	-0.30103
-4.050283	ПОГЛЯНУТИ	-0.30103
-4.050283	ПОГЛЯНЬ	-0.30103
-4.050283	ПОГНУТУ	-0.30103
-4.050283	ПОГОВОРИТИ	-0.30103
-4.050283	ПОГОДА	-0.30103
-4.050283	ПОГОДЖУЄТЬСЯ	-0.30103
-4.050283	ПОГОДЖУВАВСЯ	-0.30103
-4.050283	ПОГОДЖУВАЛАСЬ	-0.30103
-4.050283	ПОГОДЖУЮТЬСЯ	-0.30103
-4.050283	ПОГОДИ	-0.30103
-4.050283	ПОГОДИВСЯ	-0.30103
-4.050283	ПОГОДОЮ	-0.30103
-4.050283	ПОГОДУЙ	-0.30103
-3.874192	ПОГОДЬТЕСЬ	-0.30103
-4.050283	ПОГОНЮ	-0.30103
-4.050283	ПОГРОЖУВАЛИ	-0.30103
-4.050283	ПОГУЛЯТЬ	-0.30103
-4.050283	ПОДІБНИМ	-0.30103
-4.050283	ПОДІБНИХ	-0.30103
-4.050283	ПОДІБНОГО	-0.30103
-3.448223	ПОДІЙ	-0.90309
-4.050283	ПОДІЛ	-0.30103
-4.050283	ПОДІЛИТЬСЯ	-0.30103
-3.874192	ПОДАВСЯ	-0.30103
-3.749253	ПОДАЛІ	-0.60206
-4.050283	ПОДАЛИСЯ	-0.30103
-3.448223	ПОДАРУЄШ	-0.9030899
-4.050283	ПОДВІЙНО	-0.30103
-4.050283	ПОДВІЙНУ	-0.30103
-4.050283	ПОДЕРЖИТЬ	-0.30103
-4.050283	ПОДИВИСЬ	-0.30103
-3.749253	ПОДИВИТИСЬ	-0.39794
-4.050283	ПОДИВИТЬСЯАЖ	-0.30103
-3.874192	ПОДИХ	-0.30103
-4.050283	ПОДОБАЄТЬСЯ	-0.30103
-3.272132	ПОДОБАВСЯ	-1.079181
-4.050283	ПОДОБАЛИСЬ	-0.30103
-4.050283	ПОДОРОЖНІ	-0.30103
-4.050283	ПОДОРОЖНІХ	-0.30103
-4.050283	ПОДОРОЖУЮТЬ	-0.30103
-4.050283	ПОДРУГЕ	-0.30103
-3.749253	ПОДУЖАЄМО	-0.30103
-4.050283	ПОДУМАЙ	-0.30103
-4.050283	ПОДУМАТИ	-0.30103
-4.050283	ПОДУМАЮТЬ	-0.30103
-4.050283	ПОЖАЛКУЄШ	-0.30103
-4.050283	ПОЖАР	-0.30103
-4.050283	ПОЖВАВИЛИСЯ	-0.30103
-4.050283	ПОЖВАВЛЮЮТЬСЯ	-0.30103
-4.050283	ПОЖЕЖЕЮ	-0.30103
-3.874192	ПОЖЕЖНИКІВ	-0.30103
-4.050283	ПОЖЕЖНИКИ	-0.30103
-4.050283	ПОЖИВІТЬ	-0.30103
-4.050283	ПОЖИВА	-0.30103
-4.050283	ПОЖИТИ	-0.30103
-4.050283	ПОЗІХАЮЧИ	-0.30103
-3.120864	ПОЗАКЛАДАЛО	-0.9542424
-4.050283	ПОЗАПАДАЛИ	-0.30103
-4.050283	ПОЗАПИЛЮВАНІ	-0.30103
-4.050283	ПОЗБАВИВ	-0.30103
-3.874192	ПОЗИТИВНИЙ	-0.30103
-3.23737	ПОЗИТИВНО	-1.113943
-4.050283	ПОЗИЧЕНЕ	-0.30103
-4.050283	ПОЗИЧИЛИ	-0.30103
-4.050283	ПОКАЗУЄ	-0.30103
-3.874192	ПОКАЗУЮТЬ	-0.30103
-4.050283	ПОКВАПИТИСЯ	-0.30103
-4.050283	ПОКИДАЮТЬ	-0.30103
-4.050283	ПОКИНУТЬ	-0.30103
-3.506215	ПОКЛОНЯЄТЬСЯ	-0.845098
-4.050283	ПОКОТИВ	-0.30103
-4.050283	ПОКОТИВСЯ	-0.30103
-4.050283	ПОКРИВИЛИСЬ	-0.30103
-3.652343	ПОЛIТИКИ	-0.69897
-3.448223	ПОЛIТИКОЮ	-0.90309
-3.573162	ПОЛІ	-0.30103
-3.272132	ПОЛІТЕХНІКИ	-1.079181
-4.050283	ПОЛІТИКА	-0.30103
-3.874192	ПОЛЕ	-0.30103
-4.050283	ПОЛЕГЛИХ	-0.30103
-3.874192	ПОЛЕТІВ	-0.30103
-4.050283	ПОЛИВАЛИ	-0.30103
-3.749253	ПОЛКОВНИК	-0.39794
-4.050283	ПОЛОМЄ	-0.30103
-4.050283	ПОЛОМЯ	-0.30103
-4.050283	ПОЛОТНЯНИХ	-0.30103
-4.050283	ПОЛЬСЬКИХ	-0.30103
-4.050283	ПОЛЬЩІ	-0.30103
-3.652343	ПОЛЯ	-0.30103
-3.874192	ПОМІЖ	-0.30103
-4.050283	ПОМІНЯТИ	-0.30103
-3.573162	ПОМІТИЛИ	-0.30103
-4.050283	ПОМІТИТЬ	-0.30103
-3.573162	ПОМІТЯТЬ	-0.3521825
-4.050283	ПОМІЧАЄ	-0.30103
-4.050283	ПОМІЧАВ	-0.30103
-4.050283	ПОМІЧАЮЧИ	-0.30103
-4.050283	ПОМЕШКАННІ	-0.30103
-4.050283	ПОМЕШКАННЯ	-0.30103
-3.448223	ПОМИРАЄ	-0.90309
-4.050283	ПОМОЄМУ	-0.30103
-4.050283	ПОМЧАЛИ	-0.30103
-4.050283	ПОНІС	-0.30103
-3.506215	ПОНАД	-0.3424227
-4.050283	ПООБІДДЯ	-0.30103
-4.050283	ПООБКЛАДАЛИ	-0.30103
-3.506215	ПОПІД	-0.3424226
-4.050283	ПОПА	-0.30103
-4.050283	ПОПАДЕШ	-0.30103
-4.050283	ПОПАЛО	-0.30103
-3.874192	ПОПЕРЕДУ	-0.30103
-4.050283	ПОПЕРШЕ	-0.30103
-3.874192	ПОПИ	-0.30103
-3.448223	ПОПЛИВУТЬ	-0.90309
-4.050283	ПОПОВИЧ	-0.30103
-4.050283	ПОПОМ	-0.30103
-4.050283	ПОПРАВИТЬСЯ	-0.30103
-4.050283	ПОПРИ	-0.30103
-4.050283	ПОПРИГАДУВАЛИСЯ	-0.30103
-4.050283	ПОПРОСИВ	-0.30103
-4.050283	ПОПРОЩАВШИСЬ	-0.30103
-3.397071	ПОПУЛЯРИЗАЦІЇ	-0.9542425
-3.272132	ПОПУЛЯРНИМИ	-1.079181
-4.050283	ПОРІЗАНЕ	-0.30103
-4.050283	ПОРІЗНОМУ	-0.30103
-4.050283	ПОРАЗОК	-0.30103
-4.050283	ПОРАХУВАВ	-0.30103
-4.050283	ПОРАХУВАЛИ	-0.30103
-4.050283	ПОРАХУВАТИ	-0.30103
-4.050283	ПОРВАНИМ	-0.30103
-3.874192	ПОРИГАТИ	-0.30103
-4.050283	ПОРИНАЛИ	-0.30103
-4.050283	ПОРОГАМИ	-0.30103
-4.050283	ПОРОГОМ	-0.30103
-3.874192	ПОРОЖНІЙ	-0.30103
-4.050283	ПОРОЖНЬО	-0.30103
-4.050283	ПОРОЖНЬОМУ	-0.30103
-4.050283	ПОРОЖНЮ	-0.30103
-4.050283	ПОРОЗПУСКАЛИСЯ	-0.30103
-4.050283	ПОРОШКИ	-0.30103
-3.874192	ПОРТВЕЙНАМИ	-0.4771212
-4.050283	ПОРУ	-0.30103
-3.397071	ПОРУЧ	-0.3679768
-4.050283	ПОРЦЕЛЯНУ	-0.30103
-4.050283	ПОРЯД	-0.30103
-3.874192	ПОРЯДОК	-0.30103
-4.050283	ПОРЯТУЙТЕ	-0.30103
-4.050283	ПОСАДИВ	-0.30103
-4.050283	ПОСАДИЛА	-0.30103
-3.652343	ПОСВІДЧЕННЯ	-0.3679768
-3.874192	ПОСВІДЧЕННЯМ	-0.30103
-4.050283	ПОСВІДЧЕННЯМОЯ	-0.30103
-4.050283	ПОСВІТИЛА	-0.30103
-4.050283	ПОСВОЙОМУ	-0.30103
-4.050283	ПОСЕЛЯЮТЬСЯ	-0.30103
-3.874192	ПОСЕРЕД	-0.30103
-4.050283	ПОСЕРЕДИНІ	-0.30103
-4.050283	ПОСЕРЕДНИКІВ	-0.30103
-4.050283	ПОСКЛАДАЛА	-0.30103
-4.050283	ПОСЛАННЯ	-0.30103
-4.050283	ПОСЛИЗНУВСЯ	-0.30103
-3.30992	ПОСЛУГИ	-1.041393
-3.573162	ПОСЛУХАЙТЕ	-0.30103
-4.050283	ПОСМІХАЄТЬСЯ	-0.30103
-4.050283	ПОСМІХАЮТЬСЯ	-0.30103
-4.050283	ПОСМАЖИЛИСЬ	-0.30103
-4.050283	ПОСНУЛИ	-0.30103
-4.050283	ПОСПІШІМО	-0.30103
-4.050283	ПОСПОЛИТИХ	-0.30103
-4.050283	ПОСПОЛИТОЇ	-0.30103
-4.050283	ПОСПРАВЖНЬОМУ	-0.30103
-4.050283	ПОСТІЙНИМИ	-0.30103
-3.874192	ПОСТІЙНО	-0.30103
-4.050283	ПОСТАЄ	-0.30103
-4.050283	ПОСТАВИЛИ	-0.30103
-4.050283	ПОСТЕРНУВАЛИ	-0.30103
-4.050283	ПОСТТОТАЛІТАРНОГО	-0.30103
-4.050283	ПОСТУЛЮВАЛИСЯ	-0.30103
-3.573162	ПОСТУПАЄТЬСЯ	-0.7781513
-4.050283	ПОСУНУТИ	-0.30103
-4.050283	ПОТІК	-0.30103
-3.029094	ПОТІМ	-0.3853509
-4.050283	ПОТЕКЛИ	-0.30103
-3.874192	ПОТЕРПІЛЬЦІ	-0.30103
-4.050283	ПОТЕРПАЛО	-0.30103
-4.050283	ПОТОВКЛИ	-0.30103
-4.050283	ПОТОМЛЕНІ	-0.30103
-4.050283	ПОТРІБНІ	-0.30103
-3.874192	ПОТРІБНИМИ	-0.4771212
-3.448223	ПОТРІБНО	-0.30103
-4.050283	ПОТРАХАТИСЬ	-0.30103
-4.050283	ПОТРЕБИ	-0.30103
-4.050283	ПОТРЕБУЄ	-0.30103
-4.050283	ПОТРЕТЄ	-0.30103
-4.050283	ПОТРИВОЖИЛИ	-0.30103
-4.050283	ПОТЯГ	-0.30103
-4.050283	ПОТЯГНУЛА	-0.30103
-4.050283	ПОФАРБОВАНІ	-0.30103
-4.050283	ПОХАПЦЕМ	-0.30103
-4.050283	ПОХИЛИЙ	-0.30103
-4.050283	ПОХИЛУ	-0.30103
-3.874192	ПОХМЕЛИТИСЬ	-0.30103
-4.050283	ПОХМУРА	-0.30103
-4.050283	ПОХМУРИМИ	-0.30103
-3.351313	ПОХОДЖЕННЯ	-0.7403628
-4.050283	ПОХУЇСТ	-0.30103
-4.050283	ПОЦІКАВИЛАСЯ	-0.30103
-4.050283	ПОЦІЛОВАВ	-0.30103
-4.050283	ПОЦІЛОВАВСЬ	-0.30103
-3.573162	ПОЧАВ	-0.30103
-4.050283	ПОЧАЛА	-0.30103
-3.573162	ПОЧАЛИ	-0.30103
-3.272132	ПОЧАТКУ	-1.079181
-4.050283	ПОЧЕКАЙНО	-0.30103
-4.050283	ПОЧЕКАЙТЕ	-0.30103
-4.050283	ПОЧЕРЕЗ	-0.30103
-3.205185	ПОЧИНАЄ	-0.4559319
-4.050283	ПОЧИНАЄШ	-0.30103
-4.050283	ПОЧИНАЛИ	-0.30103
-3.874192	ПОЧИНАЛОСЬ	-0.30103
-4.050283	ПОЧИНАЮ	-0.30103
-3.874192	ПОЧИНАЮТЬ	-0.30103
-4.050283	ПОЧИНАЮТЬСЯ	-0.30103
-4.050283	ПОЧНУТЬ	-0.30103
-4.050283	ПОЧУЄ	-0.30103
-4.050283	ПОЧУВ	-0.30103
-4.050283	ПОЧУЛА	-0.30103
-4.050283	ПОЧУЛИ	-0.30103
-4.050283	ПОЧУЛОСЯ	-0.30103
-4.050283	ПОЧУТТЯ	-0.30103
-4.050283	ПОШЕПКИ	-0.30103
-3.506215	ПОШИРЮВАЛИСЯ	-0.845098
-4.050283	ПОШУКАХ	-0.30103
-3.874192	ПОШУКИ	-0.30103
-3.506215	ПОШУКУ	-0.845098
-4.050283	ПОЩАСТИЛО	-0.30103
-4.050283	ПОЯСА	-0.30103
-3.874192	ПОЯСНИТИ	-0.30103
-4.050283	ПОЯСОМ	-0.30103
-4.050283	ПОЯТЬ	-0.30103
-4.050283	ПРІЗВИЩУ	-0.30103
-4.050283	ПРАВ	-0.30103
-3.573162	ПРАВДА	-0.30103
-3.874192	ПРАВДИ	-0.30103
-4.050283	ПРАВДИВА	-0.30103
-4.050283	ПРАВИВ	-0.30103
-3.448223	ПРАВИЙ	-0.3357921
-4.050283	ПРАВИЛО	-0.30103
-3.874192	ПРАВИЛЬНО	-0.30103
-4.050283	ПРАВИМ	-0.30103
-4.050283	ПРАВИТИ	-0.30103
-4.050283	ПРАВУВАЛИСЬ	-0.30103
-4.050283	ПРАЛІСАМИ	-0.30103
-4.050283	ПРАЛІСУ	-0.30103
-4.050283	ПРАПОРАМИ	-0.30103
-4.050283	ПРАПОРИ	-0.30103
-3.397071	ПРАСЛОВЯНСЬКА	-0.9542425
-3.272132	ПРАЦЕЮ	-1.079181
-3.749253	ПРАЦЮЄ	-0.30103
-4.050283	ПРАЦЮЄШ	-0.30103
-4.050283	ПРАЦЮВАЛА	-0.30103
-3.874192	ПРАЦЮВАЛИ	-0.30103
-3.652343	ПРАЦЮВАТИ	-0.30103
-4.050283	ПРАЦЯ	-0.30103
-3.30992	ПРЕЗЕНТАЦІЇ	-1.041393
-4.050283	ПРЕКРАСНА	-0.30103
-3.147193	ПРИ	-0.6766936
-4.050283	ПРИЇДЕ	-0.30103
-4.050283	ПРИЇЗДИЛИ	-0.30103
-3.874192	ПРИЇХАВ	-0.30103
-4.050283	ПРИЇХАЛИ	-0.30103
-4.050283	ПРИБЛИЗНО	-0.30103
-4.050283	ПРИБУВАЄ	-0.30103
-4.050283	ПРИБУВАЛА	-0.30103
-4.050283	ПРИБУЛЬЦІ	-0.30103
-4.050283	ПРИВІТ	-0.30103
-4.050283	ПРИВІТНІ	-0.30103
-4.050283	ПРИВІТНЕ	-0.30103
-4.050283	ПРИВОДЯТЬ	-0.30103
-3.874192	ПРИВОЗЯТЬ	-0.4771213
-4.050283	ПРИВЯЖИ	-0.30103
-4.050283	ПРИВЯЗАВ	-0.30103
-4.050283	ПРИГАСАЛИ	-0.30103
-4.050283	ПРИГАСАТИ	-0.30103
-4.050283	ПРИГЛЯДАЛАСЯ	-0.30103
-4.050283	ПРИГЛЯДАТИСЯ	-0.30103
-4.050283	ПРИГОД	-0.30103
-4.050283	ПРИГОДИ	-0.30103
-4.050283	ПРИГОРЩЕЮ	-0.30103
-4.050283	ПРИГОТОВАНЕ	-0.30103
-4.050283	ПРИДАВИТИ	-0.30103
-4.050283	ПРИДИВЛЯЮТЬСЯ	-0.30103
-4.050283	ПРИДИХОМ	-0.30103
-4.050283	ПРИДУМАВ	-0.30103
-4.050283	ПРИДУРКІВ	-0.30103
-4.050283	ПРИЙДЕ	-0.30103
-3.874192	ПРИЙДЕШ	-0.4771212
-4.050283	ПРИЙНЯТО	-0.30103
-3.874192	ПРИЙТИ	-0.30103
-3.874192	ПРИЙШЛИ	-0.30103
-4.050283	ПРИЙШЛОСЬ	-0.30103
-4.050283	ПРИКАЗУВАЛИ	-0.30103
-4.050283	ПРИКОЛЬНІ	-0.30103
-4.050283	ПРИКОЛЬНА	-0.30103
-4.050283	ПРИЛАД	-0.30103
-4.050283	ПРИМАРНИМИ	-0.30103
-4.050283	ПРИМХ	-0.30103
-4.050283	ПРИМЧАЛИ	-0.30103
-4.050283	ПРИНАДИ	-0.30103
-4.050283	ПРИНАЙМНІ	-0.30103
-4.050283	ПРИНЕВОЛЕНО	-0.30103
-4.050283	ПРИНЕСІТЬ	-0.30103
-4.050283	ПРИНЕСЛИ	-0.30103
-4.050283	ПРИНЕСТИ	-0.30103
-4.050283	ПРИНИШКЛІ	-0.30103
-4.050283	ПРИНИШКЛИ	-0.30103
-4.050283	ПРИНИШКЛО	-0.30103
-4.050283	ПРИНОСИВ	-0.30103
-3.573162	ПРИНЦИПІ	-0.30103
-4.050283	ПРИНЦИПОВІ	-0.30103
-4.050283	ПРИПЛИВЛО	-0.30103
-3.874192	ПРИПОВЗАЄ	-0.4771213
-3.506215	ПРИРОДОЮ	-0.845098
-4.050283	ПРИСВІЧУ	-0.30103
-3.30992	ПРИСВЯТИВШИ	-1.041393
-4.050283	ПРИСЛУХАЄТЬСЯ	-0.30103
-4.050283	ПРИСЛУХАЛОСЯ	-0.30103
-4.050283	ПРИСОРОМЛЕНИХ	-0.30103
-4.050283	ПРИСТАВ	-0.30103
-4.050283	ПРИСТАЮТЬ	-0.30103
-4.050283	ПРИСТРАСНО	-0.30103
-3.874192	ПРИСУТНІ	-0.30103
-4.050283	ПРИСУТНОСТІ	-0.30103
-4.050283	ПРИТИСКАЮЧИСЬ	-0.30103
-4.050283	ПРИТИХЛИХ	-0.30103
-4.050283	ПРИТРИМУВАЛА	-0.30103
-4.050283	ПРИТРИМУЮЧИСЬ	-0.30103
-4.050283	ПРИТУЛИВШИСЬ	-0.30103
-4.050283	ПРИТУЛИЛИСЯ	-0.30103
-4.050283	ПРИТУЛИТИСЯ	-0.30103
-3.30992	ПРИТЯГАЛЬНЕ	-1.041393
-4.050283	ПРИТЯГУЄ	-0.30103
-3.272132	ПРИХИЛЬНИКІВ	-1.079181
-4.050283	ПРИХОДИВ	-0.30103
-3.749253	ПРИХОДИТЬ	-0.30103
-3.874192	ПРИХОДЯТЬ	-0.30103
-4.050283	ПРИЧВАЛАЛА	-0.30103
-4.050283	ПРИЧИНА	-0.30103
-3.874192	ПРИЧОМУ	-0.30103
-4.050283	ПРИЩЕПИТИ	-0.30103
-4.050283	ПРИЯТЕЛЯ	-0.30103
-2.551973	ПРО	-0.6127838
-4.050283	ПРОЇБАЛИ	-0.30103
-4.050283	ПРОЇЗД	-0.30103
-4.050283	ПРОБУВАВ	-0.30103
-4.050283	ПРОБУХУЄМО	-0.30103
-4.050283	ПРОВАДИЛИ	-0.30103
-4.050283	ПРОВЕРНУТИ	-0.30103
-4.050283	ПРОВОДИТЬ	-0.30103
-4.050283	ПРОГРАМИ	-0.30103
-3.749253	ПРОДАЄ	-0.30103
-4.050283	ПРОДАВ	-0.30103
-3.23737	ПРОДАВАТИ	-0.69897
-4.050283	ПРОДАВШИ	-0.30103
-4.050283	ПРОДАВЩИЦЬ	-0.30103
-4.050283	ПРОДАВЩИЦЯ	-0.30103
-3.506215	ПРОДАЖУ	-0.8450981
-3.652343	ПРОДАТИ	-0.30103
-3.448223	ПРОДОВЖУВАТИ	-0.90309
-4.050283	ПРОДОВОЛЬЧИМ	-0.30103
-4.050283	ПРОДУКТИ	-0.30103
-4.050283	ПРОДУКЦІЇ	-0.30103
-3.397071	ПРОЕКТУ	-0.9542425
-4.050283	ПРОЖИВАЛИ	-0.30103
-4.050283	ПРОЖИЛИ	-0.30103
-3.749253	ПРОКИНУВШИСЬ	-0.30103
-4.050283	ПРОКЛЯТІ	-0.30103
-4.050283	ПРОКЛЯТА	-0.30103
-4.050283	ПРОКУСИВ	-0.30103
-4.050283	ПРОЛІТАЄ	-0.30103
-3.506215	ПРОЛУНАЛО	-0.8450981
-4.050283	ПРОМІННІ	-0.30103
-4.050283	ПРОМІНЬ	-0.30103
-4.050283	ПРОМЕНІ	-0.30103
-4.050283	ПРОМОВИ	-0.30103
-4.050283	ПРОМОВИВ	-0.30103
-4.050283	ПРОМОВИЛА	-0.30103
-4.050283	ПРОМОВЛЯТИ	-0.30103
-4.050283	ПРОМОЧИВ	-0.30103
-4.050283	ПРОНИЗЛИВО	-0.30103
-4.050283	ПРОНИРА	-0.30103
-4.050283	ПРОНОЗА	-0.30103
-4.050283	ПРОПАВ	-0.30103
-4.050283	ПРОПАДАВ	-0.30103
-4.050283	ПРОПАДАТИ	-0.30103
-4.050283	ПРОПАДАТЬ	-0.30103
-4.050283	ПРОПИВ	-0.30103
-4.050283	ПРОПИСКИ	-0.30103
-4.050283	ПРОПЛИВЛО	-0.30103
-4.050283	ПРОПОВІДУВАВ	-0.30103
-4.050283	ПРОПОНУВАЛИ	-0.30103
-4.050283	ПРОПРАЦЮВАВ	-0.30103
-4.050283	ПРОПУСТІТЬГОВОРИТЬ	-0.30103
-4.050283	ПРОПУСТИВ	-0.30103
-4.050283	ПРОПУСТИЛА	-0.30103
-4.050283	ПРОРВАТИСЬ	-0.30103
-4.050283	ПРОРИВАЮТЬ	-0.30103
-4.050283	ПРОСИРАВ	-0.30103
-3.397071	ПРОСИТЬ	-0.9542425
-4.050283	ПРОСЛІДКУВАТИ	-0.30103
-4.050283	ПРОСЛИЗНУТИ	-0.30103
-4.050283	ПРОСТІ	-0.30103
-4.050283	ПРОСТІШЕ	-0.30103
-3.351313	ПРОСТЕЛИВСЯ	-1
-4.050283	ПРОСТЕРТИЙ	-0.30103
-3.749253	ПРОСТИТУТКИ	-0.30103
-3.874192	ПРОСТИТУТОК	-0.30103
-4.050283	ПРОСТИХ	-0.30103
-2.819834	ПРОСТО	-0.4860761
-4.050283	ПРОСТРАЦІЇ	-0.30103
-4.050283	ПРОСТУВАВ	-0.30103
-4.050283	ПРОСТУВАЛИ	-0.30103
-4.050283	ПРОСТУЮТЬ	-0.30103
-4.050283	ПРОСТЯГ	-0.30103
-4.050283	ПРОСТЯГНУТИ	-0.30103
-4.050283	ПРОТЕ	-0.30103
-4.050283	ПРОТЕКЦІЄЮ	-0.30103
-4.050283	ПРОТИ	-0.30103
-4.050283	ПРОТИВНИЙ	-0.30103
-4.050283	ПРОТИЛЕЖНОГО	-0.30103
-3.506215	ПРОТУХНЕ	-0.8450981
-3.448223	ПРОТЯГ	-0.90309
-3.448223	ПРОТЯГОМ	-0.6532125
-4.050283	ПРОТЯЖНО	-0.30103
-3.874192	ПРОХОДУ	-0.30103
-4.050283	ПРОХОДЬТЕ	-0.30103
-4.050283	ПРОХОЛОДНОЇ	-0.30103
-4.050283	ПРОХОЛОДНОГО	-0.30103
-4.050283	ПРОХОЛОДНОМУ	-0.30103
-4.050283	ПРОЧАН	-0.30103
-4.050283	ПРОЧАНИ	-0.30103
-4.050283	ПРОЧИТАЛА	-0.30103
-4.050283	ПРОЩАННЯ	-0.30103
-3.506215	ПРОЩАТИ	-0.845098
-4.050283	ПРОЩУ	-0.30103
-4.050283	ПРЯДИВА	-0.30103
-4.050283	ПРЯМІСІНЬКО	-0.30103
-3.874192	ПРЯМО	-0.30103
-4.050283	ПСИ	-0.30103
-4.050283	ПТАХАМИ	-0.30103
-4.050283	ПТАХИ	-0.30103
-4.050283	ПТАШИНЕ	-0.30103
-4.050283	ПТАШКА	-0.30103
-4.050283	ПТАШКИ	-0.30103
-4.050283	ПУБЛІКА	-0.30103
-4.050283	ПУДИНГУ	-0.30103
-4.050283	ПУСТИННИКОМ	-0.30103
-4.050283	ПУСТИННОЖИТЕЛЕМ	-0.30103
-4.050283	ПУСТИТИ	-0.30103
-4.050283	ПХАЄ	-0.30103
-4.050283	ПЯНІ	-0.30103
-3.749253	ПЯНИЙ	-0.30103
-4.050283	ПЯНИХ	-0.30103
-4.050283	ПЯТЕРО	-0.30103
-4.050283	ПЯТИЙ	-0.30103
-4.050283	ПЯТНАДЦЯТІЙ	-0.30103
-4.050283	ПЯТНАДЦЯТЬ	-0.30103
-4.050283	ПЯТОЇ	-0.30103
-4.050283	ПЯТЬ	-0.30103
-4.050283	ПЯТЬМА	-0.30103
-4.050283	РІГ	-0.30103
-3.874192	РІД	-0.30103
-4.050283	РІДКІСНОЇ	-0.30103
-4.050283	РІДНА	-0.30103
-4.050283	РІДНИХ	-0.30103
-4.050283	РІДНОГО	-0.30103
-3.652343	РІЗНІ	-0.30103
-4.050283	РІЗНА	-0.30103
-4.050283	РІЗНОЇ	-0.30103
-4.050283	РІЗНОКОЛЬОРОВІ	-0.30103
-4.050283	РІЗНУ	-0.30103
-4.050283	РІЙНУ	-0.30103
-4.050283	РІК	-0.30103
-4.050283	РІКУ	-0.30103
-4.050283	РІНЬ	-0.30103
-3.448223	РІЧ	-0.3357921
-4.050283	РІЧКА	-0.30103
-4.050283	РІЧКУ	-0.30103
-3.00889	РІШЕННЯ	-1.060698
-3.072559	РАВЛИК	-1
-3.397071	РАВЛИКА	-0.9542425
-3.874192	РАДІСТЬ	-0.30103
-4.050283	РАДИЙ	-0.30103
-3.749253	РАДОСТІ	-0.39794
-4.050283	РАДЯНСЬКУ	-0.30103
-2.989585	РАЗ	-0.3756636
-3.749253	РАЗІ	-0.30103
-3.749253	РАЗІВ	-0.30103
-4.050283	РАЗДВАТРИ	-0.30103
-3.351313	РАЗОМ	-0.5118834
-3.573162	РАЗУ	-0.3521825
-4.050283	РАКА	-0.30103
-3.448223	РАКОВИХ	-0.90309
-3.749253	РАНІШЕ	-0.39794
-4.050283	РАНКОВОЮ	-0.30103
-4.050283	РАНКОВУ	-0.30103
-3.448223	РАНКУ	-0.30103
-3.272132	РАНОК	-0.8129134
-3.205185	РАПТОМ	-0.3187588
-4.050283	РАХУВАЛИСЬ	-0.30103
-3.874192	РАХУНКОМ	-0.30103
-4.050283	РАЦІЄЮ	-0.30103
-3.272132	РАЦІЮ	-1.079181
-4.050283	РВАНІ	-0.30103
-3.874192	РВАТИ	-0.30103
-4.050283	РЕЄСТРІ	-0.30103
-4.050283	РЕЄСТРОВИМ	-0.30103
-4.050283	РЕЄСТРОВИМИ	-0.30103
-4.050283	РЕЄСТРОВОГО	-0.30103
-4.050283	РЕАЛЬНІСТЮ	-0.30103
-4.050283	РЕВЕ	-0.30103
-4.050283	РЕВЕРАНС	-0.30103
-4.050283	РЕВНИВО	-0.30103
-4.050283	РЕВУТЬ	-0.30103
-4.050283	РЕГБІ	-0.30103
-4.050283	РЕГОТАВСЬ	-0.30103
-4.050283	РЕДАКТОР	-0.30103
-4.050283	РЕДАКЦІЇ	-0.30103
-3.874192	РЕЗУЛЬТАТОМ	-0.30103
-3.874192	РЕКЛАМИ	-0.30103
-3.749253	РЕКЛАМНИЙ	-0.39794
-3.506215	РЕКЛАМНИКИ	-0.3424227
-4.050283	РЕКЛАМНОЇ	-0.30103
-4.050283	РЕКЛАМНОМУ	-0.30103
-4.050283	РЕКЛАМОЮ	-0.30103
-4.050283	РЕКУРСУ	-0.30103
-4.050283	РЕСПУБЛІЦІ	-0.30103
-4.050283	РЕТЕЛЬНО	-0.30103
-3.351313	РЕЧІ	-0.30103
-3.874192	РЕЧАМИ	-0.30103
-3.652343	РЕЧЕЙ	-0.30103
-4.050283	РЕШТ	-0.30103
-3.874192	РЕШТА	-0.30103
-4.050283	РЕШТКАМИ	-0.30103
-4.050283	РЕШТУ	-0.30103
-3.874192	РИБ	-0.30103
-4.050283	РИБАЛКАМ	-0.30103
-4.050283	РИБИ	-0.30103
-4.050283	РИБОЮ	-0.30103
